~o
<STREAMINFO> 1 39
<VECSIZE> 39<NULLD><MFCC_E_D_A><DIAGC>
~h "eight"
<BEGINHMM>
<NUMSTATES> 5
<STATE> 2
<MEAN> 39
 -5.372779e+00 -6.078619e+00 8.167549e+00 -4.192213e+00 -3.535269e+00 -7.462624e+00 -1.684304e+00 9.495804e+00 -4.947034e+00 -3.512533e+00 -6.070640e+00 -3.960086e+00 5.545527e-01 1.817199e-01 -2.991544e-01 6.168545e-01 -3.350734e-01 -1.229019e+00 -8.337343e-01 3.487261e-01 1.456603e+00 -2.484883e-01 6.485339e-01 6.983646e-01 -4.368942e-02 2.700886e-02 -2.453321e-02 9.521148e-02 8.800495e-02 6.144412e-03 -6.084109e-02 8.767984e-03 -7.313481e-02 -2.392304e-01 -1.132739e-02 5.106411e-02 1.195104e-01 1.335997e-01 -7.413176e-04
<VARIANCE> 39
 9.253294e+00 1.306847e+01 1.241582e+01 1.282145e+01 5.800260e+01 2.549903e+01 2.618561e+01 1.711606e+02 2.144654e+01 2.735564e+01 2.374061e+01 2.311802e+01 3.545859e-02 1.025130e+00 9.701315e-01 6.809411e-01 9.921556e-01 1.471816e+00 7.170898e-01 1.995765e+00 8.427974e+00 2.186795e+00 1.820845e+00 1.722070e+00 2.316312e+00 1.174125e-03 2.046721e-01 1.724982e-01 1.332808e-01 1.746903e-01 1.970404e-01 1.853612e-01 3.944932e-01 1.154455e+00 4.116499e-01 2.921518e-01 3.531235e-01 3.510102e-01 2.015922e-04
<GCONST> 8.117392e+01
<STATE> 3
<MEAN> 39
 -5.654990e+00 -9.887562e-01 1.755502e+01 -5.007524e+00 -1.165931e+01 -7.786325e+00 -8.276180e+00 8.198157e-02 -6.322895e+00 1.762308e+00 -1.863771e-01 1.912680e+00 6.632233e-01 -1.906917e-01 6.644343e-01 -2.913642e-01 3.079310e-01 1.178953e+00 9.997485e-01 -8.934413e-01 -2.074034e+00 7.911650e-03 -6.710618e-01 -5.983254e-01 1.849516e-01 -2.362227e-02 3.213240e-02 -1.744079e-01 -4.038593e-01 2.230289e-02 2.532552e-01 -1.219386e-02 2.451804e-01 2.069568e-01 1.504917e-01 -1.507804e-01 -1.995335e-01 -1.995850e-01 -4.662882e-03
<VARIANCE> 39
 1.958758e+00 1.127572e+01 1.572824e+01 1.050910e+01 3.211920e+01 3.056654e+01 3.241872e+01 7.703480e+01 1.635973e+01 1.828059e+01 2.215500e+01 1.121080e+01 5.761231e-03 2.285361e-01 9.381325e-01 3.620996e+00 7.393973e-01 1.871916e+00 1.819264e+00 2.660936e+00 3.310657e+00 1.892650e+00 1.130965e+00 2.088953e+00 1.427966e+00 4.917990e-04 4.758079e-02 9.436475e-02 2.533339e-01 1.691198e-01 3.004964e-01 4.274434e-01 3.774548e-01 4.047374e-01 3.277343e-01 2.505571e-01 3.700717e-01 1.769645e-01 6.266335e-05
<GCONST> 7.034348e+01
<STATE> 4
<MEAN> 39
 -1.013598e+01 -1.523094e+00 5.988139e+00 -3.618683e+00 3.267734e+00 -4.401071e+00 -4.616367e+00 -4.901578e+00 -1.789951e+00 -6.703554e+00 -5.400476e+00 -3.823464e-02 3.903625e-01 -3.242965e-02 -7.782537e-02 -2.149322e-01 7.876753e-02 2.356474e-01 1.119679e-01 1.947412e-01 -2.924236e-02 1.445307e-01 -1.430189e-01 -1.052450e-01 -2.851487e-02 -5.496166e-03 9.310868e-03 2.160353e-02 8.451562e-02 -1.857067e-02 -5.508077e-02 9.730254e-03 -4.269804e-02 3.095359e-02 -1.695525e-02 2.659830e-02 1.470102e-02 9.532936e-03 1.818808e-03
<VARIANCE> 39
 2.878989e+01 5.628506e+00 9.567569e+00 1.613898e+01 9.549994e+00 1.978186e+01 1.275127e+01 3.189197e+01 1.546508e+01 1.520626e+01 2.237734e+01 9.730124e+00 5.976153e-03 3.021277e+00 7.792400e-01 1.319984e+00 1.599770e+00 1.118086e+00 1.999975e+00 1.609067e+00 2.785331e+00 1.719995e+00 1.645323e+00 2.137884e+00 1.062867e+00 8.841142e-04 5.056728e-01 1.625115e-01 2.104378e-01 2.976336e-01 1.988244e-01 3.450957e-01 3.171464e-01 4.519690e-01 3.188086e-01 3.286018e-01 3.785602e-01 2.213296e-01 1.442394e-04
<GCONST> 7.404547e+01
<TRANSP> 5
 0.000000e+00 1.000000e+00 0.000000e+00 0.000000e+00 0.000000e+00
 0.000000e+00 9.287286e-01 7.127136e-02 0.000000e+00 0.000000e+00
 0.000000e+00 0.000000e+00 8.977951e-01 1.022049e-01 0.000000e+00
 0.000000e+00 0.000000e+00 0.000000e+00 9.625890e-01 3.741108e-02
 0.000000e+00 0.000000e+00 0.000000e+00 0.000000e+00 0.000000e+00
<ENDHMM>
