~o
<STREAMINFO> 1 39
<VECSIZE> 39<NULLD><MFCC_E_D_A><DIAGC>
~h "eight"
<BEGINHMM>
<NUMSTATES> 5
<STATE> 2
<MEAN> 39
 -1.347899e+01 -2.127752e+00 -1.102892e+00 -1.971211e+00 7.004908e-01 5.281981e-01 1.561859e+00 6.090381e-01 6.527308e-01 -3.316482e-02 3.530339e-01 -1.523609e-01 -7.423890e-02 1.773406e-01 -1.402605e-01 5.135130e-01 -4.329423e-01 -3.648506e-01 -4.286260e-01 -4.472276e-02 3.046343e-01 -4.870828e-01 -4.805195e-04 -3.490290e-01 -5.606708e-02 2.609312e-02 1.730671e-01 -6.196401e-02 2.391928e-01 -2.583003e-01 -1.926191e-01 -3.185416e-01 1.509380e-02 2.074947e-01 -1.933094e-01 1.600671e-02 -1.334455e-01 -1.945079e-02 1.549701e-02
<VARIANCE> 39
 7.444366e-01 1.983758e+00 3.727470e+00 4.304054e+00 7.783247e+00 8.691659e+00 8.860612e+00 1.170409e+01 9.765281e+00 1.186722e+01 1.137842e+01 1.075158e+01 2.430583e-03 3.746816e-01 6.318496e-01 1.739168e+00 1.760276e+00 1.729530e+00 2.920008e+00 1.308846e+00 2.076121e+00 2.110434e+00 1.362486e+00 1.678826e+00 1.053607e+00 4.189072e-03 1.443338e-01 7.534766e-02 2.703181e-01 2.677154e-01 2.807936e-01 4.834212e-01 2.814075e-01 3.660164e-01 3.279949e-01 2.875502e-01 3.180581e-01 2.330615e-01 6.729763e-04
<GCONST> 6.200225e+01
<STATE> 3
<MEAN> 39
 -2.615243e+00 -2.341374e+00 2.053164e+01 -1.149522e+01 -1.185857e+01 -1.356153e+01 -1.187123e+00 9.395500e+00 -1.386946e+01 -1.974530e+00 -3.707613e+00 4.276751e-01 7.567100e-01 3.302658e-01 4.997798e-01 3.770418e-01 4.290979e-01 5.570837e-02 3.507046e-03 -1.633871e-01 -2.035028e-01 -1.435839e-01 -3.385012e-01 1.083150e-01 -1.851913e-01 6.047483e-03 -1.642870e-01 -8.636348e-03 -3.178964e-01 1.806975e-01 2.023102e-01 2.456066e-01 -5.693312e-02 -2.046276e-01 1.843333e-01 5.475477e-03 1.077215e-01 -8.576252e-03 -1.404738e-02
<VARIANCE> 39
 1.068034e+01 5.225307e+01 4.902245e+01 4.950645e+01 2.039492e+01 2.543147e+01 3.478124e+01 5.311945e+01 3.709715e+01 2.129267e+01 1.592419e+01 2.113860e+01 2.127869e-02 1.792333e+00 2.119192e+00 5.411469e+00 3.946087e+00 2.933689e+00 4.335219e+00 2.251784e+00 3.061511e+00 3.732754e+00 1.142253e+00 1.784774e+00 1.550657e+00 6.891964e-03 1.998673e-01 3.222362e-01 4.021930e-01 5.185705e-01 2.581496e-01 5.028885e-01 3.851055e-01 3.146829e-01 5.303001e-01 1.713028e-01 3.382711e-01 2.443906e-01 3.696059e-04
<GCONST> 9.331327e+01
<STATE> 4
<MEAN> 39
 -1.234619e+01 -8.935254e-01 2.321379e-01 -2.887237e+00 -2.587154e+00 -4.431656e+00 1.645852e-01 -1.509443e-01 -4.258013e+00 -2.019683e+00 -2.144170e+00 -1.874780e+00 8.863995e-02 -2.110733e-01 -2.126386e-01 -3.024157e-01 -8.255028e-02 -1.156060e-03 2.361709e-02 6.164325e-02 -6.158676e-02 1.167170e-01 1.495389e-01 -6.780414e-03 6.881814e-02 -9.342749e-03 3.231484e-02 2.888954e-02 8.588409e-02 -1.034294e-02 -3.648071e-02 -3.946953e-02 2.498022e-02 4.758418e-02 -4.086645e-02 -2.124409e-03 2.212450e-03 3.849293e-03 2.567397e-03
<VARIANCE> 39
 1.150038e+01 8.263884e+00 2.043422e+01 1.799175e+01 1.944387e+01 2.664756e+01 2.038643e+01 1.828217e+01 2.778123e+01 2.456166e+01 2.399634e+01 2.016528e+01 4.188649e-02 7.994070e-01 9.052309e-01 2.125245e+00 1.553747e+00 2.584189e+00 2.896605e+00 1.834442e+00 1.718608e+00 2.987647e+00 2.551533e+00 2.240904e+00 1.928310e+00 5.907555e-03 1.211348e-01 1.743917e-01 3.132945e-01 3.367782e-01 5.806301e-01 5.728905e-01 3.535872e-01 3.431826e-01 6.313185e-01 5.138996e-01 4.540715e-01 3.980612e-01 1.118160e-03
<GCONST> 8.729127e+01
<TRANSP> 5
 0.000000e+00 1.000000e+00 0.000000e+00 0.000000e+00 0.000000e+00
 0.000000e+00 9.213459e-01 7.865404e-02 0.000000e+00 0.000000e+00
 0.000000e+00 0.000000e+00 9.543082e-01 4.569176e-02 0.000000e+00
 0.000000e+00 0.000000e+00 0.000000e+00 9.756778e-01 2.432226e-02
 0.000000e+00 0.000000e+00 0.000000e+00 0.000000e+00 0.000000e+00
<ENDHMM>
