~o
<STREAMINFO> 1 39
<VECSIZE> 39<NULLD><MFCC_E_D_A><DIAGC>
~h "eight"
<BEGINHMM>
<NUMSTATES> 5
<STATE> 2
<MEAN> 39
 -8.414220e+00 2.839709e+00 5.606172e+00 1.307374e+00 7.154929e+00 -4.391826e+00 -2.175862e+00 -7.069704e+00 -1.722165e+00 -1.001115e+01 -6.628990e+00 -3.457544e+00 2.823365e-01 -1.618040e-03 2.819095e-02 9.044455e-03 -2.718992e-02 -9.407530e-02 -3.203832e-02 1.607353e-02 -1.030859e-02 1.511790e-02 1.232198e-02 -1.952106e-02 -8.598161e-04 3.141819e-05 7.125226e-03 -8.143951e-04 6.679820e-03 4.322684e-04 -2.394851e-02 -1.981913e-02 -1.390920e-03 2.090689e-02 1.107856e-02 3.037719e-02 2.339292e-02 5.918277e-03 3.199725e-05
<VARIANCE> 39
 8.803828e+00 5.869055e+00 6.650565e+00 9.018312e+00 8.080154e+00 1.429949e+01 1.555825e+01 1.430252e+01 1.672418e+01 1.637463e+01 1.194345e+01 1.302178e+01 4.315384e-03 5.080600e-01 5.219219e-01 5.960656e-01 6.818542e-01 8.805614e-01 1.330265e+00 1.377806e+00 1.531828e+00 1.500290e+00 1.773906e+00 1.255582e+00 1.320266e+00 3.034875e-04 9.343828e-02 1.023111e-01 1.164949e-01 1.427807e-01 1.799740e-01 2.794297e-01 2.773487e-01 3.068476e-01 3.207885e-01 3.672679e-01 2.628405e-01 2.549775e-01 6.414926e-05
<GCONST> 5.844992e+01
<STATE> 3
<MEAN> 39
 -9.105817e+00 2.873516e+00 3.855862e+00 -2.796493e-01 5.099546e+00 -3.675192e+00 -1.711968e+00 -5.707448e+00 -7.063124e-01 -5.547825e+00 -3.279759e+00 -3.671248e+00 3.137409e-01 -7.994299e-04 -1.206026e-02 3.554048e-01 4.917246e-02 -1.796327e+00 5.773609e-02 -9.704098e-02 1.831444e-01 -2.590765e-02 5.242254e-01 9.475754e-01 -7.122023e-02 2.439399e-02 4.314549e-02 9.786233e-02 3.566516e-01 -8.558118e-02 -8.458133e-01 -1.489125e-02 -2.560738e-03 1.741672e-01 2.609478e-02 4.444534e-02 3.558175e-01 -1.585509e-01 1.189063e-02
<VARIANCE> 39
 6.977151e+00 5.101286e+00 1.332283e+01 5.612811e+00 1.138496e+01 1.373087e+01 1.880138e+01 2.655345e+01 1.425491e+01 2.844521e+01 1.919166e+01 6.157839e+00 5.238253e-03 6.902049e-01 3.499204e-01 3.296665e+00 1.004457e+00 8.930883e+00 1.242770e+00 1.382728e+00 1.673584e+00 2.114553e+00 3.213406e+00 2.632449e+00 9.367421e-01 1.668157e-03 1.747475e-01 1.355680e-01 5.676474e-01 1.085310e-01 1.021392e+00 3.101678e-01 2.275342e-01 3.250204e-01 4.551874e-01 6.839096e-01 5.629113e-01 1.495810e-01 2.213548e-04
<GCONST> 7.345882e+01
<STATE> 4
<MEAN> 39
 -6.103938e+00 6.899618e+00 1.301632e+01 -2.747490e+00 -1.346515e+01 -6.119553e+00 -5.033697e+00 -7.569263e+00 -3.838735e+00 -7.838326e+00 3.368217e+00 -6.184354e+00 6.921613e-01 1.829034e-01 8.739960e-02 1.499847e-01 -1.902670e-01 5.174467e-02 1.284808e-01 -8.340438e-02 -2.235601e-01 -2.930995e-01 -1.798185e-01 1.072068e-01 -2.805498e-02 1.595383e-02 -4.666387e-02 -7.321181e-02 -1.761897e-01 4.383466e-02 4.365963e-01 4.321866e-02 2.264564e-02 -1.055046e-01 -2.721544e-02 -5.044560e-02 -1.899237e-01 5.541822e-02 -6.458765e-03
<VARIANCE> 39
 1.975571e+01 1.177431e+01 2.412198e+01 2.141531e+01 1.278945e+02 1.342041e+01 1.423101e+01 3.060575e+01 2.052533e+01 1.877402e+01 4.437458e+01 1.016777e+01 3.330678e-02 1.000080e+00 1.633598e+00 2.810957e+00 1.965958e+00 1.043202e+01 1.608632e+00 1.206145e+00 2.529294e+00 1.652189e+00 1.806497e+00 3.565786e+00 1.705069e+00 2.472843e-03 1.506681e-01 2.476179e-01 4.094621e-01 3.872425e-01 1.339650e+00 2.770546e-01 1.993260e-01 4.493121e-01 2.827904e-01 3.605841e-01 4.012198e-01 3.648013e-01 1.731798e-04
<GCONST> 8.719447e+01
<TRANSP> 5
 0.000000e+00 1.000000e+00 0.000000e+00 0.000000e+00 0.000000e+00
 0.000000e+00 9.711850e-01 2.881499e-02 0.000000e+00 0.000000e+00
 0.000000e+00 0.000000e+00 8.512543e-01 1.487457e-01 0.000000e+00
 0.000000e+00 0.000000e+00 0.000000e+00 9.406769e-01 5.932314e-02
 0.000000e+00 0.000000e+00 0.000000e+00 0.000000e+00 0.000000e+00
<ENDHMM>
