~o
<STREAMINFO> 1 39
<VECSIZE> 39<NULLD><MFCC_E_D_A><DIAGC>
~h "eight"
<BEGINHMM>
<NUMSTATES> 5
<STATE> 2
<MEAN> 39
 -1.237238e+01 -3.846872e+00 1.168546e+01 -1.960793e+01 -1.388637e+01 -4.641489e+00 -3.959579e+00 -8.908803e+00 -3.738683e+00 -2.580453e+00 -7.325892e+00 -3.434136e+00 6.477408e-01 1.262847e-01 4.632542e-01 5.233135e-01 -3.321574e-01 -2.918387e-01 -1.456203e-01 -6.548377e-01 -5.751487e-01 -3.857691e-02 -1.295534e-01 -1.895619e-01 -1.145700e-02 1.022408e-02 -1.117815e-02 6.060981e-02 -6.551012e-02 1.917116e-01 1.424537e-01 2.690687e-02 -7.738312e-04 3.073519e-02 3.980897e-02 1.352468e-02 7.569425e-02 2.245412e-02 -6.080308e-03
<VARIANCE> 39
 3.353461e+01 4.900005e+01 8.054559e+01 7.632865e+01 6.449751e+01 4.232097e+01 1.294330e+02 5.948532e+01 4.461211e+01 4.126840e+01 3.336992e+01 3.575247e+01 4.231618e-02 8.033075e-01 1.153423e+00 1.256600e+00 2.492419e+00 2.867052e+00 1.309873e+00 2.063791e+00 1.467735e+00 1.514846e+00 1.909611e+00 1.439696e+00 1.642307e+00 2.679480e-03 1.455121e-01 1.950175e-01 2.330519e-01 3.497775e-01 3.514138e-01 2.238683e-01 3.294561e-01 2.547629e-01 2.593395e-01 3.276791e-01 2.284634e-01 2.373831e-01 2.767207e-04
<GCONST> 9.094189e+01
<STATE> 3
<MEAN> 39
 -1.202018e+01 3.565346e+00 1.250519e+01 -8.980704e+00 -6.921583e+00 -3.794374e+00 -9.534382e+00 -1.170138e+01 -3.176307e+00 -4.164657e+00 -5.035596e+00 -1.651788e+00 3.725831e-01 -3.722984e-01 -7.570192e-01 -2.217840e+00 2.401021e+00 2.107046e+00 6.347769e-01 2.016508e+00 1.989156e+00 4.931589e-01 3.489029e-01 1.136202e+00 2.125820e-02 -6.969122e-02 -1.096457e-01 -3.113904e-01 -2.636652e-01 -2.286218e-01 1.208671e-01 7.635016e-02 2.895389e-01 4.352229e-01 2.106670e-01 1.872700e-01 1.416651e-01 9.555460e-02 -1.906997e-03
<VARIANCE> 39
 2.432206e+01 1.908946e+01 5.779652e+01 7.177474e+01 6.367970e+01 4.173359e+01 4.818058e+01 4.418762e+01 4.015534e+01 2.797104e+01 3.481197e+01 2.719485e+01 5.231265e-02 1.049070e+00 2.071926e+00 2.721641e+00 3.595644e+00 3.448831e+00 2.589298e+00 4.027323e+00 4.720957e+00 3.917372e+00 2.870005e+00 2.849017e+00 2.360476e+00 2.143254e-03 1.786383e-01 2.852112e-01 5.792725e-01 7.620376e-01 8.144453e-01 4.815492e-01 7.397497e-01 7.202159e-01 5.323357e-01 4.801788e-01 5.189029e-01 3.933095e-01 5.082132e-04
<GCONST> 1.030970e+02
<STATE> 4
<MEAN> 39
 -1.915304e+01 -1.329151e+00 2.043020e+00 -4.279349e+00 1.484550e+00 -2.639891e+00 3.152965e+00 2.147603e-01 6.187223e-01 5.209044e-02 2.587244e+00 -2.318550e-01 2.803068e-01 -1.565387e-02 -8.751126e-02 -1.319536e-01 2.427524e-02 7.252052e-02 -4.774687e-02 2.199123e-01 1.995282e-01 4.375648e-02 5.176725e-02 1.069835e-01 3.093955e-02 -1.015318e-03 3.193848e-02 5.204700e-02 7.002247e-02 -2.395475e-02 -5.089480e-02 -6.502312e-03 -8.488030e-02 -8.652694e-02 -2.945882e-02 -3.872408e-02 -5.454470e-02 -1.231663e-02 9.124904e-04
<VARIANCE> 39
 5.492031e+01 2.727021e+01 3.760858e+01 4.171505e+01 2.806513e+01 2.786958e+01 2.870695e+01 2.443570e+01 2.619388e+01 2.098501e+01 2.125685e+01 1.688484e+01 8.051486e-02 2.902797e+00 1.962613e+00 1.852685e+00 2.015265e+00 1.841034e+00 2.170959e+00 2.365692e+00 2.213457e+00 2.191138e+00 1.948175e+00 1.925075e+00 1.558770e+00 4.298535e-03 3.918546e-01 3.598993e-01 3.502987e-01 3.816488e-01 3.736012e-01 4.218605e-01 4.447455e-01 4.636994e-01 4.316185e-01 3.803577e-01 3.771885e-01 3.092111e-01 6.074567e-04
<GCONST> 9.367525e+01
<TRANSP> 5
 0.000000e+00 1.000000e+00 0.000000e+00 0.000000e+00 0.000000e+00
 0.000000e+00 9.589243e-01 4.107568e-02 0.000000e+00 0.000000e+00
 0.000000e+00 0.000000e+00 8.183398e-01 1.816601e-01 0.000000e+00
 0.000000e+00 0.000000e+00 0.000000e+00 9.650344e-01 3.496557e-02
 0.000000e+00 0.000000e+00 0.000000e+00 0.000000e+00 0.000000e+00
<ENDHMM>
