~o
<STREAMINFO> 1 39
<VECSIZE> 39<NULLD><MFCC_E_D_A><DIAGC>
~h "five"
<BEGINHMM>
<NUMSTATES> 5
<STATE> 2
<MEAN> 39
 -8.521366e+00 2.550252e+00 4.725637e+00 4.571566e-01 7.569235e+00 -4.582067e+00 -3.333334e+00 -7.482682e+00 -7.595231e-01 -8.507719e+00 -6.680278e+00 -3.214776e+00 2.664424e-01 -9.524417e-02 3.706354e-02 -3.541379e-02 1.823902e-02 -4.992330e-02 1.066644e-01 -3.334250e-03 8.546671e-02 2.325583e-02 7.866439e-02 7.203903e-02 7.281791e-02 -2.287190e-04 3.883024e-04 -6.521274e-03 -6.781366e-03 -1.057083e-02 9.857005e-03 3.081490e-02 7.521389e-04 1.052672e-02 4.655712e-02 2.532803e-02 1.851899e-02 6.281648e-03 4.940591e-04
<VARIANCE> 39
 6.137254e+00 5.072395e+00 6.303875e+00 7.160611e+00 1.514355e+01 1.055154e+01 1.587108e+01 1.582342e+01 1.903413e+01 1.642313e+01 1.802703e+01 1.255811e+01 3.064984e-03 4.612972e-01 4.755313e-01 9.772184e-01 7.650996e-01 1.019120e+00 1.129055e+00 1.470392e+00 1.777368e+00 1.917512e+00 1.732119e+00 1.654396e+00 1.394436e+00 2.614727e-04 9.073500e-02 8.964353e-02 2.034682e-01 1.515094e-01 2.052110e-01 2.274705e-01 2.985861e-01 3.460593e-01 3.992560e-01 3.808506e-01 3.431801e-01 2.850792e-01 5.931025e-05
<GCONST> 6.041862e+01
<STATE> 3
<MEAN> 39
 -7.448089e+00 3.785260e+00 1.571342e+00 -4.569106e+00 3.747628e+00 3.170526e+00 -7.772228e-01 -6.595818e+00 4.424098e+00 -4.734191e+00 -1.964404e+00 -6.293514e+00 4.754952e-01 2.222026e+00 -5.715913e-01 -1.019604e+00 -3.527459e+00 1.655932e-01 1.673282e+00 8.220625e-01 -1.181061e+00 1.774487e+00 6.717435e-01 1.644129e+00 -2.091458e+00 7.915082e-02 2.731121e-01 -2.352786e-01 -1.059599e-01 -5.238125e-01 -1.962357e-02 -7.725471e-02 3.147918e-02 -1.814001e-01 -2.562718e-01 -1.455372e-01 -1.397259e-01 -4.987167e-01 8.214761e-03
<VARIANCE> 39
 4.219073e+01 5.957967e+00 1.170225e+01 8.344949e+01 1.101092e+01 3.126125e+01 1.318032e+01 2.196572e+01 2.928881e+01 1.423426e+01 2.574881e+01 3.480291e+01 3.571561e-02 3.370623e+00 7.030659e-01 8.772969e-01 6.042855e+00 1.673936e+00 2.552406e+00 1.391638e+00 1.687486e+00 2.941805e+00 1.472540e+00 2.032693e+00 5.106886e+00 1.851676e-03 1.103334e+00 1.277258e-01 2.020345e-01 1.860265e+00 2.524428e-01 8.251529e-01 3.133358e-01 5.342242e-01 8.860155e-01 3.010164e-01 7.007878e-01 9.936272e-01 6.264106e-04
<GCONST> 9.209404e+01
<STATE> 4
<MEAN> 39
 -1.424174e+00 -6.028634e-01 -2.192830e+00 -1.319288e+01 2.402801e+00 1.662195e+00 1.450789e+00 -7.575426e+00 7.192248e+00 -6.616769e+00 -3.192165e+00 -1.574712e+01 7.591983e-01 -9.918223e-02 8.644141e-02 9.731313e-02 6.005667e-01 -4.344756e-01 -6.825297e-01 -1.758781e-01 4.246909e-01 1.213715e-02 -1.909214e-01 -4.549026e-01 1.670061e-01 -2.226409e-03 -8.628586e-02 1.026943e-01 9.428333e-02 2.407745e-01 -7.353469e-03 -6.617802e-02 -6.240828e-02 5.571121e-02 -3.631781e-02 2.313114e-02 -1.177472e-02 1.850217e-01 -4.687901e-03
<VARIANCE> 39
 2.362753e+01 1.460592e+01 1.077493e+01 5.642549e+01 4.679056e+01 4.174252e+01 9.498300e+00 3.650081e+01 4.203257e+01 2.105621e+01 2.424431e+01 3.815099e+01 2.268778e-02 7.778302e-01 1.181454e+00 9.521670e-01 1.953005e+00 2.832301e+00 1.287304e+00 1.053122e+00 2.092010e+00 2.792746e+00 1.714416e+00 1.799782e+00 2.419863e+00 4.423755e-04 1.804367e-01 1.263129e-01 1.701964e-01 3.546024e-01 4.402404e-01 1.918545e-01 1.807967e-01 4.535314e-01 4.725965e-01 2.603123e-01 3.812001e-01 4.321741e-01 6.873111e-05
<GCONST> 8.007429e+01
<TRANSP> 5
 0.000000e+00 1.000000e+00 0.000000e+00 0.000000e+00 0.000000e+00
 0.000000e+00 9.697238e-01 3.027627e-02 0.000000e+00 0.000000e+00
 0.000000e+00 0.000000e+00 8.196479e-01 1.803521e-01 0.000000e+00
 0.000000e+00 0.000000e+00 0.000000e+00 9.448735e-01 5.512656e-02
 0.000000e+00 0.000000e+00 0.000000e+00 0.000000e+00 0.000000e+00
<ENDHMM>
