~o
<STREAMINFO> 1 39
<VECSIZE> 39<NULLD><MFCC_E_D_A><DIAGC>
~h "five"
<BEGINHMM>
<NUMSTATES> 5
<STATE> 2
<MEAN> 39
 -1.778346e+01 -5.196920e+00 -4.237896e-02 -5.451147e+00 2.214806e+00 -1.389199e+00 -1.708288e-02 -1.083297e+00 6.596554e-01 -1.341757e+00 -8.823416e-01 -2.120423e+00 3.793000e-01 6.507631e-01 -4.326535e-01 -6.103645e-01 -7.040415e-01 6.501220e-02 2.325192e-02 -2.180858e-01 -5.846716e-01 -3.038237e-01 -2.287796e-01 -4.080680e-01 -4.518486e-01 2.848682e-02 3.798825e-02 -3.372664e-02 -1.755436e-02 2.011523e-02 4.152839e-02 1.285100e-02 -1.930019e-02 -2.313813e-02 -1.744537e-02 -1.734496e-02 9.186200e-03 1.039310e-02 -1.101753e-03
<VARIANCE> 39
 8.785703e+01 2.914988e+01 5.822765e+01 7.127935e+01 3.300726e+01 2.706266e+01 2.124185e+01 4.283327e+01 2.983454e+01 2.676694e+01 4.009982e+01 3.028245e+01 5.542920e-02 4.523842e+00 1.911769e+00 2.651468e+00 4.349113e+00 2.066882e+00 2.144788e+00 1.998212e+00 3.340073e+00 2.774285e+00 2.360728e+00 2.742528e+00 2.489857e+00 1.586578e-03 6.699221e-01 2.973192e-01 4.518436e-01 8.032154e-01 3.783796e-01 4.092161e-01 3.896925e-01 6.036703e-01 4.996529e-01 4.298953e-01 4.974619e-01 4.607502e-01 2.811331e-04
<GCONST> 1.005733e+02
<STATE> 3
<MEAN> 39
 -6.653975e+00 -1.119330e+01 -2.794906e+00 -1.373520e+01 -2.527062e+00 -5.384359e+00 -3.363090e+00 -7.901548e+00 -6.608086e+00 -7.011093e+00 -8.694221e+00 -5.492686e+00 6.902416e-01 -1.594252e-01 3.031856e-01 6.781659e-01 1.550915e-01 -6.439866e-01 -3.205889e-01 5.787211e-02 9.377061e-02 -8.231272e-02 1.062532e-01 1.590802e-02 1.905646e-01 -5.517130e-03 1.713014e-02 4.099740e-02 2.644726e-02 2.800826e-02 -1.493060e-02 -2.440369e-02 -4.319146e-03 1.239175e-02 1.025079e-02 8.761625e-03 1.188312e-02 7.304331e-03 -9.630873e-04
<VARIANCE> 39
 3.149989e+01 5.241023e+01 9.929652e+01 6.594645e+01 1.518782e+02 6.448615e+01 7.544778e+01 5.009284e+01 5.582056e+01 4.779565e+01 5.405222e+01 4.838883e+01 1.737110e-02 1.643733e-01 5.464945e-01 7.574307e-01 9.911610e-01 1.685885e+00 9.845123e-01 1.766485e+00 1.562390e+00 1.252775e+00 1.654566e+00 1.195893e+00 1.145169e+00 8.414077e-05 2.457939e-02 7.033153e-02 8.460186e-02 1.392943e-01 1.797955e-01 1.565881e-01 2.212604e-01 2.304285e-01 2.078598e-01 2.329210e-01 1.705077e-01 1.781716e-01 1.184233e-05
<GCONST> 7.227771e+01
<STATE> 4
<MEAN> 39
 -1.579383e+01 -3.345109e+00 5.934894e+00 -4.617015e+00 -1.523950e+00 -4.504646e+00 5.698734e-01 -1.032430e+00 -1.916500e+00 -2.553608e+00 -1.689671e+00 -7.313491e-01 3.166656e-01 -2.460938e-01 2.292074e-02 -2.181284e-01 4.483463e-01 6.879729e-01 3.106233e-01 1.295286e-01 3.999306e-01 3.238104e-01 4.362701e-02 3.067105e-01 2.027984e-01 -1.780679e-02 -2.214370e-03 -9.045429e-03 -2.128126e-02 -3.934298e-02 -6.504049e-03 3.613755e-02 2.956034e-02 7.980507e-03 1.278662e-02 1.156566e-02 -1.181303e-02 -1.168106e-02 2.592664e-05
<VARIANCE> 39
 5.480234e+01 2.344957e+01 4.636520e+01 4.380444e+01 7.367422e+01 3.928031e+01 3.010737e+01 5.273705e+01 3.843400e+01 2.575292e+01 3.368237e+01 2.278055e+01 3.660570e-02 1.967962e+00 1.352344e+00 1.606461e+00 2.240873e+00 3.325647e+00 2.387358e+00 2.347587e+00 2.930667e+00 2.756437e+00 2.395616e+00 2.226490e+00 1.915629e+00 1.037309e-03 2.506714e-01 2.186489e-01 2.543943e-01 3.375165e-01 4.905332e-01 4.188026e-01 4.201277e-01 5.319079e-01 5.114107e-01 4.702213e-01 4.081016e-01 3.581470e-01 1.437092e-04
<GCONST> 9.411658e+01
<TRANSP> 5
 0.000000e+00 1.000000e+00 0.000000e+00 0.000000e+00 0.000000e+00
 0.000000e+00 9.516855e-01 4.831447e-02 0.000000e+00 0.000000e+00
 0.000000e+00 0.000000e+00 9.642870e-01 3.571302e-02 0.000000e+00
 0.000000e+00 0.000000e+00 0.000000e+00 9.584131e-01 4.158687e-02
 0.000000e+00 0.000000e+00 0.000000e+00 0.000000e+00 0.000000e+00
<ENDHMM>
