~o
<STREAMINFO> 1 39
<VECSIZE> 39<NULLD><MFCC_E_D_A><DIAGC>
~h "five"
<BEGINHMM>
<NUMSTATES> 5
<STATE> 2
<MEAN> 39
 -9.114427e+00 -2.973391e+00 2.222825e+00 -3.125285e+00 2.329074e+00 -1.064097e-01 -2.585071e+00 -2.756700e+00 -1.039461e+00 -5.234716e+00 -2.639346e+00 -4.241962e+00 4.886289e-01 7.856687e-01 -6.251889e-01 -3.668820e-01 -1.024940e+00 8.405387e-02 7.307779e-01 1.784955e-01 4.737724e-01 4.434081e-02 2.238146e-01 6.084987e-01 -7.737615e-01 2.817843e-02 4.007054e-02 -7.800089e-02 2.613590e-02 -3.843574e-02 5.056576e-02 6.812783e-02 -5.454198e-02 -3.013871e-02 -3.145536e-02 -1.586991e-02 2.418744e-02 -6.064574e-02 8.685691e-04
<VARIANCE> 39
 4.667070e+01 1.493618e+01 1.057547e+01 4.608198e+01 1.119491e+01 2.297942e+01 2.111123e+01 2.501045e+01 1.471805e+01 1.370585e+01 2.476518e+01 2.928575e+01 3.681860e-02 5.205387e+00 1.182035e+00 8.057130e-01 2.788031e+00 1.219344e+00 2.014830e+00 2.025109e+00 1.800058e+00 1.421420e+00 1.325600e+00 1.665881e+00 1.877182e+00 2.264578e-03 9.989821e-01 1.461558e-01 1.656819e-01 5.038697e-01 2.159504e-01 3.596889e-01 4.170881e-01 3.623957e-01 3.146938e-01 2.703362e-01 2.918671e-01 3.496933e-01 3.872298e-04
<GCONST> 8.387090e+01
<STATE> 3
<MEAN> 39
 -2.159813e+00 -6.233455e+00 4.236070e+00 -8.127584e+00 1.368950e-01 -1.651171e+00 -3.193262e+00 3.612401e+00 -1.051926e+00 -2.407098e+00 9.254842e-01 -8.356841e+00 6.825902e-01 -2.923602e-01 4.852865e-01 5.746453e-01 6.883785e-01 -3.764453e-01 -8.566814e-01 -6.107486e-02 -1.642644e-01 -1.504623e-01 8.726878e-02 -1.482022e-01 5.480358e-01 -8.014974e-03 -3.791562e-02 5.332275e-02 -6.806687e-02 2.510120e-02 7.733180e-02 1.335719e-02 2.735072e-02 -3.166550e-02 4.893376e-02 -6.531640e-02 -7.942367e-02 1.298432e-02 -1.541727e-03
<VARIANCE> 39
 1.003244e+01 2.487822e+01 5.182565e+01 3.653018e+01 5.442611e+01 1.156722e+02 1.845251e+01 3.832951e+01 1.798967e+01 2.414100e+01 2.779603e+01 3.198128e+01 4.456004e-03 2.149230e-01 7.592105e-01 1.382152e+00 7.239987e-01 2.637322e+00 2.818277e+00 1.529016e+00 3.727626e+00 1.456144e+00 1.615669e+00 3.130920e+00 1.193075e+00 1.418001e-04 5.047475e-02 1.496466e-01 2.103309e-01 1.774423e-01 3.555397e-01 4.324739e-01 2.864181e-01 5.230229e-01 2.968121e-01 3.072798e-01 5.950508e-01 2.424059e-01 4.557645e-05
<GCONST> 7.647688e+01
<STATE> 4
<MEAN> 39
 -1.150044e+01 -5.641275e-01 5.145768e+00 -3.840595e-01 2.295137e+00 -4.721808e+00 -2.609737e+00 -4.671173e+00 -4.728231e-01 -6.418562e+00 -4.468800e+00 -1.683691e+00 3.952314e-01 -1.756888e-01 -1.915509e-01 -4.270566e-01 -1.011113e-01 4.847160e-01 4.885677e-01 -7.892559e-02 -1.804175e-01 2.855205e-01 -2.313295e-01 -3.664058e-01 -9.522682e-02 -1.382717e-02 6.210961e-02 -3.470955e-02 9.491670e-02 -1.892575e-02 -1.014560e-01 -1.044006e-01 3.106935e-03 3.094955e-02 -3.493776e-02 1.026448e-01 7.863653e-02 9.746516e-03 1.791276e-03
<VARIANCE> 39
 1.224436e+01 6.185190e+00 7.824629e+00 6.507545e+00 1.436332e+01 1.894355e+01 1.786220e+01 1.973014e+01 1.372523e+01 1.446214e+01 1.452039e+01 1.072724e+01 6.008136e-03 1.219334e+00 4.642009e-01 1.135394e+00 7.115499e-01 1.289805e+00 2.509069e+00 1.296381e+00 1.571968e+00 1.499202e+00 1.606668e+00 1.326473e+00 1.186448e+00 6.163308e-04 1.397916e-01 8.676890e-02 1.479384e-01 1.397045e-01 2.161859e-01 3.940246e-01 2.282194e-01 3.276119e-01 2.616920e-01 2.206267e-01 2.307811e-01 2.328243e-01 8.247625e-05
<GCONST> 6.314857e+01
<TRANSP> 5
 0.000000e+00 1.000000e+00 0.000000e+00 0.000000e+00 0.000000e+00
 0.000000e+00 9.329613e-01 6.703869e-02 0.000000e+00 0.000000e+00
 0.000000e+00 0.000000e+00 9.585897e-01 4.141033e-02 0.000000e+00
 0.000000e+00 0.000000e+00 0.000000e+00 9.469062e-01 5.309380e-02
 0.000000e+00 0.000000e+00 0.000000e+00 0.000000e+00 0.000000e+00
<ENDHMM>
