~o
<STREAMINFO> 1 39
<VECSIZE> 39<NULLD><MFCC_E_D_A><DIAGC>
~h "five"
<BEGINHMM>
<NUMSTATES> 5
<STATE> 2
<MEAN> 39
 -1.446497e+01 -3.089007e+00 -3.105694e+00 -4.073333e+00 -4.105606e+00 -3.121050e+00 2.397596e+00 -4.208992e-01 1.991665e-01 -5.518260e-01 3.577675e-01 -5.868577e-01 6.573519e-02 1.451607e-01 -2.799629e-02 -1.611229e-01 -2.085325e-01 -2.156726e-01 -1.250214e-01 1.540682e-01 5.670048e-02 -1.740472e-01 -8.439092e-02 -4.598055e-02 -1.866045e-01 2.020232e-02 1.808635e-01 4.959879e-03 2.272185e-02 -4.868861e-02 5.913197e-02 6.080473e-02 -5.189729e-02 6.749492e-02 -6.465966e-02 -1.448851e-02 -7.494258e-03 -3.105996e-02 3.422717e-03
<VARIANCE> 39
 1.048178e+01 6.069881e+00 1.233216e+01 1.588236e+01 3.437121e+01 2.111121e+01 1.543296e+01 1.482226e+01 1.672212e+01 1.590349e+01 1.018998e+01 1.291311e+01 4.297223e-02 1.903048e+00 4.760180e-01 1.006974e+00 1.164083e+00 2.291273e+00 2.006712e+00 1.919412e+00 1.895368e+00 1.612448e+00 1.581751e+00 1.206275e+00 1.319343e+00 1.465484e-03 3.405266e-01 9.191387e-02 1.992040e-01 2.290437e-01 3.992417e-01 3.687261e-01 4.119627e-01 3.634675e-01 3.488053e-01 3.387201e-01 2.414954e-01 2.374671e-01 2.580462e-04
<GCONST> 7.457240e+01
<STATE> 3
<MEAN> 39
 1.826052e+00 -6.892155e+00 3.125676e+00 -8.354941e+00 -5.894967e+00 -5.624361e+00 9.939103e-01 1.172843e+01 -7.505444e+00 -2.991218e+00 -3.127875e+00 -6.239540e+00 7.340132e-01 -2.194242e-01 -8.655650e-02 2.085677e-01 2.114156e-01 2.673199e-02 -7.378196e-02 1.031947e-01 -4.065354e-03 1.024527e-01 -5.228201e-02 -3.324151e-02 3.148109e-02 -5.567320e-03 -2.780884e-01 -6.787980e-02 -1.287940e-01 -4.681697e-02 -1.015868e-01 -8.357819e-02 -1.714419e-02 -1.248395e-01 9.802742e-02 2.779850e-02 8.196629e-03 2.851383e-02 -5.341995e-03
<VARIANCE> 39
 3.014672e+01 3.761305e+01 4.064532e+01 7.668580e+01 4.098010e+01 5.542074e+01 3.727729e+01 3.859901e+01 2.997388e+01 1.561806e+01 2.281984e+01 3.996303e+01 2.474186e-02 5.581473e+00 2.782327e+00 2.415615e+00 3.176584e+00 3.426317e+00 3.175707e+00 2.899237e+00 3.845157e+00 3.059802e+00 1.443261e+00 1.442238e+00 2.247900e+00 2.958186e-03 4.437458e-01 4.032704e-01 2.190008e-01 3.930385e-01 5.655406e-01 4.258429e-01 5.107119e-01 5.025048e-01 4.441147e-01 2.644267e-01 2.511063e-01 2.905166e-01 2.218262e-04
<GCONST> 9.730663e+01
<STATE> 4
<MEAN> 39
 -1.416108e+01 -3.825054e+00 -3.357679e+00 -5.004660e+00 -4.844653e+00 -5.239489e+00 8.247261e-01 -7.410508e-01 -1.277842e+00 -1.153781e+00 -5.924559e-01 -1.593126e+00 1.334730e-01 7.592605e-02 1.348599e-01 -7.431915e-03 1.906664e-02 1.346916e-01 1.270695e-01 -2.035053e-01 -6.766289e-02 -4.138577e-02 1.082226e-01 1.608931e-02 9.171075e-02 -9.347024e-03 8.207602e-02 4.792109e-02 8.085351e-02 6.835341e-02 3.003210e-02 1.810956e-02 3.842580e-02 4.491802e-02 -2.219199e-02 -2.452897e-02 4.279396e-03 1.984521e-02 1.613732e-03
<VARIANCE> 39
 1.952596e+01 1.876452e+01 1.401115e+01 1.676713e+01 1.952423e+01 1.973750e+01 1.736254e+01 1.647730e+01 2.064479e+01 1.710594e+01 1.422037e+01 1.290831e+01 2.370231e-02 1.008351e+00 6.097518e-01 1.005351e+00 1.282932e+00 1.250899e+00 1.523447e+00 1.618683e+00 1.553101e+00 1.621103e+00 1.777842e+00 1.469161e+00 1.431191e+00 4.257307e-04 1.619928e-01 1.080461e-01 1.442412e-01 2.250797e-01 2.433313e-01 3.032974e-01 3.311079e-01 3.006451e-01 3.401129e-01 3.714512e-01 2.855712e-01 3.034704e-01 8.382585e-05
<GCONST> 7.107493e+01
<TRANSP> 5
 0.000000e+00 1.000000e+00 0.000000e+00 0.000000e+00 0.000000e+00
 0.000000e+00 9.629575e-01 3.704250e-02 0.000000e+00 0.000000e+00
 0.000000e+00 0.000000e+00 9.646496e-01 3.535045e-02 0.000000e+00
 0.000000e+00 0.000000e+00 0.000000e+00 9.728694e-01 2.713061e-02
 0.000000e+00 0.000000e+00 0.000000e+00 0.000000e+00 0.000000e+00
<ENDHMM>
