~o
<STREAMINFO> 1 39
<VECSIZE> 39<NULLD><MFCC_E_D_A><DIAGC>
~h "four"
<BEGINHMM>
<NUMSTATES> 5
<STATE> 2
<MEAN> 39
 -8.303560e+00 3.438914e+00 4.093804e+00 -6.105204e-02 4.845263e+00 -4.846242e+00 -3.704989e+00 -7.845536e+00 -1.053316e+00 -8.286018e+00 -8.102451e+00 -4.638700e+00 2.547933e-01 -1.364836e-01 1.683631e-01 -7.699166e-02 1.316088e-01 -1.752672e-01 8.227451e-02 -3.037145e-02 2.695666e-02 -7.490092e-02 3.618021e-02 -1.744728e-03 5.699738e-02 6.870254e-04 5.296381e-03 9.286317e-04 -3.865463e-02 -1.393495e-02 -2.103849e-02 1.345548e-02 4.334905e-02 4.068371e-02 6.355126e-02 4.922217e-02 7.578903e-02 6.033010e-02 4.789577e-04
<VARIANCE> 39
 5.977527e+00 7.200294e+00 7.180949e+00 8.226622e+00 2.124297e+01 1.174769e+01 1.309075e+01 1.657735e+01 2.053103e+01 1.690687e+01 1.913046e+01 1.267602e+01 1.693811e-03 3.393565e-01 3.492581e-01 1.032278e+00 7.073519e-01 1.064703e+00 1.100042e+00 1.121127e+00 1.495660e+00 2.188080e+00 1.481502e+00 1.546040e+00 1.472581e+00 2.329791e-04 7.346541e-02 8.056020e-02 1.851992e-01 1.541021e-01 2.186529e-01 2.198033e-01 2.140360e-01 3.368188e-01 4.701801e-01 2.977213e-01 2.791737e-01 2.875924e-01 4.441878e-05
<GCONST> 5.837822e+01
<STATE> 3
<MEAN> 39
 -9.910864e+00 4.751714e+00 2.886808e+00 1.572501e+00 3.661703e+00 6.395196e-01 -8.887539e-01 -3.035450e+00 -1.005198e+00 -4.242547e+00 -2.825027e+00 -6.459361e-01 4.495285e-01 1.349510e+00 5.614676e-01 -1.318718e-01 -8.645032e-01 -1.131746e+00 2.876985e-02 3.385218e-01 4.000256e-01 4.174415e-01 3.683861e-01 6.506606e-01 2.838761e-01 4.435642e-02 3.829515e-01 1.927449e-01 1.359039e-01 -3.182563e-01 -4.186510e-01 -1.851403e-01 -7.015458e-02 -1.317851e-02 -4.088043e-02 -1.031797e-01 -1.777709e-01 -1.211641e-01 8.940745e-03
<VARIANCE> 39
 2.005694e+01 2.201224e+01 3.163136e+01 1.250249e+01 2.861231e+01 2.039848e+01 2.101204e+01 1.853489e+01 1.565772e+01 1.722290e+01 1.628119e+01 1.160180e+01 1.983323e-02 4.598614e+00 2.609802e+00 1.944646e+00 3.733557e+00 4.348169e+00 2.480219e+00 1.952737e+00 2.388514e+00 1.995139e+00 2.576831e+00 2.187711e+00 1.263196e+00 3.558543e-03 6.098761e-01 3.807213e-01 3.286111e-01 5.055446e-01 4.949166e-01 4.269856e-01 3.711928e-01 5.192277e-01 3.073199e-01 5.273434e-01 4.479544e-01 2.678290e-01 4.506285e-04
<GCONST> 9.029921e+01
<STATE> 4
<MEAN> 39
 3.601986e+00 8.583181e+00 -2.437568e+00 -9.192605e+00 -7.524001e+00 -4.372283e+00 -4.255726e+00 -4.207198e+00 -6.279952e-01 -3.153317e+00 1.323492e-01 -8.462257e-01 7.837960e-01 1.123113e-01 -4.261585e-01 -3.084050e-01 2.362774e-01 5.472328e-01 -9.607904e-02 -2.636341e-01 3.402328e-02 1.818080e-01 -8.143375e-02 -1.130167e-01 1.125337e-03 -2.074292e-03 -2.436384e-01 -1.438749e-01 4.102587e-02 2.522931e-01 3.044071e-01 8.718126e-02 7.936931e-02 3.974449e-02 -3.188166e-02 -4.284279e-02 -8.157459e-02 -1.253392e-02 -7.208213e-03
<VARIANCE> 39
 1.679287e+01 4.016068e+01 3.616300e+01 4.741901e+01 6.670232e+01 1.509991e+01 3.003790e+01 2.110327e+01 3.642228e+01 1.903827e+01 2.706344e+01 2.733825e+01 1.533226e-02 1.328189e+00 1.708665e+00 1.833043e+00 4.083382e+00 3.332840e+00 2.090913e+00 2.837658e+00 2.293047e+00 3.851843e+00 1.594899e+00 3.580760e+00 2.368109e+00 9.765452e-04 2.143007e-01 3.013996e-01 3.330573e-01 4.753751e-01 4.149568e-01 3.825114e-01 5.635688e-01 4.468978e-01 6.252634e-01 3.013279e-01 5.770358e-01 3.278576e-01 1.182806e-04
<GCONST> 9.146464e+01
<TRANSP> 5
 0.000000e+00 1.000000e+00 0.000000e+00 0.000000e+00 0.000000e+00
 0.000000e+00 9.503222e-01 4.967778e-02 0.000000e+00 0.000000e+00
 0.000000e+00 0.000000e+00 8.890448e-01 1.109553e-01 0.000000e+00
 0.000000e+00 0.000000e+00 0.000000e+00 9.453132e-01 5.468688e-02
 0.000000e+00 0.000000e+00 0.000000e+00 0.000000e+00 0.000000e+00
<ENDHMM>
