~o
<STREAMINFO> 1 39
<VECSIZE> 39<NULLD><MFCC_E_D_A><DIAGC>
~h "four"
<BEGINHMM>
<NUMSTATES> 5
<STATE> 2
<MEAN> 39
 -1.751664e+01 -3.694141e+00 -1.066223e-01 -5.856856e+00 7.699919e-01 -1.125433e+00 -1.178590e+00 -9.833983e-01 -2.417331e-01 -4.002891e-01 2.019210e-01 -1.138461e+00 3.526084e-01 6.897383e-01 1.224041e-01 -3.600144e-01 -1.013279e+00 -4.659177e-01 -2.856173e-02 -2.452783e-01 -3.098594e-01 -4.891972e-01 -1.494770e-01 -2.699649e-01 -1.290578e-01 2.304226e-02 5.113927e-02 2.785226e-03 -9.447154e-03 -4.119587e-02 -1.800233e-02 1.299191e-02 1.196456e-02 1.837701e-02 2.085506e-03 2.565831e-04 -1.518935e-02 -4.868107e-03 -8.002311e-04
<VARIANCE> 39
 9.352190e+01 2.690507e+01 4.330462e+01 9.682322e+01 5.077870e+01 2.248216e+01 2.483926e+01 3.389703e+01 3.966709e+01 2.183467e+01 2.371466e+01 1.741114e+01 4.981915e-02 4.325027e+00 1.440926e+00 1.402096e+00 5.412608e+00 2.820290e+00 1.703880e+00 1.986821e+00 2.334458e+00 3.046554e+00 2.224014e+00 1.992284e+00 1.548230e+00 1.390282e-03 5.420011e-01 2.574061e-01 2.468091e-01 8.184344e-01 4.768223e-01 3.338524e-01 3.796953e-01 4.472702e-01 5.575744e-01 4.237238e-01 3.737469e-01 2.964574e-01 2.422036e-04
<GCONST> 9.568629e+01
<STATE> 3
<MEAN> 39
 -9.492096e-01 3.994928e-02 -5.464736e+00 -2.527071e+01 -9.037744e+00 -1.573698e+00 -4.365613e+00 -4.687954e+00 -7.848960e+00 -4.272868e+00 -5.459130e+00 -3.391938e+00 6.339322e-01 -2.821373e-02 2.193257e-02 3.286393e-02 2.659281e-01 5.415126e-02 1.339044e-02 4.983123e-02 2.625484e-02 9.228823e-02 -1.189923e-01 1.113599e-02 -6.230626e-02 -5.719606e-03 -2.666283e-02 -9.657869e-03 2.312081e-02 9.874817e-02 5.019870e-02 -7.749165e-03 2.692347e-03 -3.785975e-02 -2.065469e-02 -6.019352e-03 1.532131e-02 -9.656847e-03 -1.309953e-03
<VARIANCE> 39
 3.120572e+01 3.743826e+01 5.064340e+01 8.728370e+01 9.831826e+01 3.418684e+01 2.792516e+01 3.022315e+01 5.038960e+01 4.680168e+01 4.108482e+01 3.559295e+01 2.389924e-02 1.439941e-01 3.345636e-01 3.732912e-01 6.952007e-01 6.685767e-01 7.427350e-01 7.522465e-01 8.751749e-01 9.060481e-01 8.868929e-01 8.661867e-01 7.696844e-01 7.542979e-05 2.739707e-02 4.834573e-02 6.533474e-02 1.108550e-01 1.082728e-01 1.265100e-01 1.311061e-01 1.415301e-01 1.562407e-01 1.575023e-01 1.514482e-01 1.270433e-01 1.062397e-05
<GCONST> 5.875612e+01
<STATE> 4
<MEAN> 39
 -6.945699e+00 -3.919208e+00 -1.820841e+00 -8.926445e+00 -9.902170e-02 -2.824750e+00 -1.411384e+00 -3.946159e+00 -5.935578e+00 -5.393672e+00 -4.721130e+00 -4.280344e+00 3.697430e-01 -7.062795e-01 -2.534604e-01 4.789641e-01 1.197659e+00 8.101894e-01 -8.193873e-03 4.005354e-01 3.086312e-01 3.111024e-01 2.114617e-01 2.773127e-01 2.201806e-01 -2.685951e-02 -1.670259e-02 1.137151e-02 -1.470183e-02 -6.795382e-02 -3.976155e-02 2.172326e-02 1.258367e-02 6.472646e-02 7.177693e-02 4.914979e-02 4.706089e-02 6.757595e-02 -5.292816e-04
<VARIANCE> 39
 5.148943e+01 5.570214e+01 5.575933e+01 9.997592e+01 8.135873e+01 6.451928e+01 4.659494e+01 5.142575e+01 6.278487e+01 6.012148e+01 4.650038e+01 4.787207e+01 5.793381e-02 1.245727e+00 1.404827e+00 1.600490e+00 2.679106e+00 2.770121e+00 2.878314e+00 2.674959e+00 2.634766e+00 3.083331e+00 3.163484e+00 2.801767e+00 2.579185e+00 1.242598e-03 1.720398e-01 2.025861e-01 2.782429e-01 4.000652e-01 4.100231e-01 4.073304e-01 4.460693e-01 4.470434e-01 5.134085e-01 5.070820e-01 4.781551e-01 4.259004e-01 1.687494e-04
<GCONST> 1.007384e+02
<TRANSP> 5
 0.000000e+00 1.000000e+00 0.000000e+00 0.000000e+00 0.000000e+00
 0.000000e+00 9.568232e-01 4.317677e-02 0.000000e+00 0.000000e+00
 0.000000e+00 0.000000e+00 9.579117e-01 4.208831e-02 0.000000e+00
 0.000000e+00 0.000000e+00 0.000000e+00 9.224473e-01 7.755276e-02
 0.000000e+00 0.000000e+00 0.000000e+00 0.000000e+00 0.000000e+00
<ENDHMM>
