~o
<STREAMINFO> 1 39
<VECSIZE> 39<NULLD><MFCC_E_D_A><DIAGC>
~h "four"
<BEGINHMM>
<NUMSTATES> 5
<STATE> 2
<MEAN> 39
 -1.422556e+01 -3.312837e+00 -3.448835e+00 -3.837741e+00 -4.661438e+00 -2.920544e+00 3.170934e+00 -7.206926e-01 -3.696145e-01 -9.349181e-01 4.284379e-01 -8.049630e-02 1.258555e-01 3.146078e-01 1.711910e-01 -1.520508e-02 -2.389183e-01 -2.426521e-01 8.977437e-03 1.239656e-01 4.006289e-02 -2.168099e-01 -1.338564e-01 1.068665e-02 -4.933346e-03 1.909076e-02 1.527289e-01 4.458241e-02 3.549140e-02 -9.258629e-02 -7.497403e-02 3.128893e-02 -3.505240e-02 9.750592e-02 -9.812605e-02 -4.460075e-02 3.157203e-02 1.459192e-02 3.498704e-03
<VARIANCE> 39
 1.770930e+01 1.250170e+01 1.773425e+01 1.361687e+01 3.113540e+01 2.869371e+01 1.819852e+01 1.914939e+01 1.829327e+01 1.676047e+01 1.356295e+01 1.176483e+01 4.689497e-02 3.586389e+00 2.021096e+00 1.402010e+00 1.417683e+00 2.158030e+00 2.063719e+00 1.401620e+00 2.304850e+00 2.240189e+00 2.364674e+00 1.639690e+00 1.440910e+00 2.175399e-03 3.333586e-01 3.831586e-01 2.206107e-01 3.550290e-01 4.707160e-01 3.752752e-01 3.047014e-01 4.536956e-01 4.062085e-01 4.587454e-01 3.570814e-01 3.097304e-01 3.602599e-04
<GCONST> 8.455349e+01
<STATE> 3
<MEAN> 39
 8.779608e+00 1.523733e+00 -1.561560e+00 -1.972079e+01 -2.013600e+01 1.925592e+00 1.004561e+00 1.137390e+01 -1.445208e+01 -8.258907e+00 6.306656e+00 3.828111e+00 8.706021e-01 5.693703e-01 -1.706797e-01 -3.002517e-01 5.594247e-02 -1.771364e-01 2.083993e-01 -2.741774e-01 2.331600e-01 8.226579e-02 -1.873092e-01 2.975360e-01 6.359137e-01 2.166709e-03 -2.871733e-01 -9.749669e-02 -1.333164e-01 2.793154e-01 2.883362e-01 -1.482775e-01 7.609820e-02 -2.379359e-01 3.154503e-01 1.320491e-01 -1.660632e-01 -3.356076e-03 -8.003313e-03
<VARIANCE> 39
 1.938245e+00 1.146541e+01 9.836013e+00 3.405804e+01 2.641016e+01 2.092469e+01 2.199109e+01 1.683197e+01 2.144884e+01 1.856991e+01 1.537209e+01 2.982021e+01 4.038834e-03 2.280902e+00 6.243182e-01 9.766456e-01 4.826490e+00 3.035950e+00 1.366216e+00 1.236451e+00 2.955958e+00 3.285601e+00 9.843306e-01 1.537596e+00 1.019751e+00 1.554682e-03 4.373273e-01 2.239453e-01 1.128493e-01 2.624215e-01 2.459804e-01 1.605407e-01 1.465508e-01 2.189306e-01 2.231479e-01 2.648864e-01 2.374930e-01 2.078044e-01 1.687718e-04
<GCONST> 7.216571e+01
<STATE> 4
<MEAN> 39
 -3.725123e+00 -1.318582e+00 -4.268128e+00 -3.315793e+00 -2.294033e+00 -8.496411e-01 4.850725e-01 5.636649e-01 -2.168759e+00 -4.840536e+00 -1.575563e+00 8.721565e-01 2.389959e-01 -5.929002e-01 -8.295535e-03 1.866805e-01 2.093451e-01 3.686706e-01 -1.177331e-01 -1.028203e-01 -1.813361e-01 1.887084e-01 2.410850e-01 -2.130928e-01 -3.831134e-01 -1.986546e-02 -1.273799e-02 2.008302e-03 2.818955e-02 -4.706873e-02 -6.756400e-02 4.053639e-02 8.520438e-03 3.488854e-02 -5.910859e-02 4.505362e-03 5.668804e-02 -5.891771e-03 5.437133e-04
<VARIANCE> 39
 7.169594e+01 1.209324e+01 1.298815e+01 1.544955e+01 1.918992e+01 3.115190e+01 2.322517e+01 2.491915e+01 1.722741e+01 3.142677e+01 1.338028e+01 3.225727e+01 8.021781e-02 6.413820e-01 1.230384e+00 7.185184e-01 1.770350e+00 2.166338e+00 2.281697e+00 1.927513e+00 1.414410e+00 1.889359e+00 1.460049e+00 1.467612e+00 1.520019e+00 1.227027e-03 6.280790e-02 1.928767e-01 1.523582e-01 3.118594e-01 2.967810e-01 4.248283e-01 3.814321e-01 2.765954e-01 3.337559e-01 2.738986e-01 2.436936e-01 2.425505e-01 1.524042e-04
<GCONST> 7.826567e+01
<TRANSP> 5
 0.000000e+00 1.000000e+00 0.000000e+00 0.000000e+00 0.000000e+00
 0.000000e+00 9.728693e-01 2.713064e-02 0.000000e+00 0.000000e+00
 0.000000e+00 0.000000e+00 9.448925e-01 5.510745e-02 0.000000e+00
 0.000000e+00 0.000000e+00 0.000000e+00 9.714244e-01 2.857558e-02
 0.000000e+00 0.000000e+00 0.000000e+00 0.000000e+00 0.000000e+00
<ENDHMM>
