~o
<STREAMINFO> 1 39
<VECSIZE> 39<NULLD><MFCC_E_D_A><DIAGC>
~h "four"
<BEGINHMM>
<NUMSTATES> 5
<STATE> 2
<MEAN> 39
 -9.139941e+00 -4.935131e-01 4.298456e+00 -3.219618e+00 4.411156e-01 -1.752053e+00 -4.671783e+00 -4.813992e+00 -7.046680e-01 -6.764039e+00 -4.504201e+00 -1.765117e+00 4.157330e-01 9.079189e-01 2.231842e-01 7.414955e-03 -1.114428e+00 -1.079766e+00 1.792467e-01 4.173462e-01 3.289221e-01 3.067765e-01 4.388657e-02 1.800877e-01 6.572517e-02 2.953770e-02 1.037484e-01 2.931056e-02 1.440980e-02 -1.218617e-01 -1.579608e-01 1.556565e-02 4.190459e-02 -4.114669e-03 1.012606e-01 1.462670e-02 -4.968135e-02 2.790261e-02 2.004433e-03
<VARIANCE> 39
 3.524902e+01 6.444070e+00 4.201621e+00 3.329089e+01 2.924182e+01 1.104339e+01 1.686866e+01 1.375358e+01 1.395854e+01 1.290592e+01 1.583622e+01 8.764183e+00 2.418727e-02 4.431025e+00 8.934952e-01 4.536282e-01 3.286968e+00 3.074739e+00 1.164549e+00 2.041779e+00 1.491164e+00 1.883601e+00 1.219445e+00 1.578004e+00 9.821174e-01 1.825608e-03 7.031953e-01 1.792874e-01 9.399645e-02 4.712529e-01 4.182362e-01 2.405355e-01 4.093519e-01 2.944410e-01 3.415573e-01 2.010269e-01 3.073981e-01 1.827306e-01 3.033157e-04
<GCONST> 7.554202e+01
<STATE> 3
<MEAN> 39
 2.897351e+00 3.054772e+00 2.695643e+00 -1.754427e+01 -1.240194e+01 -3.521391e-01 1.616185e+00 -1.936393e+00 7.778550e+00 -4.689144e+00 -6.874210e+00 1.707538e+00 7.127841e-01 -2.065949e-01 -7.771312e-02 -1.426149e-01 2.965918e-01 4.331678e-01 3.757635e-01 -1.305801e-02 -1.270906e-02 -4.973780e-02 -4.212090e-02 -1.558035e-01 4.926286e-02 -7.439783e-03 -1.335348e-01 -5.544607e-02 -1.138481e-03 2.141324e-01 2.647360e-01 6.009211e-02 -2.587328e-02 -1.227519e-02 -1.177197e-01 -3.202349e-02 5.937850e-02 -3.440870e-02 -2.877116e-03
<VARIANCE> 39
 1.705728e+00 3.966110e+00 3.929152e+00 7.019474e+00 1.054929e+01 1.948444e+01 9.720479e+00 8.666862e+00 1.227980e+01 7.556898e+00 1.390047e+01 6.926588e+00 3.866632e-03 1.769342e-01 3.385877e-01 3.602147e-01 1.054544e+00 1.367673e+00 1.485132e+00 9.295068e-01 8.075437e-01 1.396986e+00 7.377060e-01 1.210429e+00 6.868286e-01 1.146124e-04 9.217059e-02 5.980998e-02 7.627848e-02 1.849071e-01 2.876014e-01 2.090031e-01 1.965025e-01 1.863995e-01 1.714882e-01 1.396581e-01 1.892034e-01 1.408791e-01 5.776740e-05
<GCONST> 4.492198e+01
<STATE> 4
<MEAN> 39
 -6.153622e+00 -1.903875e+00 2.656762e+00 -4.240385e+00 3.970081e+00 1.410056e+00 -2.678908e+00 -6.103344e+00 7.532592e-01 -6.506660e+00 -6.559612e+00 -5.621257e-01 4.104659e-01 -5.522234e-01 -9.412403e-02 8.072851e-02 6.110924e-01 6.238380e-01 -6.180340e-01 -3.007689e-01 -4.426155e-01 -2.400480e-01 1.785583e-02 -1.732948e-01 -1.660977e-01 -1.774535e-02 7.024891e-02 4.461123e-02 1.487970e-02 -1.314790e-01 -1.705819e-01 -7.052574e-02 -8.768272e-03 1.584922e-02 6.517134e-02 1.590299e-02 -4.396529e-02 -1.056146e-02 1.655565e-03
<VARIANCE> 39
 8.738369e+00 4.790033e+00 4.644980e+00 1.440209e+01 1.819904e+01 3.399801e+01 1.598532e+01 1.687271e+01 1.590803e+01 1.285888e+01 1.987308e+01 1.197958e+01 1.213483e-02 6.352107e-01 5.205932e-01 6.118923e-01 1.045546e+00 2.583343e+00 2.450111e+00 1.393675e+00 1.136305e+00 1.615222e+00 1.494215e+00 1.881584e+00 1.594395e+00 5.906663e-04 8.667600e-02 6.741568e-02 1.423834e-01 1.794157e-01 3.891677e-01 4.850220e-01 2.561623e-01 2.185685e-01 3.242526e-01 3.422470e-01 3.411019e-01 3.294720e-01 7.192481e-05
<GCONST> 6.603470e+01
<TRANSP> 5
 0.000000e+00 1.000000e+00 0.000000e+00 0.000000e+00 0.000000e+00
 0.000000e+00 9.350665e-01 6.493355e-02 0.000000e+00 0.000000e+00
 0.000000e+00 0.000000e+00 9.484457e-01 5.155434e-02 0.000000e+00
 0.000000e+00 0.000000e+00 0.000000e+00 9.386601e-01 6.133985e-02
 0.000000e+00 0.000000e+00 0.000000e+00 0.000000e+00 0.000000e+00
<ENDHMM>
