~o
<STREAMINFO> 1 39
<VECSIZE> 39<NULLD><MFCC_E_D_A><DIAGC>
~h "nine"
<BEGINHMM>
<NUMSTATES> 5
<STATE> 2
<MEAN> 39
 -7.390495e+00 -2.842242e+00 3.929517e+00 -5.770009e+00 -4.954566e+00 -9.766469e+00 -5.390784e+00 -6.182121e+00 -5.847706e+00 -9.473185e+00 -8.607911e+00 -2.941360e+00 5.462380e-01 2.929878e-01 -8.874294e-01 -8.991302e-01 -5.554456e-01 5.024592e-01 -1.037172e-01 -4.925002e-01 4.012816e-01 -1.686095e-01 -4.716163e-01 -2.079024e-01 -9.429213e-02 3.141645e-02 -7.010315e-02 -8.847634e-02 -1.106761e-01 2.990632e-02 2.030592e-01 1.636002e-01 4.278293e-02 1.786803e-04 1.131745e-01 1.107817e-01 1.286730e-01 -5.063837e-03 -5.143099e-03
<VARIANCE> 39
 4.199385e+01 5.947327e+01 7.044742e+01 5.664965e+01 8.489697e+01 6.208793e+01 6.323769e+01 8.412230e+01 4.159836e+01 4.887626e+01 5.694644e+01 3.987782e+01 5.893851e-02 1.236065e+00 3.141784e+00 4.271779e+00 2.343294e+00 4.778695e+00 4.665017e+00 3.521669e+00 6.634178e+00 3.220872e+00 3.342417e+00 3.151673e+00 2.651448e+00 1.720535e-03 2.227423e-01 4.950908e-01 6.240489e-01 4.196656e-01 5.938557e-01 7.123455e-01 6.445982e-01 1.203619e+00 5.838199e-01 6.063210e-01 4.924499e-01 4.727888e-01 2.654380e-04
<GCONST> 1.101164e+02
<STATE> 3
<MEAN> 39
 -7.794815e+00 -1.019551e+01 -1.534921e+00 -1.235211e+01 1.007991e+00 -5.203714e+00 -9.300928e+00 -4.338524e+00 -8.063024e+00 -9.854551e+00 -5.958674e+00 -5.249714e+00 6.788161e-01 -1.080483e-01 2.933163e-01 5.789917e-01 -2.055957e-01 -5.194444e-01 2.809835e-01 1.927072e-01 -2.327799e-01 -1.060001e-01 3.122812e-01 -1.558372e-02 -1.000422e-01 -4.318513e-03 -1.169426e-02 4.573892e-02 6.903724e-02 1.071755e-02 -8.376942e-02 -2.737586e-02 2.089025e-02 3.646825e-02 -1.637913e-02 2.455062e-03 -3.703305e-02 2.301920e-02 -4.803816e-04
<VARIANCE> 39
 4.000131e+01 5.228920e+01 9.060043e+01 8.265701e+01 1.449838e+02 5.973653e+01 7.479971e+01 5.967176e+01 7.033379e+01 5.942798e+01 5.662009e+01 4.398046e+01 2.101807e-02 1.666409e-01 5.238968e-01 9.037672e-01 8.420664e-01 1.815526e+00 1.070607e+00 1.527192e+00 1.495587e+00 1.456520e+00 1.799574e+00 1.278493e+00 1.434018e+00 5.566904e-05 2.313626e-02 5.795030e-02 8.191340e-02 1.054977e-01 1.740035e-01 1.535551e-01 1.952458e-01 2.052455e-01 2.210263e-01 2.398023e-01 1.842431e-01 2.057577e-01 5.486563e-06
<GCONST> 7.203453e+01
<STATE> 4
<MEAN> 39
 -9.820370e+00 -7.459764e-01 9.195733e+00 -6.258449e+00 -4.625070e+00 -3.763170e+00 -2.113222e+00 -7.035103e+00 -6.183267e+00 -5.474165e+00 -6.750784e+00 -3.556005e+00 4.378219e-01 -1.275319e-01 1.455762e-01 -5.469475e-02 5.897962e-01 4.444760e-01 -5.878755e-02 2.726373e-01 2.471890e-01 2.637509e-01 8.518426e-03 2.739758e-01 2.423912e-01 -1.726868e-02 -1.346520e-02 -4.041125e-02 -5.151229e-02 -8.454111e-04 4.582281e-02 1.396322e-02 1.294962e-02 5.025233e-02 2.286272e-02 1.005851e-02 3.921300e-02 1.409726e-02 -7.465145e-04
<VARIANCE> 39
 3.792366e+01 3.227206e+01 4.765398e+01 8.138538e+01 7.828894e+01 6.228690e+01 5.653543e+01 7.131168e+01 5.624533e+01 5.065884e+01 5.738006e+01 4.477449e+01 4.965009e-02 6.966484e-01 1.287183e+00 1.713411e+00 2.815317e+00 2.531319e+00 3.714715e+00 2.811268e+00 3.363232e+00 2.675186e+00 2.665632e+00 2.653027e+00 2.022553e+00 7.829394e-04 9.515241e-02 1.691274e-01 2.271326e-01 4.347889e-01 3.679644e-01 5.646336e-01 4.822502e-01 5.258309e-01 4.603271e-01 4.346867e-01 4.457475e-01 3.585767e-01 9.591324e-05
<GCONST> 9.700929e+01
<TRANSP> 5
 0.000000e+00 1.000000e+00 0.000000e+00 0.000000e+00 0.000000e+00
 0.000000e+00 9.260430e-01 7.395695e-02 0.000000e+00 0.000000e+00
 0.000000e+00 0.000000e+00 9.564121e-01 4.358787e-02 0.000000e+00
 0.000000e+00 0.000000e+00 0.000000e+00 9.550427e-01 4.495734e-02
 0.000000e+00 0.000000e+00 0.000000e+00 0.000000e+00 0.000000e+00
<ENDHMM>
