~o
<STREAMINFO> 1 39
<VECSIZE> 39<NULLD><MFCC_E_D_A><DIAGC>
~h "nine"
<BEGINHMM>
<NUMSTATES> 5
<STATE> 2
<MEAN> 39
 -5.511958e+00 5.794551e-01 6.420648e+00 -1.058044e+00 4.593480e+00 -3.223422e+00 -4.086029e+00 -7.207000e+00 -2.447793e+00 -4.387890e+00 -8.792522e+00 -1.189591e+00 4.435925e-01 5.121692e-01 4.102630e-01 6.375040e-01 -5.458289e-02 -3.544700e-01 -7.418384e-01 -1.359424e-01 7.396536e-01 -1.346574e-01 6.462271e-01 4.376347e-01 -4.743128e-01 3.007832e-02 1.703150e-02 -1.753693e-01 -3.652671e-02 -1.063953e-01 -6.831407e-02 -7.129708e-02 -9.575740e-02 3.853831e-01 6.433304e-02 4.238352e-02 1.354920e-01 -1.979019e-01 1.767955e-03
<VARIANCE> 39
 1.096609e+01 1.278098e+01 1.362591e+01 6.496184e+00 9.564496e+00 1.546449e+01 1.046253e+01 1.389438e+01 1.198533e+01 1.984975e+01 1.326474e+01 1.016751e+01 2.566401e-02 9.172288e-01 1.318714e+00 8.938026e-01 8.500986e-01 1.206032e+00 1.897045e+00 1.138713e+00 2.577544e+00 1.213438e+00 2.063761e+00 2.009218e+00 1.554095e+00 1.600550e-03 1.830435e-01 4.868996e-01 2.711134e-01 1.592546e-01 2.298210e-01 3.935103e-01 2.001847e-01 3.733156e-01 2.679926e-01 3.729075e-01 3.172655e-01 2.887399e-01 2.955720e-04
<GCONST> 7.185455e+01
<STATE> 3
<MEAN> 39
 -1.655277e+00 -7.411553e+00 5.183110e+00 -5.422791e+00 -6.461228e-01 -3.856045e+00 -4.472312e+00 6.814833e+00 -1.954983e+00 -1.042864e+00 -7.141867e-02 -1.063375e+01 6.915314e-01 -5.849060e-02 -2.224947e-02 6.257019e-03 3.240451e-02 -2.473224e-02 4.252672e-02 1.773591e-01 -1.536700e-01 -1.013697e-01 -1.974047e-02 5.055630e-02 8.509353e-02 -1.634638e-03 -1.747379e-03 1.053961e-01 -1.087757e-02 8.793016e-02 1.129152e-01 7.162272e-02 1.891526e-02 -2.229289e-01 -8.376208e-03 -5.242732e-02 -1.394099e-01 1.239164e-01 -7.407980e-04
<VARIANCE> 39
 5.197494e+00 3.219840e+01 4.314322e+01 1.134112e+01 3.752200e+01 7.426109e+01 4.679898e+01 3.597812e+01 2.092730e+01 1.854433e+01 2.694357e+01 2.289183e+01 2.838771e-03 2.940443e-01 2.614251e+00 2.268705e+00 1.118689e+00 3.069931e+00 4.382717e+00 2.341126e+00 5.900549e+00 1.459944e+00 1.907238e+00 3.063706e+00 2.255260e+00 1.115601e-04 5.360496e-02 2.095699e-01 2.454763e-01 1.776592e-01 3.939653e-01 5.689862e-01 3.376835e-01 8.069206e-01 2.614175e-01 4.237349e-01 5.501007e-01 3.382910e-01 1.798654e-05
<GCONST> 7.939772e+01
<STATE> 4
<MEAN> 39
 -6.401122e+00 -6.029912e-01 6.221936e+00 -6.368656e-01 3.751924e+00 -3.644807e+00 -1.996455e+00 -5.998460e+00 -1.520353e+00 -5.459497e+00 -7.645415e+00 -8.198991e-01 4.375581e-01 -2.326221e-01 -1.654302e-01 -3.979148e-01 3.220714e-02 2.436842e-01 3.533687e-01 -1.347589e-01 -2.361005e-01 2.904256e-01 -2.946360e-01 -3.542065e-01 1.249716e-01 -1.483246e-02 -1.831098e-02 -4.309101e-02 4.542992e-02 -6.114930e-02 -1.156459e-01 -7.059562e-02 1.298398e-02 7.646040e-02 -4.168575e-02 2.938825e-02 1.331701e-01 -4.355799e-02 -7.588785e-05
<VARIANCE> 39
 9.096063e+00 1.094816e+01 1.159511e+01 8.770020e+00 9.414815e+00 1.585302e+01 2.100465e+01 1.840653e+01 1.547591e+01 2.262180e+01 1.617092e+01 8.424759e+00 1.665950e-02 4.654821e-01 8.005036e-01 6.073644e-01 1.061299e+00 1.311699e+00 1.834888e+00 1.468363e+00 2.170911e+00 1.283572e+00 2.395741e+00 1.702045e+00 8.797196e-01 7.219260e-04 7.653655e-02 1.488679e-01 9.926869e-02 2.255057e-01 2.618827e-01 3.334042e-01 3.352710e-01 4.493362e-01 2.538207e-01 4.263650e-01 3.258331e-01 1.705524e-01 1.099446e-04
<GCONST> 6.661150e+01
<TRANSP> 5
 0.000000e+00 1.000000e+00 0.000000e+00 0.000000e+00 0.000000e+00
 0.000000e+00 9.173399e-01 8.266013e-02 0.000000e+00 0.000000e+00
 0.000000e+00 0.000000e+00 9.648924e-01 3.510761e-02 0.000000e+00
 0.000000e+00 0.000000e+00 0.000000e+00 9.497955e-01 5.020448e-02
 0.000000e+00 0.000000e+00 0.000000e+00 0.000000e+00 0.000000e+00
<ENDHMM>
