~o
<STREAMINFO> 1 39
<VECSIZE> 39<NULLD><MFCC_E_D_A><DIAGC>
~h "nine"
<BEGINHMM>
<NUMSTATES> 5
<STATE> 2
<MEAN> 39
 -1.275831e+01 -2.149810e+00 -5.419344e-01 -1.144179e+00 -3.491708e-01 -1.996694e+00 9.686271e-01 1.889895e-01 -9.225701e-01 -1.517390e+00 -3.794533e-02 1.680891e-01 -2.619953e-02 2.839986e-02 1.953505e-01 1.852055e-01 2.208086e-01 1.737445e-01 1.699487e-01 -8.253142e-02 -1.529390e-01 -1.298532e-01 -4.215140e-02 -1.296823e-01 -2.121581e-01 5.669527e-03 7.595348e-02 7.633656e-02 9.343287e-02 6.644448e-02 -3.392462e-02 -2.641503e-02 5.432001e-03 -3.288987e-03 -3.831453e-02 -1.352338e-02 -3.745730e-02 -6.582092e-02 6.269291e-03
<VARIANCE> 39
 2.090060e+00 4.883533e+00 5.422042e+00 8.554192e+00 1.289841e+01 1.742232e+01 1.068793e+01 1.590954e+01 1.566203e+01 1.058970e+01 1.606474e+01 1.109659e+01 2.113113e-03 1.961816e-01 4.180779e-01 5.860066e-01 1.003325e+00 1.050031e+00 1.499116e+00 1.557584e+00 2.060821e+00 1.679665e+00 9.097068e-01 1.822870e+00 1.267550e+00 6.562325e-04 7.065184e-02 1.182701e-01 1.450579e-01 2.166988e-01 2.096544e-01 2.957426e-01 3.219226e-01 4.678701e-01 3.416634e-01 1.478973e-01 3.717408e-01 2.625726e-01 2.682607e-04
<GCONST> 5.858962e+01
<STATE> 3
<MEAN> 39
 4.715439e-01 1.224082e-01 9.732519e+00 -7.562776e-01 -7.193596e+00 -6.248753e+00 -5.389644e+00 7.873723e+00 -9.811864e+00 -6.936271e+00 -7.180712e+00 -6.254951e+00 6.938784e-01 5.796018e-02 -8.860526e-02 4.372058e-02 -1.039438e-01 -1.681331e-01 -1.756709e-01 -9.957545e-03 1.702370e-01 -9.729062e-02 -1.727084e-01 -4.813082e-02 8.590207e-03 1.843399e-03 -4.225785e-02 -5.218790e-02 -7.019867e-02 -4.337043e-02 1.028802e-02 7.244097e-03 1.260108e-02 7.419864e-03 1.392106e-02 -6.852964e-03 3.112389e-02 3.262153e-02 -3.993861e-03
<VARIANCE> 39
 2.213113e+01 6.508423e+01 5.151432e+01 4.835244e+01 5.637575e+01 3.427962e+01 6.743755e+01 7.925282e+01 1.938249e+01 1.601843e+01 1.702464e+01 2.593435e+01 4.852852e-02 1.957931e+00 3.534803e+00 3.524142e+00 3.536871e+00 5.476813e+00 3.315329e+00 3.824167e+00 4.695738e+00 1.712161e+00 1.825035e+00 1.477676e+00 2.261712e+00 4.100849e-03 2.385055e-01 4.070021e-01 3.847449e-01 5.241523e-01 9.594265e-01 6.377381e-01 5.886025e-01 6.612393e-01 3.040416e-01 3.486095e-01 2.715038e-01 3.028852e-01 3.163669e-04
<GCONST> 1.006478e+02
<STATE> 4
<MEAN> 39
 -1.066170e+01 -1.667364e+00 5.206632e-01 -1.681538e+00 -2.571721e+00 -5.685873e+00 -1.088075e+00 -1.941239e-01 -4.430001e+00 -5.509269e+00 -2.673712e+00 -9.441138e-01 4.511985e-02 -1.562479e-01 1.171017e-01 -1.759712e-01 4.999810e-02 1.928800e-01 2.118695e-01 2.694514e-02 -3.593122e-01 2.251619e-01 4.186282e-01 1.414277e-01 3.260959e-02 -8.752743e-03 1.697682e-02 2.790318e-02 5.098503e-02 2.801890e-03 -3.609989e-02 -2.897807e-03 -1.676052e-02 -1.648577e-03 1.546770e-02 6.380203e-02 -1.155231e-02 -5.781252e-03 2.138050e-03
<VARIANCE> 39
 3.022632e+00 5.379768e+00 8.536034e+00 8.066536e+00 8.186943e+00 1.449599e+01 1.199028e+01 3.405690e+01 2.257367e+01 2.926529e+01 1.579844e+01 1.323149e+01 2.893722e-03 1.914048e-01 2.950858e-01 9.872379e-01 7.919506e-01 8.922707e-01 1.431435e+00 1.387236e+00 1.905464e+00 1.772273e+00 2.055649e+00 1.944624e+00 1.139813e+00 3.568099e-04 3.902824e-02 6.643648e-02 2.057165e-01 1.652236e-01 1.743590e-01 2.872532e-01 3.033911e-01 4.476355e-01 3.702087e-01 4.336567e-01 4.171222e-01 2.415224e-01 6.814421e-05
<GCONST> 5.967881e+01
<TRANSP> 5
 0.000000e+00 1.000000e+00 0.000000e+00 0.000000e+00 0.000000e+00
 0.000000e+00 9.507028e-01 4.929719e-02 0.000000e+00 0.000000e+00
 0.000000e+00 0.000000e+00 9.777206e-01 2.227940e-02 0.000000e+00
 0.000000e+00 0.000000e+00 0.000000e+00 9.541929e-01 4.580709e-02
 0.000000e+00 0.000000e+00 0.000000e+00 0.000000e+00 0.000000e+00
<ENDHMM>
