~o
<STREAMINFO> 1 39
<VECSIZE> 39<NULLD><MFCC_E_D_A><DIAGC>
~h "nine"
<BEGINHMM>
<NUMSTATES> 5
<STATE> 2
<MEAN> 39
 -7.227927e+00 2.910357e+00 6.082936e+00 2.120527e+00 8.169210e+00 -3.964756e+00 -2.181275e+00 -7.505641e+00 -9.709197e-01 -8.043770e+00 -6.374338e+00 -3.521774e+00 3.406668e-01 1.173996e-03 4.410204e-02 3.698437e-02 5.799671e-02 -3.296267e-02 3.177000e-02 5.372432e-02 1.993617e-02 3.322206e-03 3.284858e-02 3.453881e-02 5.289245e-02 1.784098e-03 4.800218e-02 3.345282e-02 4.702302e-02 8.469206e-03 -2.494421e-02 -7.520777e-04 -9.691715e-03 -3.406744e-02 -2.829299e-02 9.958041e-03 4.142969e-02 2.258150e-02 2.213930e-03
<VARIANCE> 39
 8.147572e+00 9.111902e+00 8.282706e+00 1.394260e+01 1.262936e+01 1.374515e+01 2.539653e+01 2.178899e+01 2.261991e+01 1.439068e+01 1.694313e+01 1.643792e+01 1.632415e-02 4.635053e-01 6.533545e-01 6.627312e-01 7.222050e-01 9.635444e-01 1.361259e+00 1.744411e+00 1.517291e+00 1.894142e+00 1.395062e+00 1.632650e+00 1.257308e+00 5.727296e-04 1.220938e-01 1.175279e-01 1.335317e-01 1.470892e-01 2.044781e-01 2.941526e-01 3.474428e-01 3.076407e-01 3.751573e-01 2.907261e-01 3.225562e-01 2.818156e-01 1.292931e-04
<GCONST> 6.625680e+01
<STATE> 3
<MEAN> 39
 -1.696480e+00 7.840732e+00 1.056502e+01 1.294628e+00 9.771584e-01 -4.705615e+00 -3.259097e+00 -1.129599e+01 -3.867511e+00 -7.497927e+00 -4.274877e+00 -1.355364e+00 6.364179e-01 1.701348e+00 -2.763624e-01 6.420320e-01 -1.686018e+00 -2.784375e+00 -6.353533e-01 -1.596843e+00 8.769843e-01 1.310622e+00 4.178795e-02 -4.240299e-01 6.241795e-01 7.180706e-02 -1.850906e-01 -6.705984e-01 -7.102460e-01 -4.947636e-01 -2.493084e-01 1.271504e-01 -2.193421e-01 1.042062e+00 9.701167e-01 2.147611e-02 -6.864480e-01 -3.928134e-01 -1.143706e-02
<VARIANCE> 39
 1.732149e+01 1.121982e+01 1.070862e+01 2.188571e+01 4.195869e+01 1.285376e+01 2.616392e+01 2.214302e+01 2.849189e+01 1.186602e+01 7.342334e+00 1.077241e+01 1.713643e-02 1.305710e+00 3.601542e+00 1.748552e+00 3.471627e+00 2.896655e+00 1.588543e+00 2.133486e+00 9.710035e+00 7.975926e+00 1.244583e+00 2.510851e+00 1.487980e+00 1.951480e-03 3.066131e-01 2.758039e-01 3.576141e-01 4.923702e-01 1.029901e+00 5.216085e-01 4.765931e-01 7.175921e-01 5.485574e-01 2.506133e-01 2.162089e-01 5.380168e-01 2.921285e-04
<GCONST> 8.829088e+01
<STATE> 4
<MEAN> 39
 1.334440e+00 3.984869e-01 -1.415944e+00 -7.389017e+00 -1.811205e+00 -2.069063e+00 -4.692326e+00 -3.504762e+00 1.111870e+01 -8.505902e+00 -8.248175e+00 -6.722174e+00 7.373600e-01 1.399490e-03 -2.173178e-01 -6.716002e-01 9.095001e-04 2.776977e-01 8.845857e-02 2.349923e-01 -1.817759e-02 2.518313e-01 -2.020182e-01 1.465045e-01 -2.550951e-01 -2.880639e-03 -2.643031e-02 1.354261e-01 1.475442e-01 1.890306e-01 1.451575e-01 -7.764036e-02 9.373874e-02 -2.344076e-01 -3.186504e-01 -1.172272e-02 1.319275e-01 1.186861e-01 -1.553923e-03
<VARIANCE> 39
 1.314610e+01 8.315521e+00 3.396117e+01 1.625834e+01 3.166213e+01 1.728011e+01 2.175472e+01 2.991313e+01 3.697022e+01 1.171816e+01 2.932591e+01 1.905416e+01 1.466734e-02 5.737957e-01 9.125996e-01 3.199862e+00 1.666645e+00 2.246661e+00 1.461753e+00 1.494184e+00 4.860664e+00 3.963987e+00 1.146510e+00 2.667414e+00 2.026907e+00 3.486597e-04 1.038767e-01 1.323547e-01 2.071125e-01 3.321825e-01 5.091023e-01 2.226848e-01 3.723216e-01 1.028537e+00 5.788853e-01 2.119918e-01 4.667131e-01 3.054414e-01 3.783130e-05
<GCONST> 7.875336e+01
<TRANSP> 5
 0.000000e+00 1.000000e+00 0.000000e+00 0.000000e+00 0.000000e+00
 0.000000e+00 9.739738e-01 2.602622e-02 0.000000e+00 0.000000e+00
 0.000000e+00 0.000000e+00 8.003706e-01 1.996294e-01 0.000000e+00
 0.000000e+00 0.000000e+00 0.000000e+00 9.416558e-01 5.834424e-02
 0.000000e+00 0.000000e+00 0.000000e+00 0.000000e+00 0.000000e+00
<ENDHMM>
