~o
<STREAMINFO> 1 39
<VECSIZE> 39<NULLD><MFCC_E_D_A><DIAGC>
~h "one"
<BEGINHMM>
<NUMSTATES> 5
<STATE> 2
<MEAN> 39
 -2.652292e+00 3.356011e+00 -1.392927e+00 -1.441128e+01 -9.102732e+00 -5.262725e+00 -5.105584e+00 -4.733939e+00 -7.237533e+00 -6.398263e+00 -5.479643e+00 -5.886062e+00 5.017271e-01 6.707602e-01 -4.462583e-01 -1.034234e+00 -1.784349e+00 -3.260832e-01 7.137098e-01 5.751261e-04 1.353070e-01 -5.197660e-01 -2.372930e-01 -1.054431e-01 -1.512986e-01 4.079155e-02 -1.828104e-01 -2.710324e-01 -6.455099e-02 1.909735e-01 3.887941e-01 2.495690e-01 4.661831e-02 -2.660506e-02 4.658958e-02 2.236662e-02 9.891270e-02 5.486791e-02 -5.023377e-03
<VARIANCE> 39
 5.171241e+01 3.071099e+01 3.686341e+01 1.204122e+02 8.898166e+01 4.297511e+01 3.318519e+01 3.231205e+01 4.205513e+01 3.354085e+01 3.458864e+01 2.429799e+01 6.038825e-02 1.827437e+00 2.780841e+00 1.807291e+00 3.897463e+00 5.561080e+00 4.922787e+00 2.927264e+00 2.837120e+00 3.047624e+00 2.908212e+00 2.429245e+00 1.957855e+00 1.667137e-03 2.749353e-01 2.611535e-01 2.765972e-01 7.391723e-01 7.361387e-01 6.189786e-01 5.651199e-01 5.394376e-01 4.972315e-01 4.725237e-01 4.946205e-01 3.486081e-01 2.953702e-04
<GCONST> 1.026713e+02
<STATE> 3
<MEAN> 39
 -5.149125e+00 -9.592821e+00 -7.638607e+00 -1.908748e+01 3.587458e+00 1.803246e-02 -8.396755e+00 -5.297493e+00 -8.357336e+00 -8.296598e+00 -5.947167e+00 -5.903028e+00 6.922252e-01 -2.990306e-01 -4.848351e-01 2.764121e-01 1.058860e+00 4.246106e-01 -6.487799e-01 -4.292628e-01 8.087795e-02 3.784896e-01 -2.465362e-01 -2.839246e-01 9.162738e-02 -4.210554e-03 1.532502e-02 2.053804e-01 1.873116e-01 8.765624e-02 -2.857686e-01 -2.372156e-01 7.208985e-02 5.463381e-02 3.335628e-02 1.312220e-02 -5.125348e-02 5.982157e-02 -2.432026e-03
<VARIANCE> 39
 4.597154e+01 5.144535e+01 3.804603e+01 6.670563e+01 9.549103e+01 7.138177e+01 6.523428e+01 4.973207e+01 8.871473e+01 5.833961e+01 4.922755e+01 4.043542e+01 1.966981e-02 2.095650e-01 1.018674e+00 8.354626e-01 9.334480e-01 3.011496e+00 2.185000e+00 2.385005e+00 2.403750e+00 2.155804e+00 1.863431e+00 2.391750e+00 1.841457e+00 1.647663e-04 3.021766e-02 9.401403e-02 1.074764e-01 1.497151e-01 1.957703e-01 3.094851e-01 3.548114e-01 3.455785e-01 3.465630e-01 2.955513e-01 3.453972e-01 2.955903e-01 1.276443e-05
<GCONST> 8.169057e+01
<STATE> 4
<MEAN> 39
 -8.697314e+00 -8.602227e-01 7.846707e+00 -2.212446e+00 -2.810700e+00 -9.869044e+00 -3.370750e+00 -5.775391e+00 -5.448878e+00 -8.358289e+00 -8.218431e+00 -1.667340e+00 4.472580e-01 -2.434750e-01 3.783802e-01 4.674087e-01 4.169542e-01 6.819829e-02 1.347033e-01 3.977086e-01 -1.681552e-02 9.522112e-02 2.121040e-01 2.879381e-01 1.688500e-01 -1.665303e-02 -4.490601e-03 -5.072189e-02 -8.840737e-02 -5.884118e-02 8.314445e-02 1.000375e-01 -1.517996e-02 2.634149e-02 2.230210e-02 3.451080e-02 5.354073e-02 -2.403388e-02 -2.315663e-04
<VARIANCE> 39
 3.186456e+01 4.122595e+01 5.623312e+01 4.080622e+01 7.202707e+01 6.981778e+01 5.983187e+01 5.890963e+01 4.488197e+01 4.868142e+01 5.678680e+01 4.631902e+01 5.385910e-02 4.709530e-01 1.757800e+00 2.314713e+00 1.673096e+00 2.101719e+00 3.034789e+00 2.369107e+00 2.970898e+00 2.126133e+00 2.368151e+00 2.009355e+00 1.909397e+00 7.486983e-04 7.132588e-02 2.280518e-01 2.793569e-01 2.677148e-01 2.613361e-01 4.046765e-01 4.015613e-01 4.828904e-01 3.501755e-01 3.915080e-01 3.322308e-01 3.115085e-01 8.407278e-05
<GCONST> 9.242462e+01
<TRANSP> 5
 0.000000e+00 1.000000e+00 0.000000e+00 0.000000e+00 0.000000e+00
 0.000000e+00 9.003881e-01 9.961194e-02 0.000000e+00 0.000000e+00
 0.000000e+00 0.000000e+00 9.308453e-01 6.915472e-02 0.000000e+00
 0.000000e+00 0.000000e+00 0.000000e+00 9.573385e-01 4.266147e-02
 0.000000e+00 0.000000e+00 0.000000e+00 0.000000e+00 0.000000e+00
<ENDHMM>
