~o
<STREAMINFO> 1 39
<VECSIZE> 39<NULLD><MFCC_E_D_A><DIAGC>
~h "one"
<BEGINHMM>
<NUMSTATES> 5
<STATE> 2
<MEAN> 39
 -9.077115e+00 2.980541e+00 6.242299e+00 9.073999e-02 6.307369e+00 -4.843832e+00 -3.330537e+00 -7.359456e+00 -1.834287e+00 -7.739824e+00 -6.677271e+00 -3.365263e+00 2.779085e-01 5.200702e-03 -3.137842e-03 -5.693935e-03 4.401662e-03 2.520754e-03 -4.320817e-02 6.767440e-02 5.790041e-02 -5.020683e-02 -1.348265e-02 2.866941e-02 1.274066e-02 2.065926e-04 1.330191e-02 2.335676e-02 -2.292268e-04 -1.066802e-02 -2.333458e-03 -1.332744e-02 2.712418e-04 2.987018e-02 -1.486360e-02 -1.846597e-03 2.111158e-02 6.054177e-03 9.552602e-04
<VARIANCE> 39
 8.624975e+00 5.861927e+00 9.225048e+00 7.193887e+00 2.188889e+01 2.166216e+01 1.521230e+01 1.758658e+01 2.299156e+01 2.042760e+01 1.501424e+01 1.480392e+01 2.863512e-03 5.906773e-01 4.784159e-01 7.465576e-01 6.690217e-01 9.575570e-01 1.774607e+00 1.575986e+00 1.512676e+00 1.892178e+00 1.762919e+00 1.442836e+00 1.391472e+00 2.671919e-04 1.042058e-01 1.005031e-01 1.540459e-01 1.355874e-01 1.842544e-01 3.651760e-01 3.012742e-01 2.864351e-01 3.735865e-01 3.585175e-01 2.904123e-01 3.011318e-01 7.032181e-05
<GCONST> 6.277571e+01
<STATE> 3
<MEAN> 39
 -3.180239e+00 8.119029e+00 5.667266e+00 -5.151255e+00 1.759104e+00 -4.898404e+00 -1.773677e+00 -2.447594e+00 -2.211130e+00 -7.143801e+00 -3.255820e+00 -1.082291e+00 5.125502e-01 2.362165e+00 1.623155e+00 -7.942671e-01 -2.726648e+00 -2.164550e+00 4.097593e-02 -2.746322e-01 1.423934e+00 6.682605e-01 3.141358e-02 1.280746e+00 4.887578e-01 8.543153e-02 1.261192e-01 -1.155891e-01 -3.964596e-01 -4.888999e-01 -2.076349e-01 1.156871e-01 2.340282e-02 -7.995024e-02 2.453715e-01 -3.585031e-01 -1.581934e-02 7.490157e-03 1.121175e-03
<VARIANCE> 39
 3.498009e+01 2.502049e+01 1.157626e+01 4.381918e+01 3.663220e+01 1.841420e+01 1.877142e+01 2.739667e+01 2.212619e+01 1.113872e+01 1.242506e+01 1.152319e+01 3.749513e-02 1.479960e+00 1.527194e+00 2.191886e+00 4.242746e+00 2.829070e+00 1.352789e+00 1.409417e+00 1.624107e+00 2.700230e+00 2.088576e+00 1.506675e+00 1.592690e+00 1.227063e-03 6.301417e-01 7.487892e-01 2.003732e-01 7.368156e-01 8.568864e-01 2.776015e-01 5.585708e-01 4.853486e-01 5.900499e-01 3.951422e-01 3.468010e-01 4.151092e-01 6.522951e-04
<GCONST> 8.960826e+01
<STATE> 4
<MEAN> 39
 4.467129e+00 6.154222e+00 -5.095613e+00 -1.287309e+01 -2.061708e+00 -8.215985e-01 -3.580595e+00 -3.418839e+00 5.491690e+00 -9.477122e+00 -1.919472e+00 -1.158949e+00 8.160061e-01 -1.954796e-02 -6.850312e-01 -3.453681e-01 1.055218e+00 5.296152e-01 1.165782e-01 -3.105640e-01 -7.862676e-01 4.298876e-01 1.217062e-01 -5.121335e-01 -3.197228e-01 4.997079e-03 -1.538686e-01 -5.911686e-03 3.337642e-01 4.017078e-01 1.311154e-01 -1.748854e-01 -3.195499e-02 -5.905602e-02 -1.806748e-01 1.510594e-01 -1.107104e-01 -9.676312e-03 -4.807841e-03
<VARIANCE> 39
 2.322721e+00 1.796783e+01 3.449070e+01 6.876900e+01 1.686246e+01 3.523697e+01 3.227572e+01 3.415352e+01 2.681886e+01 2.398674e+01 3.033221e+01 1.945028e+01 1.855297e-03 3.392527e-01 8.168070e-01 4.272518e+00 2.914772e+00 1.432607e+00 3.965733e+00 4.190221e+00 3.433576e+00 4.242978e+00 3.109709e+00 2.361307e+00 1.913206e+00 2.289318e-04 1.141592e-01 1.458806e-01 3.540487e-01 3.800433e-01 4.645403e-01 5.949482e-01 6.841172e-01 7.939696e-01 7.195306e-01 5.059553e-01 5.817618e-01 3.054391e-01 3.259462e-05
<GCONST> 8.341043e+01
<TRANSP> 5
 0.000000e+00 1.000000e+00 0.000000e+00 0.000000e+00 0.000000e+00
 0.000000e+00 9.747313e-01 2.526876e-02 0.000000e+00 0.000000e+00
 0.000000e+00 0.000000e+00 8.206382e-01 1.793618e-01 0.000000e+00
 0.000000e+00 0.000000e+00 0.000000e+00 9.135222e-01 8.647779e-02
 0.000000e+00 0.000000e+00 0.000000e+00 0.000000e+00 0.000000e+00
<ENDHMM>
