~o
<STREAMINFO> 1 39
<VECSIZE> 39<NULLD><MFCC_E_D_A><DIAGC>
~h "one"
<BEGINHMM>
<NUMSTATES> 5
<STATE> 2
<MEAN> 39
 -4.539351e+00 1.633980e+00 4.827052e+00 -3.165889e+00 1.284102e+00 -4.252909e+00 -4.544165e+00 -5.873837e+00 1.477120e+00 -4.612306e+00 -6.455927e+00 1.913491e-01 4.773207e-01 6.672166e-01 4.337060e-01 5.955997e-02 -9.068791e-01 -1.156427e+00 -1.377181e-01 1.936426e-01 4.009359e-01 5.944952e-01 1.554926e-01 2.073011e-01 4.034954e-02 2.590840e-02 6.169480e-02 -7.998558e-02 -7.690377e-02 -1.993401e-01 -1.189907e-01 2.258481e-01 1.805527e-01 3.888962e-02 2.772690e-02 -9.891067e-02 3.134008e-03 -1.002681e-03 1.732439e-03
<VARIANCE> 39
 1.956393e+01 1.609735e+01 5.671080e+00 2.109715e+01 3.813763e+01 1.692611e+01 1.441753e+01 1.194579e+01 2.229634e+01 1.362097e+01 1.135054e+01 1.272327e+01 2.531128e-02 1.010693e+00 7.851917e-01 8.685840e-01 2.645945e+00 2.817494e+00 2.381682e+00 2.244385e+00 1.293513e+00 1.807164e+00 1.498378e+00 1.021854e+00 1.194365e+00 1.082157e-03 1.669917e-01 1.841539e-01 1.614830e-01 2.796406e-01 3.888975e-01 5.904915e-01 4.162408e-01 2.492319e-01 3.968694e-01 3.155852e-01 2.021105e-01 2.534254e-01 1.687851e-04
<GCONST> 7.472966e+01
<STATE> 3
<MEAN> 39
 2.122360e+00 -2.179801e+00 3.483199e-01 -1.577035e+01 -8.379723e+00 7.035618e+00 -6.838214e-01 -1.559272e+00 2.407006e+00 -2.414612e+00 9.136397e-01 -3.193785e+00 7.597423e-01 -2.822763e-01 -6.300175e-01 -7.522574e-02 8.063508e-01 9.200231e-01 1.194042e-01 -2.868345e-01 -1.009977e-01 -1.055365e+00 8.088285e-01 8.619542e-01 -9.711632e-01 -3.414016e-03 -9.110552e-02 2.379782e-01 2.653365e-01 4.534905e-01 2.217348e-01 -5.770543e-01 -2.050891e-01 -1.794227e-01 -1.435935e-01 1.219792e-01 -9.169697e-02 1.211326e-02 -3.429525e-03
<VARIANCE> 39
 3.894699e+00 1.723744e+01 1.302893e+01 2.450190e+01 3.504005e+01 4.039151e+01 3.589228e+01 2.119174e+01 2.625375e+01 3.239391e+01 3.164895e+01 3.762783e+01 5.773270e-03 3.128220e-01 1.648995e+00 1.586411e+00 3.154687e+00 1.668557e+00 1.020680e+01 3.761693e+00 2.179276e+00 1.577732e+00 2.195859e+00 1.967990e+00 2.300804e+00 2.246361e-04 6.732693e-02 1.594203e-01 1.130159e-01 2.223400e-01 4.428406e-01 5.456223e-01 6.556719e-01 4.604200e-01 3.508680e-01 3.690370e-01 3.696009e-01 4.663401e-01 2.356551e-05
<GCONST> 7.915749e+01
<STATE> 4
<MEAN> 39
 -4.743792e+00 -4.248431e-01 6.434930e+00 -1.114873e+00 2.860019e+00 -4.680356e+00 -4.240366e+00 -5.385487e+00 -2.928513e+00 -1.499099e+00 -4.261221e+00 -3.947600e+00 5.027276e-01 -3.499870e-01 -4.561236e-02 1.986972e-02 2.492802e-01 3.112923e-01 4.453843e-02 9.814914e-02 -2.108170e-01 7.351779e-02 -5.029581e-01 -4.931555e-01 3.929178e-01 -1.564334e-02 2.044975e-02 -5.975590e-02 -7.624178e-02 -9.580227e-02 -2.952372e-02 1.439615e-01 -2.233888e-02 5.183306e-02 5.982087e-02 -2.329695e-02 3.725849e-02 -9.532115e-03 8.049722e-04
<VARIANCE> 39
 9.086143e+00 1.256331e+01 1.024593e+01 1.400439e+01 1.206255e+01 1.786492e+01 1.432591e+01 1.724118e+01 2.430960e+01 3.092071e+01 2.909943e+01 2.067009e+01 2.680259e-02 3.098939e-01 1.280835e+00 1.056108e+00 1.838722e+00 1.092432e+00 2.085789e+00 1.769497e+00 1.506479e+00 2.295902e+00 1.412694e+00 1.948621e+00 1.077527e+00 5.858513e-04 6.105275e-02 1.617896e-01 1.322060e-01 3.389927e-01 1.968748e-01 4.210180e-01 3.782700e-01 2.710232e-01 4.310803e-01 2.854953e-01 3.699878e-01 1.889178e-01 7.693180e-05
<GCONST> 7.096646e+01
<TRANSP> 5
 0.000000e+00 1.000000e+00 0.000000e+00 0.000000e+00 0.000000e+00
 0.000000e+00 9.345848e-01 6.541521e-02 0.000000e+00 0.000000e+00
 0.000000e+00 0.000000e+00 9.119956e-01 8.800438e-02 0.000000e+00
 0.000000e+00 0.000000e+00 0.000000e+00 9.560443e-01 4.395579e-02
 0.000000e+00 0.000000e+00 0.000000e+00 0.000000e+00 0.000000e+00
<ENDHMM>
