~o
<STREAMINFO> 1 39
<VECSIZE> 39<NULLD><MFCC_E_D_A><DIAGC>
~h "one"
<BEGINHMM>
<NUMSTATES> 5
<STATE> 2
<MEAN> 39
 -1.285445e+01 -2.425779e+00 -2.357734e+00 -2.637293e+00 2.442347e-01 -6.512398e-01 1.859151e+00 -2.437507e-01 1.663973e-01 -1.572198e+00 -5.848858e-02 -1.257668e-02 -8.365578e-03 1.394611e-01 1.574605e-01 2.225099e-01 1.706704e-01 7.497591e-02 2.367648e-02 3.938060e-03 1.507019e-02 -1.154410e-01 -1.491133e-01 -2.058746e-01 -2.163641e-01 9.774270e-03 1.308213e-01 1.272692e-01 1.131855e-01 1.365858e-02 -5.863863e-02 -7.391058e-02 -2.868263e-02 3.355860e-02 -3.927985e-02 -7.192104e-02 -8.141460e-02 -8.567979e-02 7.981367e-03
<VARIANCE> 39
 2.226276e+00 4.693520e+00 8.175574e+00 7.585198e+00 9.923655e+00 1.103214e+01 1.454629e+01 1.516422e+01 1.204556e+01 1.243023e+01 1.224955e+01 1.123408e+01 4.010651e-03 3.569599e-01 8.249604e-01 8.832976e-01 9.552601e-01 1.355292e+00 1.331741e+00 1.810191e+00 1.874560e+00 1.468324e+00 1.525571e+00 1.427239e+00 1.413862e+00 1.350672e-03 1.569104e-01 1.895176e-01 1.537123e-01 1.992775e-01 3.966170e-01 3.159494e-01 3.763309e-01 4.058199e-01 2.902030e-01 2.932402e-01 3.008876e-01 2.378503e-01 3.029115e-04
<GCONST> 6.381853e+01
<STATE> 3
<MEAN> 39
 3.762116e+00 -4.603237e-01 4.786506e+00 -5.760339e+00 -8.050903e+00 -2.513081e+00 -6.713690e-01 5.592677e+00 -7.165782e+00 -6.007024e+00 -5.933460e+00 -5.582569e+00 6.970345e-01 7.684103e-02 -1.125250e-01 1.182257e-02 -1.039785e-01 -2.272161e-01 -2.140088e-01 -6.269851e-02 1.067558e-01 -7.586791e-02 -1.350058e-01 -7.927670e-02 1.648942e-01 -5.384798e-04 -9.087485e-02 -7.771780e-02 -1.017389e-01 -2.002725e-03 7.808001e-02 4.114304e-02 7.843857e-03 3.095492e-03 3.675019e-02 2.266193e-02 4.631808e-02 4.610432e-02 -5.890768e-03
<VARIANCE> 39
 3.516590e+01 6.505268e+01 3.177978e+01 1.516257e+02 6.331573e+01 6.864777e+01 3.855339e+01 4.351136e+01 2.774393e+01 2.755281e+01 1.694530e+01 3.150607e+01 4.053662e-02 2.690659e+00 4.524077e+00 2.500933e+00 6.962329e+00 7.406267e+00 5.688077e+00 3.068509e+00 3.190209e+00 3.087765e+00 1.874123e+00 1.742738e+00 2.795889e+00 4.003171e-03 2.031220e-01 5.512571e-01 2.910656e-01 8.177407e-01 1.204632e+00 8.477808e-01 4.718375e-01 5.339869e-01 6.402131e-01 2.951240e-01 3.536843e-01 4.123605e-01 2.381327e-04
<GCONST> 1.056890e+02
<STATE> 4
<MEAN> 39
 -1.069066e+01 -1.290902e+00 -9.629133e-01 -3.620464e+00 -2.701985e+00 -3.863314e+00 -4.366094e-01 1.002911e-01 -1.488969e+00 -3.138868e+00 -1.586124e+00 -2.463712e-01 2.327486e-02 -1.950461e-01 9.935898e-02 -1.237139e-01 3.746099e-02 2.479612e-01 2.527091e-01 6.066010e-02 -1.658042e-01 1.839631e-01 3.178994e-01 2.322802e-01 -7.512990e-02 -9.082177e-03 1.799741e-02 -2.847275e-03 6.911752e-02 -7.751580e-03 -6.445501e-02 1.348652e-02 4.548406e-03 -3.783790e-02 -6.169550e-03 1.183861e-02 -4.899763e-02 -1.712717e-02 3.063393e-03
<VARIANCE> 39
 4.094914e+00 2.785516e+00 4.038891e+00 9.147830e+00 7.228134e+00 1.010618e+01 1.208338e+01 1.998042e+01 1.203995e+01 2.431143e+01 1.389048e+01 1.135824e+01 4.504631e-03 2.722713e-01 3.058390e-01 7.238553e-01 8.738054e-01 8.612546e-01 7.989821e-01 1.660566e+00 2.469708e+00 1.305545e+00 1.326060e+00 1.065976e+00 1.144593e+00 5.619894e-04 4.918487e-02 6.129089e-02 1.437340e-01 1.904976e-01 1.972141e-01 1.485963e-01 3.677262e-01 5.725973e-01 3.078663e-01 1.854754e-01 1.854348e-01 2.528546e-01 9.786926e-05
<GCONST> 5.454878e+01
<TRANSP> 5
 0.000000e+00 1.000000e+00 0.000000e+00 0.000000e+00 0.000000e+00
 0.000000e+00 9.527301e-01 4.726992e-02 0.000000e+00 0.000000e+00
 0.000000e+00 0.000000e+00 9.730290e-01 2.697097e-02 0.000000e+00
 0.000000e+00 0.000000e+00 0.000000e+00 9.550915e-01 4.490855e-02
 0.000000e+00 0.000000e+00 0.000000e+00 0.000000e+00 0.000000e+00
<ENDHMM>
