~o
<STREAMINFO> 1 39
<VECSIZE> 39<NULLD><MFCC_E_D_A><DIAGC>
~h "seven"
<BEGINHMM>
<NUMSTATES> 5
<STATE> 2
<MEAN> 39
 -1.774746e+01 -8.040581e-02 -3.511702e+00 -4.720418e+00 -2.299287e+00 -6.734013e+00 3.271453e+00 1.224688e+00 -2.469417e+00 8.152218e-01 -1.361315e+00 -1.613955e-01 1.998324e-01 1.117718e-02 1.502371e-01 4.859675e-02 -5.550046e-02 -1.398966e-01 -1.845945e-01 8.905315e-02 3.887598e-02 -1.467033e-01 1.151198e-01 -1.392844e-01 -1.233296e-01 1.584165e-02 1.478290e-01 -4.036949e-02 5.520902e-02 -2.622002e-02 -1.380492e-02 -2.579627e-02 -8.938332e-02 6.237669e-02 -2.209465e-02 1.392992e-02 -1.924966e-02 -4.864955e-02 2.023240e-03
<VARIANCE> 39
 5.224598e+01 1.887152e+01 2.107855e+01 2.425694e+01 2.074053e+01 3.308370e+01 2.879314e+01 2.100890e+01 2.281774e+01 1.745603e+01 1.740179e+01 1.308853e+01 6.665880e-02 3.349023e+00 9.566792e-01 1.870968e+00 2.084402e+00 2.016255e+00 2.025318e+00 2.147672e+00 2.153184e+00 1.713345e+00 1.374557e+00 1.830814e+00 1.615415e+00 1.539290e-03 3.271661e-01 1.797634e-01 3.186496e-01 4.245564e-01 4.031035e-01 3.378960e-01 4.496254e-01 4.828406e-01 3.291015e-01 2.735654e-01 3.892308e-01 3.081694e-01 3.283804e-04
<GCONST> 8.647510e+01
<STATE> 3
<MEAN> 39
 2.086915e+00 -8.495611e-01 6.104175e+00 -4.164285e+00 -5.108378e+00 -9.640688e+00 -1.790465e+00 5.739210e+00 -7.469675e+00 -6.674101e-02 -4.214633e+00 -7.091632e+00 6.892815e-01 8.909901e-02 -1.753202e-01 5.324294e-02 8.506893e-02 1.232105e-01 7.399900e-02 -1.630981e-01 7.202572e-02 2.976966e-02 -2.669879e-01 4.936739e-02 6.962674e-02 -1.300744e-02 -1.592979e-01 4.988797e-02 -8.521152e-02 4.043824e-02 3.348197e-02 3.449004e-02 8.992382e-02 -6.094645e-02 2.217543e-02 -4.059716e-02 3.098747e-02 7.965535e-02 -3.130959e-03
<VARIANCE> 39
 2.387315e+01 5.554092e+01 2.512889e+01 7.815293e+01 2.004925e+01 2.740287e+01 3.016033e+01 4.937156e+01 2.044657e+01 3.910896e+01 3.853861e+01 1.604534e+01 4.153160e-02 2.727147e+00 4.801611e+00 1.846484e+00 4.688597e+00 2.415920e+00 2.285149e+00 3.130899e+00 5.222770e+00 2.001494e+00 2.353478e+00 2.997879e+00 1.670747e+00 1.964270e-03 2.791360e-01 7.024553e-01 2.136513e-01 7.270513e-01 4.777150e-01 4.508289e-01 5.263957e-01 8.166196e-01 4.009084e-01 4.184299e-01 4.714861e-01 2.956773e-01 1.855793e-04
<GCONST> 9.793754e+01
<STATE> 4
<MEAN> 39
 -1.078549e+01 -1.011620e+00 -1.291002e-01 -2.612696e+00 -2.319156e+00 -6.488175e+00 -1.775258e+00 -1.666357e+00 -3.215445e+00 -3.746598e+00 -2.872300e+00 -7.214904e-01 3.959699e-02 -1.442524e-01 1.473098e-01 -1.135540e-01 -5.338129e-03 9.865279e-02 2.037009e-01 1.299490e-01 -2.452704e-01 1.651498e-01 3.654474e-01 1.477091e-01 9.370439e-02 -6.760256e-03 1.532044e-02 -1.926528e-02 3.889087e-02 -1.929488e-02 -4.149548e-02 -1.759988e-02 1.801939e-02 3.532888e-02 -4.715262e-03 4.605144e-02 -2.084139e-03 -4.643153e-02 1.816740e-03
<VARIANCE> 39
 4.102774e+00 5.724552e+00 5.764624e+00 6.226795e+00 8.597356e+00 1.375172e+01 1.437856e+01 2.901636e+01 2.714281e+01 2.869202e+01 1.578062e+01 1.339256e+01 3.985255e-03 9.588562e-02 3.327816e-01 4.229614e-01 7.650194e-01 8.939623e-01 7.844537e-01 1.233963e+00 1.382061e+00 1.614476e+00 1.789893e+00 1.250471e+00 1.282983e+00 2.268723e-04 1.737508e-02 5.470258e-02 7.792674e-02 1.958954e-01 2.135163e-01 1.408048e-01 2.258487e-01 2.542285e-01 3.165816e-01 3.961910e-01 2.149431e-01 2.561229e-01 4.755524e-05
<GCONST> 5.202333e+01
<TRANSP> 5
 0.000000e+00 1.000000e+00 0.000000e+00 0.000000e+00 0.000000e+00
 0.000000e+00 9.761916e-01 2.380840e-02 0.000000e+00 0.000000e+00
 0.000000e+00 0.000000e+00 9.748334e-01 2.516664e-02 0.000000e+00
 0.000000e+00 0.000000e+00 0.000000e+00 9.567478e-01 4.325221e-02
 0.000000e+00 0.000000e+00 0.000000e+00 0.000000e+00 0.000000e+00
<ENDHMM>
