~o
<STREAMINFO> 1 39
<VECSIZE> 39<NULLD><MFCC_E_D_A><DIAGC>
~h "seven"
<BEGINHMM>
<NUMSTATES> 5
<STATE> 2
<MEAN> 39
 -7.739351e+00 2.669973e+00 5.268139e+00 1.370133e+00 7.820195e+00 -5.962793e+00 -3.168103e+00 -7.300173e+00 -7.498610e-01 -8.931871e+00 -6.893638e+00 -3.494960e+00 2.625739e-01 -6.037957e-03 6.926639e-03 -5.202145e-02 -3.738289e-02 -1.412470e-01 2.749612e-02 -6.152010e-03 3.177462e-02 5.459385e-02 1.404007e-02 3.443957e-02 -3.187955e-02 4.987164e-04 -3.600632e-02 1.189046e-02 -4.314284e-02 4.398094e-04 -5.092597e-02 4.601999e-03 -7.770551e-03 1.341529e-02 -1.425413e-02 -1.497910e-02 1.172120e-02 -1.995668e-02 4.821629e-04
<VARIANCE> 39
 3.010274e+00 9.590602e+00 6.311193e+00 7.618436e+00 1.338209e+01 1.062264e+01 1.490267e+01 1.509478e+01 1.574065e+01 1.552074e+01 1.327454e+01 1.624214e+01 4.657555e-03 3.467116e-01 5.174021e-01 7.723455e-01 8.999285e-01 1.397095e+00 1.279262e+00 1.440113e+00 1.973493e+00 1.588793e+00 1.528612e+00 1.242496e+00 1.431371e+00 5.028885e-04 8.415644e-02 9.377922e-02 1.679757e-01 1.789959e-01 2.727009e-01 2.688768e-01 3.132342e-01 4.283844e-01 2.959233e-01 2.788922e-01 2.606413e-01 2.857116e-01 1.049732e-04
<GCONST> 6.097812e+01
<STATE> 3
<MEAN> 39
 -1.514066e+01 5.955703e+00 -2.652145e+00 3.014607e-01 -1.045894e+00 -5.005936e+00 -2.474703e+00 -6.850320e+00 2.240639e+00 -6.341697e+00 -2.513380e+00 -3.544629e+00 3.904218e-01 -4.571387e-02 1.535554e-01 -2.226928e-01 -2.857827e-02 -3.955315e-01 -1.584946e-01 -2.060527e-02 2.042789e-01 5.727671e-01 3.323370e-01 2.121940e-02 -1.188374e-01 1.497520e-02 2.965737e-01 -7.581513e-02 1.904847e-01 -5.356745e-02 1.190812e-01 2.513925e-03 -5.950717e-02 3.411744e-02 1.097989e-01 5.393611e-02 -1.179336e-01 -1.403475e-01 3.060602e-03
<VARIANCE> 39
 6.045755e+01 1.843067e+01 1.914874e+01 2.573010e+01 1.827281e+01 2.305079e+01 2.404400e+01 2.451969e+01 1.829685e+01 4.042772e+01 2.165480e+01 1.049352e+01 9.691241e-03 5.705759e+00 1.231649e+00 2.519912e+00 1.696067e+00 2.309391e+00 2.022845e+00 1.994952e+00 1.900884e+00 2.453947e+00 2.059041e+00 2.378898e+00 1.598464e+00 8.738115e-04 3.888411e-01 2.111990e-01 2.329042e-01 2.990693e-01 5.000963e-01 3.865022e-01 3.812568e-01 4.410543e-01 4.537572e-01 4.139424e-01 4.653689e-01 3.395995e-01 2.377945e-04
<GCONST> 8.644958e+01
<STATE> 4
<MEAN> 39
 -2.106438e+00 3.462155e+00 1.920937e+00 -3.795661e+00 -2.571449e+00 -7.702909e+00 -4.310529e+00 -1.760389e+00 7.998470e+00 -4.936562e+00 -5.699000e+00 -1.134880e+01 6.795397e-01 4.116514e-01 -2.973280e-02 2.980759e-01 -1.542818e-01 2.892522e-01 -1.067295e-02 -1.812149e-01 -8.189330e-02 -5.148738e-01 -7.533325e-02 9.183297e-02 8.204563e-02 4.674483e-03 -1.964958e-01 6.613117e-02 -6.087294e-02 3.805176e-02 4.509151e-02 -4.694797e-02 5.025766e-02 -6.660829e-02 -1.582193e-01 -9.943123e-02 6.745865e-02 2.033719e-01 -3.117631e-03
<VARIANCE> 39
 1.359594e+01 1.452980e+01 1.226281e+01 1.898282e+01 3.037337e+01 1.699661e+01 1.500684e+01 3.331081e+01 4.458693e+01 2.111956e+01 1.916928e+01 4.354939e+01 1.448529e-02 2.182045e+00 2.046640e+00 1.355762e+00 2.764450e+00 2.677923e+00 1.328736e+00 1.548637e+00 4.914671e+00 3.727902e+00 3.365053e+00 2.440305e+00 4.886787e+00 2.180404e-03 4.034091e-01 3.089500e-01 3.160055e-01 5.164888e-01 6.810644e-01 2.840141e-01 3.212934e-01 9.966679e-01 8.080314e-01 8.104787e-01 4.846723e-01 5.413671e-01 2.834866e-04
<GCONST> 9.260452e+01
<TRANSP> 5
 0.000000e+00 1.000000e+00 0.000000e+00 0.000000e+00 0.000000e+00
 0.000000e+00 9.754187e-01 2.458123e-02 0.000000e+00 0.000000e+00
 0.000000e+00 0.000000e+00 9.398783e-01 6.012172e-02 0.000000e+00
 0.000000e+00 0.000000e+00 0.000000e+00 9.390199e-01 6.098013e-02
 0.000000e+00 0.000000e+00 0.000000e+00 0.000000e+00 0.000000e+00
<ENDHMM>
