~o
<STREAMINFO> 1 39
<VECSIZE> 39<NULLD><MFCC_E_D_A><DIAGC>
~h "seven"
<BEGINHMM>
<NUMSTATES> 5
<STATE> 2
<MEAN> 39
 -2.773596e+01 4.284412e+00 -3.450228e+00 2.375426e-01 -5.884302e-02 2.766943e-02 2.534609e+00 4.240568e-01 1.683137e+00 -1.313118e-01 2.816317e+00 -7.903043e-01 4.546962e-01 -4.500395e-01 2.332921e-01 -1.264205e-01 5.243624e-02 -1.182616e-01 4.559899e-02 -2.812897e-02 1.368959e-02 -2.091887e-02 -7.142958e-03 -1.430923e-02 1.933431e-02 2.140489e-02 2.932978e-01 -1.301939e-01 1.079791e-01 -1.021316e-01 -7.719631e-02 -1.105080e-01 -4.853950e-02 -3.738715e-02 -3.362921e-02 -6.268474e-02 -6.764375e-02 1.897933e-02 -3.174746e-03
<VARIANCE> 39
 3.516724e+01 3.895554e+01 2.858382e+01 3.660714e+01 2.380763e+01 2.977283e+01 2.333304e+01 2.406713e+01 1.811550e+01 1.715675e+01 1.705184e+01 1.270544e+01 4.827172e-02 1.929030e+00 1.576877e+00 1.461455e+00 1.393007e+00 1.368798e+00 1.692635e+00 1.708047e+00 1.648366e+00 1.678454e+00 1.411341e+00 1.469405e+00 1.193710e+00 1.376441e-03 2.853113e-01 2.100246e-01 2.240777e-01 2.606452e-01 3.350699e-01 3.960383e-01 3.394392e-01 3.437421e-01 3.568409e-01 3.161668e-01 3.504252e-01 2.505782e-01 1.519915e-04
<GCONST> 8.213920e+01
<STATE> 3
<MEAN> 39
 -1.159488e+01 -5.143241e+00 4.619359e-01 -8.424257e+00 -6.265549e+00 -8.942555e+00 -3.851798e-01 -1.290210e+00 -1.641191e+00 -6.528852e+00 -7.226763e+00 -2.267286e+00 5.735409e-01 1.113397e+00 -7.278095e-01 1.154882e-01 -6.887318e-01 -5.353094e-01 -7.187285e-01 -1.949634e-01 -1.100331e-01 -2.036298e-01 -5.366066e-01 -7.438142e-01 -8.462625e-02 8.050264e-03 -1.687549e-01 9.112889e-03 -7.757610e-02 4.462513e-02 8.082093e-02 1.205867e-01 6.629197e-02 4.808688e-02 -1.296008e-02 2.473321e-02 3.024573e-02 -4.131286e-03 7.422256e-04
<VARIANCE> 39
 7.215586e+01 6.384489e+01 5.519603e+01 6.969542e+01 7.428113e+01 5.562216e+01 4.931728e+01 4.001220e+01 3.160923e+01 4.001741e+01 5.383564e+01 2.198936e+01 4.915745e-02 6.307574e+00 4.644619e+00 2.089265e+00 4.946192e+00 5.512779e+00 5.481082e+00 3.928388e+00 3.053567e+00 2.759605e+00 3.365254e+00 4.547653e+00 1.825277e+00 2.887342e-03 8.564157e-01 6.312261e-01 3.781616e-01 6.959258e-01 8.358375e-01 9.527237e-01 6.924169e-01 5.171370e-01 4.588843e-01 4.824879e-01 7.252548e-01 3.094592e-01 3.856291e-04
<GCONST> 1.115239e+02
<STATE> 4
<MEAN> 39
 -8.348980e+00 -2.935116e+00 5.231301e+00 -6.227193e+00 -4.804723e+00 -1.080710e+01 -1.705377e+00 -4.565030e+00 -4.483736e+00 -8.984049e+00 -8.438870e+00 -1.691980e+00 5.240444e-01 -1.179573e-01 2.568745e-01 2.174691e-01 3.734785e-01 3.290190e-01 2.426396e-01 1.568911e-02 -4.573203e-02 -2.748199e-02 1.232451e-01 1.919865e-01 5.578996e-02 -1.270372e-02 -1.686484e-02 1.802884e-02 -6.446550e-03 2.175136e-02 7.775499e-03 1.628315e-02 -9.329571e-03 1.851792e-02 3.908012e-02 4.093567e-02 3.421895e-02 1.625312e-03 -1.285961e-03
<VARIANCE> 39
 3.124680e+01 5.052045e+01 5.698389e+01 6.956222e+01 8.486282e+01 5.225735e+01 5.327166e+01 5.396994e+01 5.157941e+01 5.207329e+01 3.979800e+01 3.772387e+01 4.669073e-02 5.560555e-01 1.342969e+00 1.220195e+00 1.684522e+00 1.908485e+00 1.985099e+00 2.279106e+00 2.866025e+00 2.244619e+00 2.195553e+00 1.782770e+00 1.505459e+00 8.507871e-04 9.360434e-02 2.081860e-01 1.867763e-01 2.881382e-01 2.893372e-01 3.297472e-01 3.744012e-01 4.848934e-01 3.800259e-01 3.614027e-01 3.171829e-01 2.632214e-01 1.125494e-04
<GCONST> 9.050684e+01
<TRANSP> 5
 0.000000e+00 1.000000e+00 0.000000e+00 0.000000e+00 0.000000e+00
 0.000000e+00 9.397470e-01 6.025304e-02 0.000000e+00 0.000000e+00
 0.000000e+00 0.000000e+00 9.404982e-01 5.950176e-02 0.000000e+00
 0.000000e+00 0.000000e+00 0.000000e+00 9.701760e-01 2.982397e-02
 0.000000e+00 0.000000e+00 0.000000e+00 0.000000e+00 0.000000e+00
<ENDHMM>
