~o
<STREAMINFO> 1 39
<VECSIZE> 39<NULLD><MFCC_E_D_A><DIAGC>
~h "seven"
<BEGINHMM>
<NUMSTATES> 5
<STATE> 2
<MEAN> 39
 -1.576798e+01 4.752110e+00 1.954912e+00 -3.948123e+00 8.333990e+00 -6.278295e+00 -2.409032e+00 -8.079500e+00 -9.634959e-01 -8.154463e+00 -6.949434e+00 -6.392432e-02 4.263448e-01 -1.429628e-01 1.433212e-01 8.216292e-02 -8.078928e-02 -1.741423e-01 -6.029007e-01 8.817697e-02 5.579535e-01 1.441266e-01 1.620045e-01 3.787135e-01 -1.876847e-01 1.492147e-02 2.664733e-01 -1.838639e-01 6.225149e-02 2.914512e-03 -1.329805e-01 -5.295152e-02 -5.168872e-02 2.277833e-01 3.658542e-02 9.428786e-02 1.196442e-02 -1.329426e-01 3.628976e-03
<VARIANCE> 39
 4.671208e+01 2.562442e+01 8.037118e+00 1.254255e+01 2.284225e+01 2.579268e+01 1.502623e+01 2.205798e+01 1.807903e+01 1.617990e+01 2.270486e+01 1.173761e+01 8.448351e-03 4.960857e+00 2.473465e+00 8.701890e-01 1.134589e+00 2.961355e+00 1.476494e+00 1.516615e+00 2.765579e+00 2.395953e+00 1.900126e+00 1.643044e+00 1.383652e+00 5.803023e-04 4.256745e-01 2.394363e-01 1.120158e-01 2.012456e-01 3.604032e-01 2.733714e-01 3.058357e-01 4.786499e-01 4.938348e-01 3.365218e-01 3.218551e-01 2.739773e-01 1.149381e-04
<GCONST> 7.872977e+01
<STATE> 3
<MEAN> 39
 -1.694576e+00 -5.130595e+00 3.675080e+00 -5.637304e+00 -1.832955e+00 -9.145250e+00 -3.425961e+00 7.341220e+00 3.285440e+00 -2.402382e-01 -2.670358e+00 -1.094137e+01 6.552290e-01 5.045813e-01 -7.252336e-02 7.731799e-02 1.073034e-01 -1.655854e-01 9.104139e-02 -6.846654e-02 -2.593783e-01 -3.146046e-01 3.832999e-01 1.416530e-01 -2.342636e-01 7.786677e-04 -2.563641e-01 2.120548e-01 -1.181802e-02 7.004356e-02 1.417330e-01 3.402241e-02 2.598962e-02 -3.213404e-01 -1.319664e-01 -9.662422e-02 -3.170881e-02 1.959326e-01 -3.337278e-03
<VARIANCE> 39
 9.470199e+00 3.243500e+01 8.783731e+00 9.478168e+00 9.865226e+00 2.113697e+01 8.922878e+00 7.052018e+01 1.466513e+01 1.541776e+01 2.125150e+01 1.865585e+01 1.825007e-02 3.062183e+00 3.960134e+00 1.070144e+00 1.237330e+00 1.493265e+00 2.386765e+00 7.992889e-01 8.375430e+00 1.799043e+00 2.561499e+00 2.547213e+00 3.407660e+00 2.150945e-03 5.158854e-01 4.132858e-01 2.025397e-01 2.169501e-01 3.325810e-01 5.069547e-01 1.506343e-01 8.923563e-01 2.783994e-01 6.676115e-01 5.499402e-01 4.469532e-01 3.047299e-04
<GCONST> 8.486694e+01
<STATE> 4
<MEAN> 39
 -4.955698e+00 -4.843976e-01 5.918545e+00 -4.709810e-01 3.183348e+00 -3.735678e+00 -3.646408e+00 -7.208376e+00 -2.197284e+00 -3.135176e+00 -5.342463e+00 -2.167976e+00 4.584132e-01 -2.848055e-01 -6.098359e-02 -1.005986e-01 1.575259e-02 2.882101e-01 4.279723e-01 -5.099703e-02 -2.194199e-01 1.908559e-01 -4.289792e-01 -4.104363e-01 3.365008e-01 -1.292792e-02 1.738279e-03 -3.549718e-02 -4.295939e-02 -4.466029e-02 -1.853509e-02 2.671861e-02 8.962276e-03 6.357187e-02 3.902506e-02 -7.600097e-03 2.224404e-02 -2.242187e-02 -3.023705e-04
<VARIANCE> 39
 8.213778e+00 6.485801e+00 7.416706e+00 8.388821e+00 1.296141e+01 2.207232e+01 1.253786e+01 1.325649e+01 1.910989e+01 2.311111e+01 2.358305e+01 1.405718e+01 1.892838e-02 2.476699e-01 7.202243e-01 5.760546e-01 1.084178e+00 1.246977e+00 1.231357e+00 1.404647e+00 1.651771e+00 1.473623e+00 1.322260e+00 1.691108e+00 1.328113e+00 4.384014e-04 3.650568e-02 1.342628e-01 1.034064e-01 2.277004e-01 2.393995e-01 2.352491e-01 2.913715e-01 3.586596e-01 2.937066e-01 2.600090e-01 3.126011e-01 2.541016e-01 5.996937e-05
<GCONST> 6.227057e+01
<TRANSP> 5
 0.000000e+00 1.000000e+00 0.000000e+00 0.000000e+00 0.000000e+00
 0.000000e+00 9.489408e-01 5.105919e-02 0.000000e+00 0.000000e+00
 0.000000e+00 0.000000e+00 9.481235e-01 5.187656e-02 0.000000e+00
 0.000000e+00 0.000000e+00 0.000000e+00 9.578744e-01 4.212557e-02
 0.000000e+00 0.000000e+00 0.000000e+00 0.000000e+00 0.000000e+00
<ENDHMM>
