~o
<STREAMINFO> 1 39
<VECSIZE> 39<NULLD><MFCC_E_D_A><DIAGC>
~h "six"
<BEGINHMM>
<NUMSTATES> 5
<STATE> 2
<MEAN> 39
 -1.716786e+01 5.071982e+00 2.071936e+00 -2.778838e+00 7.635810e+00 -6.456424e+00 -1.593581e+00 -6.428623e+00 -1.409599e+00 -1.003178e+01 -4.730107e+00 -7.599320e-01 4.374928e-01 -1.679379e-01 1.228635e-01 1.530600e-01 -6.830890e-02 -2.172837e-01 -5.456867e-01 1.067756e-01 5.661170e-01 4.923644e-02 2.030219e-02 3.845111e-01 -1.502721e-01 1.218234e-02 2.768579e-01 -1.750943e-01 1.124480e-01 1.206095e-02 -1.870978e-01 -1.048665e-01 -5.149876e-02 1.638396e-01 1.397432e-02 8.705279e-02 4.273503e-02 -8.010565e-02 2.794670e-03
<VARIANCE> 39
 4.408028e+01 3.542437e+01 9.201184e+00 1.105795e+01 1.562943e+01 2.286317e+01 1.965596e+01 1.985010e+01 1.737577e+01 1.632077e+01 2.225264e+01 1.209389e+01 7.096588e-03 3.968526e+00 2.098099e+00 1.167432e+00 1.326232e+00 1.893154e+00 1.522178e+00 1.683189e+00 1.777479e+00 1.815312e+00 1.856940e+00 1.392375e+00 1.212836e+00 3.505163e-04 4.018101e-01 1.829867e-01 1.318944e-01 2.645413e-01 2.871628e-01 2.894534e-01 2.860583e-01 2.536426e-01 3.864777e-01 3.753212e-01 2.972885e-01 2.237020e-01 1.017641e-04
<GCONST> 7.537632e+01
<STATE> 3
<MEAN> 39
 -6.514647e+00 -4.598580e+00 7.731523e+00 -2.918433e+00 -4.525970e+00 -1.397768e+01 -2.520763e+00 3.736042e+00 -1.699594e+00 -3.446502e+00 -8.262426e-01 -1.704207e+00 5.340499e-01 -3.057011e-01 1.152684e-02 -1.216122e-01 8.421949e-02 2.377453e-01 3.022198e-02 1.020207e-01 -1.289786e-01 -1.896119e-02 -6.097689e-02 -6.391399e-02 1.773541e-01 -3.381524e-03 -3.056249e-01 2.263463e-01 -1.025265e-01 -2.080457e-02 2.075437e-01 1.491006e-01 9.066010e-02 -2.054404e-01 -3.148717e-02 -1.350634e-01 -6.426293e-02 7.977249e-02 -1.837465e-03
<VARIANCE> 39
 2.036107e+01 2.381657e+01 2.791109e+01 1.086675e+01 5.653949e+01 5.823941e+01 1.949882e+01 9.011273e+01 2.081095e+01 1.869350e+01 3.444517e+01 1.464463e+01 2.976424e-02 4.317168e+00 4.207189e+00 1.992264e+00 8.811495e-01 4.861310e+00 5.352680e+00 2.217265e+00 7.340869e+00 2.269574e+00 2.067738e+00 3.407832e+00 1.306873e+00 1.756394e-03 3.886401e-01 4.993128e-01 2.723477e-01 1.720750e-01 4.327786e-01 8.353983e-01 3.794176e-01 9.306407e-01 4.449169e-01 2.644948e-01 6.067536e-01 2.291777e-01 1.654761e-04
<GCONST> 9.444768e+01
<STATE> 4
<MEAN> 39
 -1.488188e+01 2.121706e+00 3.711763e+00 -3.689028e+00 7.579507e+00 -7.470194e+00 -1.959480e+00 -6.206129e+00 -2.010422e+00 -8.007050e+00 -5.988510e+00 3.274884e-01 4.163266e-01 5.302901e-01 -1.776665e-01 1.024179e-02 -4.227920e-02 -1.091525e-01 4.998442e-01 -1.800474e-01 -3.409133e-01 -4.383651e-02 8.810703e-02 -2.904246e-01 -2.800138e-02 -7.238786e-03 1.009924e-01 -1.103701e-01 1.410740e-03 1.832958e-02 -7.076018e-02 -4.461127e-02 -2.970738e-02 8.405355e-02 3.249781e-02 4.680483e-02 4.025361e-02 -1.831268e-02 -6.666140e-04
<VARIANCE> 39
 4.842784e+01 1.918573e+01 5.169556e+00 1.225346e+01 1.742476e+01 2.604427e+01 1.576943e+01 1.931654e+01 1.425987e+01 1.622456e+01 1.806137e+01 1.161548e+01 7.888747e-03 1.194842e+00 1.099013e+00 5.656435e-01 1.000885e+00 1.272961e+00 1.384842e+00 1.292958e+00 1.635255e+00 1.584359e+00 1.738034e+00 1.628137e+00 1.244981e+00 2.633491e-04 1.979631e-01 1.853720e-01 1.094395e-01 1.805732e-01 2.276244e-01 2.654996e-01 2.790300e-01 2.916311e-01 3.024063e-01 3.537931e-01 3.426608e-01 2.668232e-01 4.607340e-05
<GCONST> 6.778475e+01
<TRANSP> 5
 0.000000e+00 1.000000e+00 0.000000e+00 0.000000e+00 0.000000e+00
 0.000000e+00 9.486154e-01 5.138461e-02 0.000000e+00 0.000000e+00
 0.000000e+00 0.000000e+00 9.582241e-01 4.177596e-02 0.000000e+00
 0.000000e+00 0.000000e+00 0.000000e+00 9.583372e-01 4.166280e-02
 0.000000e+00 0.000000e+00 0.000000e+00 0.000000e+00 0.000000e+00
<ENDHMM>
