~o
<STREAMINFO> 1 39
<VECSIZE> 39<NULLD><MFCC_E_D_A><DIAGC>
~h "six"
<BEGINHMM>
<NUMSTATES> 5
<STATE> 2
<MEAN> 39
 -1.038177e+01 4.982980e+00 3.658840e+00 1.530797e+00 5.108160e+00 -5.268823e+00 -1.351815e+00 -5.067051e+00 8.934079e-01 -6.979027e+00 -4.751517e+00 -3.179245e+00 3.602932e-01 -2.832455e-01 4.032545e-02 -3.396142e-01 -2.574496e-02 -1.901585e-01 -4.965581e-02 1.185763e-01 1.817259e-01 1.246135e-01 -8.544208e-03 -1.376494e-04 3.216410e-02 1.350557e-04 1.334291e-02 -1.530638e-02 -8.336611e-03 1.662317e-03 -3.995433e-02 3.240900e-03 7.132866e-03 4.572405e-03 4.578813e-02 2.773450e-02 2.450584e-02 2.044114e-02 -4.656986e-05
<VARIANCE> 39
 3.192973e+01 2.110387e+01 2.041823e+01 1.207417e+01 2.505824e+01 1.403125e+01 1.425506e+01 2.292632e+01 2.723835e+01 2.881572e+01 1.872982e+01 1.325937e+01 1.711218e-02 1.276382e+00 9.851212e-01 1.077983e+00 8.018955e-01 1.616277e+00 1.298508e+00 1.493862e+00 2.078370e+00 2.650615e+00 2.679260e+00 1.773388e+00 1.296889e+00 4.758135e-04 2.180965e-01 1.784718e-01 2.122427e-01 1.650763e-01 2.757262e-01 2.844881e-01 3.108703e-01 4.043527e-01 5.872993e-01 5.619965e-01 3.980372e-01 2.548228e-01 7.810538e-05
<GCONST> 7.649123e+01
<STATE> 3
<MEAN> 39
 -5.847343e+00 4.722390e+00 5.674996e+00 8.055909e-01 -5.766549e+00 -1.264680e+01 -1.786317e+00 -1.483021e+00 4.514489e+00 -5.596128e+00 -9.695067e-01 -2.512510e+00 5.694910e-01 3.436049e-01 -1.815093e-01 2.210471e-01 1.123145e-01 2.321402e-01 -1.095951e-01 -8.930501e-02 -2.212687e-02 -3.864601e-03 -1.886635e-02 -1.822252e-01 -1.266437e-01 -9.247865e-03 -3.496753e-01 1.465918e-01 -1.730352e-01 8.205120e-02 1.253456e-01 3.633859e-02 6.369075e-03 -1.201200e-01 -1.397991e-02 -1.099199e-01 -3.491138e-02 -1.000201e-01 2.319169e-03
<VARIANCE> 39
 3.632177e+01 8.732224e+00 2.838072e+01 1.246141e+01 5.253762e+01 2.742557e+01 1.884243e+01 2.352403e+01 4.627169e+01 2.339520e+01 3.033191e+01 2.689132e+01 3.361822e-02 6.014916e+00 8.423383e-01 3.478190e+00 1.789754e+00 6.909002e+00 2.920647e+00 2.401654e+00 2.872143e+00 5.042873e+00 2.396404e+00 3.610185e+00 3.613624e+00 3.125107e-03 3.067214e-01 2.290708e-01 3.031257e-01 3.279582e-01 9.687185e-01 5.018424e-01 5.057404e-01 5.218588e-01 8.164124e-01 4.528585e-01 6.211747e-01 7.761391e-01 5.402315e-04
<GCONST> 9.838430e+01
<STATE> 4
<MEAN> 39
 -1.498579e+01 6.201180e+00 -1.661060e-01 6.176715e-01 -9.111377e-01 -9.145586e+00 -1.336179e+00 -4.155722e+00 2.845572e+00 -6.817091e+00 -1.744638e+00 -5.169967e+00 5.361172e-01 1.597963e-01 1.605212e-01 1.904561e-01 -1.007011e-01 -2.234536e-02 -2.313051e-01 -6.244555e-02 1.172281e-01 -1.081008e-01 -2.391321e-01 3.706565e-01 -1.252411e-01 1.166922e-02 1.374025e-01 -3.655289e-02 9.447709e-02 -3.805856e-02 2.064925e-02 -7.958576e-03 -1.045601e-03 2.146522e-02 -1.012376e-01 -5.670931e-03 -4.220361e-02 3.652876e-02 -1.313617e-03
<VARIANCE> 39
 9.852752e+01 2.536608e+01 3.481778e+01 2.602149e+01 4.891348e+01 2.336355e+01 2.130727e+01 2.555029e+01 2.813949e+01 2.702069e+01 3.448489e+01 1.599566e+01 4.155998e-02 6.869071e+00 2.573550e+00 2.395846e+00 2.252070e+00 2.835672e+00 1.549573e+00 2.679109e+00 2.639744e+00 2.944440e+00 2.376390e+00 1.995001e+00 1.693643e+00 1.933810e-03 6.338012e-01 3.109269e-01 3.807097e-01 3.835814e-01 5.977185e-01 2.813815e-01 5.767006e-01 4.697652e-01 5.841253e-01 4.821745e-01 3.856138e-01 2.997284e-01 3.478222e-04
<GCONST> 9.630054e+01
<TRANSP> 5
 0.000000e+00 1.000000e+00 0.000000e+00 0.000000e+00 0.000000e+00
 0.000000e+00 9.632185e-01 3.678150e-02 0.000000e+00 0.000000e+00
 0.000000e+00 0.000000e+00 8.781530e-01 1.218470e-01 0.000000e+00
 0.000000e+00 0.000000e+00 0.000000e+00 9.493638e-01 5.063629e-02
 0.000000e+00 0.000000e+00 0.000000e+00 0.000000e+00 0.000000e+00
<ENDHMM>
