~o
<STREAMINFO> 1 39
<VECSIZE> 39<NULLD><MFCC_E_D_A><DIAGC>
~h "six"
<BEGINHMM>
<NUMSTATES> 5
<STATE> 2
<MEAN> 39
 -2.726178e+01 4.818583e+00 -2.911404e+00 4.653281e-01 1.944757e-01 -1.954486e-01 3.084497e+00 4.925028e-02 1.727121e+00 -8.663507e-02 3.152819e+00 -9.007949e-01 4.815945e-01 -2.678226e-01 2.545015e-01 2.758322e-02 -2.376429e-02 -1.956504e-01 -9.241080e-02 -1.173935e-02 -1.302673e-01 -9.235699e-02 -1.449113e-02 -4.217963e-02 -3.324056e-02 2.052718e-02 3.039972e-01 -1.159740e-01 1.371209e-01 -1.147234e-01 -1.544161e-01 -1.443865e-01 -8.941276e-02 -7.858425e-02 -8.018120e-02 -3.493089e-02 -6.825554e-02 -3.619501e-03 -2.396047e-03
<VARIANCE> 39
 4.205467e+01 4.107304e+01 3.462129e+01 3.789999e+01 2.439990e+01 2.847091e+01 2.454347e+01 2.315952e+01 1.878882e+01 1.683683e+01 1.836657e+01 1.406417e+01 4.748892e-02 2.520999e+00 1.689574e+00 1.739805e+00 1.428571e+00 1.669343e+00 2.005892e+00 1.827510e+00 1.864589e+00 1.789479e+00 1.615408e+00 1.493893e+00 1.305723e+00 1.417811e-03 3.215724e-01 2.396234e-01 2.713877e-01 2.762229e-01 4.438993e-01 4.310433e-01 4.034032e-01 3.892952e-01 3.927686e-01 3.305783e-01 3.314940e-01 2.686096e-01 1.606727e-04
<GCONST> 8.557095e+01
<STATE> 3
<MEAN> 39
 -1.266875e+01 -2.672353e+00 8.615193e+00 -1.259903e+01 -1.476880e+01 -9.824182e+00 -5.072290e-01 -8.494600e+00 -3.599872e+00 -1.141725e-01 -4.302887e+00 -3.079620e+00 5.956982e-01 5.537791e-01 -3.246741e-01 3.294452e-01 -1.105290e-01 -1.176274e-01 2.329113e-02 -7.411463e-02 -1.284824e-01 5.086880e-02 1.532706e-01 -1.707749e-01 5.856193e-03 -2.257014e-02 -2.781882e-01 4.867036e-02 -2.477432e-01 2.180395e-01 3.575917e-01 2.670737e-01 1.138077e-01 2.554222e-01 1.533812e-01 4.319843e-02 1.623445e-01 6.340323e-02 -5.277995e-03
<VARIANCE> 39
 3.887764e+01 3.593042e+01 6.382977e+01 7.739661e+01 7.120963e+01 4.421494e+01 5.226263e+01 6.963713e+01 4.686544e+01 3.955471e+01 4.071247e+01 2.302728e+01 4.600742e-02 4.675920e+00 3.434384e+00 3.578989e+00 6.372979e+00 8.662995e+00 5.567608e+00 3.263284e+00 5.699268e+00 3.340171e+00 2.942174e+00 3.181035e+00 2.143034e+00 3.857908e-03 4.696471e-01 5.466101e-01 3.748997e-01 6.120866e-01 8.228434e-01 6.830804e-01 5.227554e-01 7.956684e-01 4.430405e-01 5.254592e-01 4.270816e-01 3.597393e-01 3.477405e-04
<GCONST> 1.107374e+02
<STATE> 4
<MEAN> 39
 -2.292155e+01 8.348614e-01 -1.097801e+00 -3.749824e-01 -1.665486e-01 -2.551889e+00 3.094734e+00 6.252006e-01 1.853961e+00 -7.344788e-01 3.159919e+00 4.899944e-02 3.575166e-01 4.692797e-03 -3.829702e-02 -1.223609e-01 4.630497e-02 1.842066e-01 3.249921e-02 3.823801e-02 1.292872e-01 1.894054e-02 -5.958335e-02 6.047294e-02 3.769247e-02 -2.232968e-03 2.925697e-02 -1.370383e-04 5.369193e-02 -3.881901e-02 -6.445647e-02 -2.385101e-02 -2.003066e-02 -6.269846e-02 -2.951175e-02 4.421520e-03 -3.998664e-02 -2.067840e-02 1.169724e-03
<VARIANCE> 39
 6.498637e+01 4.560642e+01 3.624232e+01 4.075657e+01 3.075846e+01 3.641914e+01 2.982036e+01 2.655169e+01 2.376094e+01 2.226633e+01 2.076624e+01 1.622514e+01 6.212109e-02 2.122226e+00 2.153391e+00 1.800647e+00 1.677347e+00 1.952260e+00 2.520978e+00 2.118154e+00 2.142497e+00 2.011381e+00 1.926891e+00 1.850735e+00 1.528677e+00 2.497554e-03 2.601012e-01 3.419054e-01 3.375878e-01 3.209505e-01 3.744642e-01 4.898869e-01 4.177364e-01 4.237691e-01 4.037457e-01 3.789079e-01 3.690964e-01 3.064882e-01 3.357584e-04
<GCONST> 9.198500e+01
<TRANSP> 5
 0.000000e+00 1.000000e+00 0.000000e+00 0.000000e+00 0.000000e+00
 0.000000e+00 9.479169e-01 5.208307e-02 0.000000e+00 0.000000e+00
 0.000000e+00 0.000000e+00 9.364588e-01 6.354119e-02 0.000000e+00
 0.000000e+00 0.000000e+00 0.000000e+00 9.742994e-01 2.570060e-02
 0.000000e+00 0.000000e+00 0.000000e+00 0.000000e+00 0.000000e+00
<ENDHMM>
