~o
<STREAMINFO> 1 39
<VECSIZE> 39<NULLD><MFCC_E_D_A><DIAGC>
~h "six"
<BEGINHMM>
<NUMSTATES> 5
<STATE> 2
<MEAN> 39
 -1.775749e+01 -8.240865e-01 -3.117771e+00 -5.354575e+00 -2.609509e+00 -4.620811e+00 4.096603e+00 6.880034e-01 -2.504984e+00 9.312967e-01 -7.121990e-01 -1.759413e-03 1.487908e-01 -2.945789e-01 1.955694e-01 -1.771865e-01 -1.326393e-01 -1.166916e-01 -1.254040e-01 1.242732e-01 3.570584e-03 -1.781719e-01 6.677852e-02 -1.052719e-01 -1.405833e-02 1.395876e-02 7.371547e-02 7.226932e-03 3.637530e-02 -6.689199e-03 -4.746576e-03 -2.831070e-02 -3.494069e-02 -7.303637e-03 5.112667e-03 -5.820693e-04 3.208247e-03 3.770897e-03 9.171086e-04
<VARIANCE> 39
 4.376086e+01 1.771792e+01 1.538437e+01 2.748163e+01 1.689740e+01 2.703940e+01 2.339937e+01 1.797910e+01 2.908709e+01 1.702361e+01 1.443299e+01 1.357349e+01 6.080721e-02 1.293475e+00 7.010916e-01 9.030886e-01 1.739522e+00 1.816660e+00 2.097711e+00 1.783060e+00 1.759408e+00 2.239028e+00 1.639740e+00 1.412673e+00 1.347305e+00 1.320977e-03 2.477109e-01 1.296901e-01 1.768902e-01 3.692477e-01 3.979033e-01 4.179797e-01 3.985174e-01 3.706868e-01 4.737379e-01 3.432049e-01 2.805892e-01 2.812336e-01 1.910637e-04
<GCONST> 8.058431e+01
<STATE> 3
<MEAN> 39
 -8.120285e+00 -3.244561e+00 5.277946e+00 -4.774336e+00 -1.007894e+01 -1.710945e+01 -1.666621e+00 5.369413e+00 -8.848406e+00 1.298253e-01 -2.509918e-02 1.096624e+00 5.039192e-01 8.496396e-02 -2.384938e-01 2.616036e-01 1.471670e-01 1.358876e-01 -2.559317e-01 -3.817816e-02 2.654507e-01 2.048191e-02 -3.264445e-02 1.648053e-01 4.671762e-02 -4.008892e-04 -1.955543e-01 3.431758e-02 -7.764983e-02 -7.831583e-03 7.665052e-02 7.383998e-02 4.639705e-02 7.758840e-03 3.244707e-02 2.146150e-02 -4.045516e-02 -1.039035e-02 -5.981373e-04
<VARIANCE> 39
 5.959484e+01 2.690422e+01 6.495305e+01 4.916751e+01 1.971632e+01 3.391679e+01 4.440140e+01 4.248544e+01 2.999167e+01 3.301118e+01 3.398615e+01 1.794111e+01 1.046434e-01 7.000562e+00 2.825177e+00 4.690743e+00 3.800813e+00 2.892999e+00 3.321205e+00 5.152867e+00 3.731576e+00 3.441254e+00 2.564753e+00 2.184699e+00 1.876833e+00 7.426315e-03 6.679748e-01 4.738505e-01 4.943918e-01 6.793868e-01 5.438150e-01 5.297476e-01 8.189978e-01 6.426023e-01 7.156187e-01 4.507707e-01 3.637742e-01 3.585300e-01 9.409414e-04
<GCONST> 1.077330e+02
<STATE> 4
<MEAN> 39
 -1.768444e+01 7.707223e-01 -3.201153e+00 -4.123663e+00 -2.751996e+00 -7.804748e+00 1.437992e+00 1.521151e+00 -4.125020e+00 8.197058e-01 -8.066381e-01 -1.250880e+00 2.133602e-01 1.985654e-01 3.279351e-02 -2.893536e-02 2.096462e-02 3.569181e-02 2.987103e-01 -9.994727e-02 -1.666086e-01 9.820473e-02 -3.350759e-02 -2.139421e-02 -4.544247e-02 -1.265230e-02 5.683986e-02 -2.180404e-02 1.889929e-02 1.838439e-02 -3.119353e-02 -4.296326e-03 4.568444e-03 9.410371e-03 -1.172543e-02 -9.928877e-03 3.966021e-02 2.432402e-02 -2.269558e-04
<VARIANCE> 39
 4.490217e+01 1.335684e+01 1.250954e+01 1.357858e+01 1.280336e+01 3.638840e+01 3.113919e+01 2.698979e+01 2.327269e+01 2.022110e+01 1.323132e+01 1.406214e+01 5.806231e-02 9.677117e-01 8.156150e-01 1.007238e+00 9.277597e-01 1.254050e+00 2.109024e+00 2.045309e+00 1.939057e+00 1.737514e+00 1.792587e+00 1.622538e+00 1.689044e+00 5.205807e-04 1.120912e-01 1.063437e-01 1.564095e-01 1.897394e-01 2.746677e-01 4.106950e-01 4.248548e-01 3.958966e-01 3.771016e-01 3.790704e-01 3.489977e-01 3.714320e-01 7.695642e-05
<GCONST> 7.587784e+01
<TRANSP> 5
 0.000000e+00 1.000000e+00 0.000000e+00 0.000000e+00 0.000000e+00
 0.000000e+00 9.752880e-01 2.471197e-02 0.000000e+00 0.000000e+00
 0.000000e+00 0.000000e+00 9.645661e-01 3.543390e-02 0.000000e+00
 0.000000e+00 0.000000e+00 0.000000e+00 9.786059e-01 2.139415e-02
 0.000000e+00 0.000000e+00 0.000000e+00 0.000000e+00 0.000000e+00
<ENDHMM>
