~o
<STREAMINFO> 1 39
<VECSIZE> 39<NULLD><MFCC_E_D_A><DIAGC>
~h "three"
<BEGINHMM>
<NUMSTATES> 5
<STATE> 2
<MEAN> 39
 -1.249669e+01 -5.776713e-01 4.310736e+00 -1.002424e-01 2.210767e+00 -3.395070e+00 -3.981647e+00 -4.399044e+00 -5.384994e-01 -8.732468e+00 -5.159510e+00 -1.619697e+00 3.997186e-01 2.076656e-01 -1.644499e-01 2.003381e-01 1.809471e-01 -2.654838e-01 -2.904997e-01 -2.585783e-01 2.818595e-01 2.256569e-01 3.060079e-01 3.193754e-01 -1.293049e-01 1.676974e-02 2.583302e-01 -3.058347e-02 -4.904250e-02 4.849923e-02 -2.945293e-02 -1.885128e-01 -9.989808e-02 -4.512131e-02 8.465544e-02 1.769213e-01 7.190745e-02 -6.934762e-03 5.047875e-03
<VARIANCE> 39
 1.755113e+01 1.334702e+01 1.341647e+01 1.242036e+01 1.133468e+01 1.355448e+01 1.347202e+01 2.593714e+01 1.653721e+01 1.873545e+01 1.945895e+01 1.554039e+01 7.244238e-03 3.006468e+00 1.353727e+00 1.391338e+00 1.553543e+00 9.484370e-01 2.248042e+00 1.865941e+00 2.759795e+00 1.851308e+00 2.619008e+00 2.063384e+00 1.358898e+00 9.520053e-04 4.028514e-01 2.195472e-01 3.005564e-01 3.054457e-01 1.819956e-01 5.449207e-01 3.607551e-01 6.217461e-01 3.712524e-01 4.031702e-01 4.368340e-01 2.660759e-01 1.377532e-04
<GCONST> 7.832317e+01
<STATE> 3
<MEAN> 39
 5.745637e-02 -6.195112e+00 1.302232e+01 6.775584e-01 -7.227420e+00 -1.641666e+01 -8.642333e+00 1.063471e+00 -7.960846e-01 1.973026e+00 1.182155e+00 -9.987961e-01 7.588607e-01 8.087125e-04 2.492982e-01 1.081592e+00 -4.747572e-01 -5.224183e-01 -2.066389e-01 -7.860696e-02 -8.621541e-02 -7.983998e-01 1.721253e-01 -2.505827e-02 4.627014e-01 4.888075e-03 -3.348261e-01 1.087812e-01 1.395111e-02 -7.812120e-02 1.576851e-01 3.834241e-01 3.020144e-02 -1.183265e-01 -5.488418e-02 -2.417988e-01 -1.999713e-01 1.069712e-02 -7.135199e-03
<VARIANCE> 39
 1.760742e+01 1.500677e+01 8.465124e+01 2.037760e+01 3.386290e+01 2.565202e+01 1.900912e+01 2.978142e+01 4.495696e+01 1.318635e+01 1.009496e+01 1.622986e+01 5.354791e-03 4.210967e+00 1.964630e+00 3.931947e+00 1.389464e+00 2.681001e+00 5.228199e+00 1.794426e+00 4.593230e+00 3.523192e+00 2.789384e+00 1.475987e+00 1.554669e+00 1.194809e-03 3.726917e-01 2.319457e-01 6.094894e-01 2.692663e-01 3.627249e-01 4.468560e-01 3.313763e-01 6.371006e-01 6.736202e-01 5.083563e-01 2.421782e-01 3.055477e-01 1.059746e-04
<GCONST> 8.855522e+01
<STATE> 4
<MEAN> 39
 -7.179471e+00 6.147694e-02 1.110591e+01 -2.821221e+00 1.544619e+00 -1.846409e+00 -7.415983e+00 -7.352528e+00 -2.582465e+00 -5.749218e+00 -7.526860e+00 5.426186e-01 4.781292e-01 -5.586940e-02 -3.055066e-02 -7.563959e-01 1.224545e-01 5.139538e-01 3.958959e-01 2.199920e-01 -9.718629e-02 3.919423e-01 -3.026140e-01 -3.261232e-01 -1.932263e-01 -1.395426e-02 2.384393e-02 -5.549313e-02 2.256947e-02 2.697290e-03 -7.302530e-02 -1.032847e-01 4.608262e-02 7.544626e-02 -6.999860e-03 4.588670e-02 7.157046e-02 -1.197544e-02 5.472560e-04
<VARIANCE> 39
 3.136297e+00 6.548025e+00 4.663120e+01 1.125812e+01 2.075104e+01 1.434189e+01 2.506280e+01 1.177243e+01 2.110784e+01 1.769723e+01 1.270191e+01 1.293822e+01 1.923355e-02 3.172525e-01 6.028014e-01 1.016585e+00 1.129286e+00 1.380879e+00 1.806485e+00 2.032584e+00 1.519529e+00 1.326260e+00 1.557600e+00 1.416447e+00 1.066649e+00 4.370653e-04 6.730802e-02 1.027584e-01 1.295947e-01 2.538878e-01 1.846711e-01 2.530679e-01 3.401758e-01 3.118727e-01 2.581180e-01 2.862902e-01 2.250665e-01 2.190922e-01 5.493609e-05
<GCONST> 6.422913e+01
<TRANSP> 5
 0.000000e+00 1.000000e+00 0.000000e+00 0.000000e+00 0.000000e+00
 0.000000e+00 9.381146e-01 6.188535e-02 0.000000e+00 0.000000e+00
 0.000000e+00 0.000000e+00 9.274122e-01 7.258782e-02 0.000000e+00
 0.000000e+00 0.000000e+00 0.000000e+00 9.558789e-01 4.412113e-02
 0.000000e+00 0.000000e+00 0.000000e+00 0.000000e+00 0.000000e+00
<ENDHMM>
