~o
<STREAMINFO> 1 39
<VECSIZE> 39<NULLD><MFCC_E_D_A><DIAGC>
~h "three"
<BEGINHMM>
<NUMSTATES> 5
<STATE> 2
<MEAN> 39
 -1.043443e+01 4.773046e+00 4.046311e+00 3.329007e-01 3.755950e+00 -7.162691e+00 -2.605327e+00 -6.997689e+00 -2.500565e-01 -8.369390e+00 -6.387488e+00 -2.728632e+00 3.137173e-01 -3.591269e-01 1.834524e-02 -1.318814e-01 -6.761680e-02 -1.206737e-01 7.313238e-02 5.661440e-02 1.462282e-02 1.014442e-01 8.809710e-02 5.529199e-02 4.205222e-02 5.093127e-03 6.022878e-02 -5.672945e-03 4.048693e-02 -1.864847e-03 -1.192613e-02 8.567884e-03 1.261052e-02 3.787303e-02 2.485039e-02 7.628964e-02 8.700101e-03 2.137404e-02 1.512337e-03
<VARIANCE> 39
 3.575520e+01 7.864110e+00 8.802375e+00 1.058354e+01 2.776586e+01 2.216740e+01 1.471758e+01 1.685909e+01 2.636407e+01 1.809994e+01 1.960902e+01 1.428299e+01 8.484104e-03 1.134301e+00 6.257483e-01 8.868307e-01 1.005882e+00 1.856309e+00 1.650868e+00 1.560555e+00 1.744305e+00 2.746715e+00 2.252373e+00 2.185776e+00 1.549780e+00 6.045416e-04 1.918571e-01 1.126544e-01 1.944403e-01 2.271126e-01 3.406542e-01 3.197314e-01 3.230748e-01 3.832671e-01 5.898345e-01 4.748360e-01 4.744522e-01 3.300831e-01 1.289438e-04
<GCONST> 7.477273e+01
<STATE> 3
<MEAN> 39
 -7.191678e+00 5.739510e+00 6.607821e+00 4.144735e+00 3.582638e+00 -4.889413e+00 -3.314540e+00 -1.772307e+00 3.468714e+00 -2.344748e+00 -2.097647e+00 -2.579176e-01 7.198304e-01 3.600857e+00 -1.486661e-01 5.374153e-01 6.428022e-01 5.768473e-01 -1.427910e+00 -2.798351e+00 2.859299e-01 5.649826e-01 -1.896151e-01 2.759671e-01 4.417970e-01 5.436281e-02 -4.158366e-02 -6.621297e-02 -2.568043e-01 -2.126282e-01 -5.212628e-02 -3.334095e-01 -4.794213e-01 -2.915688e-01 1.622418e-03 -5.397285e-01 -9.792498e-02 1.227017e-02 -7.195312e-03
<VARIANCE> 39
 1.047705e+02 5.532047e+00 3.406766e+01 2.510264e+01 1.364694e+01 6.475240e+01 1.083155e+02 2.633215e+01 2.470533e+01 2.183466e+01 1.874801e+01 1.320355e+01 3.335154e-02 2.866716e+00 8.282492e-01 7.143765e+00 4.160174e+00 1.703952e+00 8.547462e+00 1.588396e+01 5.588070e+00 1.735536e+00 5.772285e+00 2.993106e+00 1.521208e+00 3.189549e-03 1.250215e+00 1.474625e-01 1.491222e+00 9.084967e-01 5.033162e-01 1.476485e+00 3.020892e+00 1.078517e+00 3.885070e-01 7.288037e-01 6.225300e-01 2.835425e-01 6.397523e-04
<GCONST> 1.065721e+02
<STATE> 4
<MEAN> 39
 3.881511e-01 3.992327e+00 1.470673e+01 -4.070479e-01 -4.879369e+00 -1.065602e+01 -1.272737e+01 -4.459986e+00 -2.738149e+00 -1.152783e+01 1.104180e+00 -5.291469e-01 7.794626e-01 -6.293966e-01 7.251543e-02 9.105483e-01 -3.156566e-01 -9.106361e-01 4.974192e-01 9.843287e-01 -3.265731e-02 -8.059121e-01 -2.526004e-01 2.214801e-01 -1.894240e-01 -8.928438e-03 -1.556181e-01 5.994598e-02 3.165121e-02 6.116199e-02 1.345964e-01 2.103666e-01 3.170468e-01 3.503326e-02 -2.181972e-02 1.928516e-01 -8.294299e-03 -4.482254e-02 -1.622205e-03
<VARIANCE> 39
 3.595026e+01 1.006670e+01 7.219302e+01 1.598622e+01 6.601031e+01 5.615585e+01 5.065644e+01 3.260728e+01 3.725845e+01 2.960836e+01 2.437516e+01 1.514901e+01 2.239328e-02 6.530229e-01 9.577199e-01 3.816705e+00 1.967879e+00 5.130240e+00 2.523242e+00 2.879500e+00 4.012747e+00 2.550365e+00 3.951079e+00 2.700349e+00 1.225702e+00 3.663910e-04 1.603377e-01 1.766837e-01 5.717069e-01 4.101238e-01 6.900105e-01 4.476231e-01 1.106485e+00 9.142632e-01 4.690703e-01 5.120388e-01 4.896747e-01 2.671098e-01 3.414776e-05
<GCONST> 9.159285e+01
<TRANSP> 5
 0.000000e+00 1.000000e+00 0.000000e+00 0.000000e+00 0.000000e+00
 0.000000e+00 9.699172e-01 3.008274e-02 0.000000e+00 0.000000e+00
 0.000000e+00 0.000000e+00 8.646372e-01 1.353628e-01 0.000000e+00
 0.000000e+00 0.000000e+00 0.000000e+00 9.243972e-01 7.560287e-02
 0.000000e+00 0.000000e+00 0.000000e+00 0.000000e+00 0.000000e+00
<ENDHMM>
