~o
<STREAMINFO> 1 39
<VECSIZE> 39<NULLD><MFCC_E_D_A><DIAGC>
~h "three"
<BEGINHMM>
<NUMSTATES> 5
<STATE> 2
<MEAN> 39
 -2.196977e+01 -1.753001e+00 1.924862e+00 -3.560007e+00 1.677544e+00 -2.111213e+00 2.620167e+00 1.072954e+00 1.417747e+00 -5.959966e-01 2.300944e+00 3.026362e-01 3.650551e-01 9.507661e-02 -2.165233e-01 2.071005e-01 3.611908e-02 -3.077855e-01 -3.982440e-01 -3.066258e-01 -3.808847e-02 -1.006076e-01 -1.836623e-01 -2.179101e-01 -1.214752e-01 1.609496e-02 2.727575e-01 -3.511786e-02 2.455671e-02 2.395516e-03 -1.284638e-01 -1.591254e-01 -1.907021e-01 -1.012398e-01 -1.040798e-01 -6.575347e-02 -1.016177e-01 -7.894483e-02 -1.086147e-04
<VARIANCE> 39
 4.094653e+01 3.247511e+01 5.005278e+01 3.682728e+01 3.170056e+01 2.855890e+01 2.704223e+01 2.607238e+01 2.166981e+01 1.792761e+01 1.772675e+01 1.470809e+01 4.125019e-02 2.721385e+00 1.755577e+00 2.339487e+00 2.150412e+00 2.517656e+00 3.003565e+00 3.101924e+00 2.544586e+00 2.388944e+00 2.119126e+00 2.148444e+00 1.677596e+00 1.683173e-03 3.254767e-01 2.859420e-01 4.112805e-01 4.530730e-01 4.926049e-01 5.555961e-01 6.461769e-01 5.484095e-01 5.029830e-01 4.262793e-01 3.956450e-01 3.424335e-01 2.688031e-04
<GCONST> 9.373092e+01
<STATE> 3
<MEAN> 39
 -5.500406e+00 -8.698914e+00 7.363186e+00 -5.815656e+00 -1.303353e+01 -1.457268e+01 -9.713009e+00 -4.651851e+00 -7.469732e+00 -3.876039e+00 -4.239456e+00 -4.757059e+00 6.089170e-01 4.888428e-01 -1.206825e-01 9.242802e-01 -1.034722e+00 -1.115843e+00 -1.455884e-01 -4.419156e-01 -6.406272e-01 -9.546289e-01 3.733114e-01 -3.771925e-01 -2.232866e-01 1.684855e-02 -3.601629e-01 1.679932e-01 7.614172e-02 -1.187088e-01 2.407095e-01 3.225086e-01 2.210093e-01 2.538505e-02 1.800864e-01 1.653242e-01 3.667315e-02 1.443825e-01 -2.682923e-03
<VARIANCE> 39
 3.894647e+01 4.637055e+01 6.288378e+01 6.101084e+01 8.535499e+01 4.154330e+01 4.309146e+01 5.577804e+01 4.747738e+01 3.410785e+01 2.838837e+01 2.550636e+01 2.760173e-02 4.845694e+00 2.767584e+00 3.981392e+00 3.212514e+00 4.075036e+00 4.890324e+00 5.474293e+00 4.737741e+00 3.356016e+00 3.507503e+00 2.759628e+00 2.647570e+00 1.067546e-03 4.256542e-01 3.674838e-01 6.368585e-01 4.803840e-01 6.338916e-01 6.406695e-01 7.816538e-01 8.297870e-01 6.365535e-01 6.254278e-01 5.455412e-01 4.425011e-01 1.597583e-04
<GCONST> 1.073182e+02
<STATE> 4
<MEAN> 39
 -1.327508e+01 1.866031e+00 1.603461e+01 -1.424776e+01 -7.383390e+00 -3.123107e+00 -9.330395e+00 -9.889474e+00 -5.558508e+00 -9.787104e-01 -7.169266e+00 -2.035625e+00 4.882097e-01 -1.612923e-01 1.691464e-01 -3.417353e-01 3.443072e-01 5.692307e-01 3.624329e-01 2.595865e-01 1.791865e-01 4.128410e-01 -5.807899e-02 1.914129e-01 1.170928e-01 -1.648078e-02 3.379909e-02 -7.064644e-02 -6.933993e-02 6.911765e-02 -1.194081e-02 -4.408635e-02 3.136078e-02 7.602532e-02 -1.075331e-02 -2.389567e-02 6.056810e-02 -4.115179e-03 -7.649139e-04
<VARIANCE> 39
 2.912357e+01 3.812263e+01 5.148822e+01 8.587017e+01 8.639368e+01 5.338205e+01 7.497987e+01 5.523286e+01 6.415412e+01 3.433216e+01 4.790305e+01 4.158212e+01 5.623967e-02 5.026687e-01 1.353816e+00 1.158967e+00 1.772053e+00 1.742113e+00 1.930647e+00 2.410291e+00 2.206670e+00 1.830829e+00 1.851615e+00 2.019614e+00 1.621094e+00 6.641944e-04 7.207562e-02 1.265256e-01 1.737978e-01 2.660158e-01 2.736271e-01 3.315507e-01 3.298562e-01 3.202902e-01 3.203311e-01 3.352148e-01 3.174445e-01 2.790935e-01 7.959436e-05
<GCONST> 8.806123e+01
<TRANSP> 5
 0.000000e+00 1.000000e+00 0.000000e+00 0.000000e+00 0.000000e+00
 0.000000e+00 9.408935e-01 5.910651e-02 0.000000e+00 0.000000e+00
 0.000000e+00 0.000000e+00 9.210114e-01 7.898859e-02 0.000000e+00
 0.000000e+00 0.000000e+00 0.000000e+00 9.680532e-01 3.194683e-02
 0.000000e+00 0.000000e+00 0.000000e+00 0.000000e+00 0.000000e+00
<ENDHMM>
