~o
<STREAMINFO> 1 39
<VECSIZE> 39<NULLD><MFCC_E_D_A><DIAGC>
~h "three"
<BEGINHMM>
<NUMSTATES> 5
<STATE> 2
<MEAN> 39
 -1.489757e+01 -2.885350e+00 -2.474811e+00 -3.787858e+00 -4.347719e+00 -6.147614e+00 4.120998e+00 -1.827421e+00 1.889904e-01 -1.962742e+00 3.971947e-01 -1.241780e+00 1.644726e-01 1.752078e-01 -5.551955e-02 5.581407e-02 1.543881e-01 -1.926767e-01 -2.484364e-01 2.907845e-02 -5.861679e-02 -7.714653e-02 -4.074204e-02 1.732514e-02 -1.852170e-01 2.390984e-02 1.621360e-01 3.730170e-02 4.333057e-02 5.190177e-02 -4.807151e-04 -1.182702e-02 -6.544241e-02 -3.743572e-02 -1.825753e-02 -6.725170e-03 4.606087e-03 2.932923e-02 3.232585e-03
<VARIANCE> 39
 1.410924e+01 9.887218e+00 1.231689e+01 2.024645e+01 2.901452e+01 3.383203e+01 3.415126e+01 1.764379e+01 1.480774e+01 1.891130e+01 1.551750e+01 1.411318e+01 6.000173e-02 2.317452e+00 1.165085e+00 1.329937e+00 2.257257e+00 2.021903e+00 2.588545e+00 2.694038e+00 1.683537e+00 1.862582e+00 2.112422e+00 1.605406e+00 1.251056e+00 1.565805e-03 3.716961e-01 2.430789e-01 2.373687e-01 3.960710e-01 3.752118e-01 5.206469e-01 4.747072e-01 3.143728e-01 3.851502e-01 4.082449e-01 3.275996e-01 2.859485e-01 2.726353e-04
<GCONST> 8.377382e+01
<STATE> 3
<MEAN> 39
 3.540985e+00 -6.304488e+00 1.379136e+01 -8.996961e-02 -1.352209e+01 -1.337464e+01 -8.417212e+00 6.334686e+00 -8.780643e+00 -4.151451e+00 -3.186664e+00 -5.703215e-02 7.826120e-01 1.786090e-01 3.155747e-01 7.463846e-01 -1.114206e-01 -1.546851e-01 1.046257e-01 -7.900187e-02 1.823165e-01 -3.817234e-01 -9.716108e-02 -2.331952e-01 1.300110e-01 -9.078788e-03 -2.841540e-01 -5.877116e-02 -1.153116e-01 -3.531783e-02 5.457631e-02 9.623888e-02 1.264392e-01 -1.303111e-02 8.951129e-02 1.171337e-02 2.082406e-02 -4.073215e-02 -7.047123e-03
<VARIANCE> 39
 2.761415e+01 5.080533e+01 9.808227e+01 2.530978e+01 2.722867e+01 3.400709e+01 4.685305e+01 6.420646e+01 4.688877e+01 1.902014e+01 1.730914e+01 2.397012e+01 1.459534e-02 5.058887e+00 2.961941e+00 2.019351e+00 1.078949e+00 2.058745e+00 2.285762e+00 4.415105e+00 3.699438e+00 1.623392e+00 1.281718e+00 1.277912e+00 1.501699e+00 1.591333e-03 4.005971e-01 4.281061e-01 1.783510e-01 1.897672e-01 3.380962e-01 2.975319e-01 4.197720e-01 4.416704e-01 2.485668e-01 2.072249e-01 2.353818e-01 2.288948e-01 1.061415e-04
<GCONST> 8.877507e+01
<STATE> 4
<MEAN> 39
 -1.043996e+01 -1.309814e+00 4.158238e+00 -1.390696e+00 -4.293888e+00 -4.299417e+00 2.124930e-01 -6.974412e-01 -5.072290e+00 -4.818124e+00 -2.885429e+00 -5.719951e-01 9.137464e-02 -3.607285e-01 -1.909587e-01 -7.083768e-01 -4.998580e-02 3.763630e-01 1.134803e-01 4.916277e-03 -1.129450e-01 3.566228e-01 6.866993e-02 1.946451e-01 7.245132e-02 -1.982769e-02 5.200598e-02 1.580769e-02 5.220199e-02 -1.858061e-02 -6.155120e-02 -8.108329e-02 -1.297660e-02 9.185826e-02 -6.126503e-02 -1.468719e-02 -2.213508e-02 1.113162e-02 3.146876e-03
<VARIANCE> 39
 1.049638e+01 1.047405e+01 4.565571e+01 1.239994e+01 1.760330e+01 3.540199e+01 1.935081e+01 2.127218e+01 2.628865e+01 2.879352e+01 2.523590e+01 1.850576e+01 2.921701e-02 8.596396e-01 7.816963e-01 1.486769e+00 1.238793e+00 1.402389e+00 2.638233e+00 1.704037e+00 2.251283e+00 2.275013e+00 1.692170e+00 1.527209e+00 1.557679e+00 1.977685e-03 1.201033e-01 9.701185e-02 1.709008e-01 2.373081e-01 2.177043e-01 4.164738e-01 3.362862e-01 4.073630e-01 4.392326e-01 2.909435e-01 2.997161e-01 2.669905e-01 2.575702e-04
<GCONST> 7.837556e+01
<TRANSP> 5
 0.000000e+00 1.000000e+00 0.000000e+00 0.000000e+00 0.000000e+00
 0.000000e+00 9.674975e-01 3.250253e-02 0.000000e+00 0.000000e+00
 0.000000e+00 0.000000e+00 9.553114e-01 4.468856e-02 0.000000e+00
 0.000000e+00 0.000000e+00 0.000000e+00 9.578300e-01 4.217010e-02
 0.000000e+00 0.000000e+00 0.000000e+00 0.000000e+00 0.000000e+00
<ENDHMM>
