~o
<STREAMINFO> 1 39
<VECSIZE> 39<NULLD><MFCC_E_D_A><DIAGC>
~h "two"
<BEGINHMM>
<NUMSTATES> 5
<STATE> 2
<MEAN> 39
 -8.207418e+00 2.374194e+00 4.403620e+00 -1.313092e+00 5.556356e+00 -5.997339e+00 -1.714139e+00 -6.529550e+00 -5.403007e-01 -8.007640e+00 -7.233638e+00 -4.099666e+00 2.672097e-01 -5.448201e-02 3.998117e-02 6.596196e-02 -3.348383e-02 1.330901e-01 1.138040e-01 -3.760745e-02 -4.515946e-02 -9.285276e-02 -3.304252e-02 -1.090968e-02 1.553376e-02 2.444580e-04 -7.431167e-02 6.136721e-03 3.085889e-02 -3.424674e-02 -1.763286e-02 1.517510e-02 -1.098124e-02 5.183641e-02 -1.570912e-02 2.789978e-02 3.394537e-02 1.525481e-02 1.298868e-03
<VARIANCE> 39
 6.680795e+00 1.890327e+01 9.168491e+00 1.310470e+01 2.162222e+01 2.195148e+01 1.772385e+01 2.166818e+01 2.451205e+01 1.598217e+01 1.417633e+01 1.203822e+01 3.312058e-03 3.682095e-01 8.508974e-01 8.766286e-01 9.607563e-01 1.205706e+00 1.119474e+00 2.013184e+00 1.698976e+00 1.579439e+00 2.015944e+00 1.320845e+00 1.114074e+00 2.888322e-04 1.186727e-01 1.414682e-01 1.795713e-01 1.851825e-01 2.518541e-01 2.355883e-01 3.785146e-01 3.883243e-01 3.071651e-01 4.786044e-01 2.948136e-01 2.438018e-01 7.749343e-05
<GCONST> 6.616211e+01
<STATE> 3
<MEAN> 39
 -1.374210e+01 4.980513e+00 1.233371e+01 -1.466750e+00 4.739452e-02 -2.275644e+00 1.456855e+00 2.224230e-01 -8.368325e-01 -2.569111e+00 -4.401637e-01 9.529473e-01 6.164454e-01 5.266649e-01 2.466797e-01 9.828514e-01 8.531807e-01 -1.652311e+00 2.408957e-02 -3.309255e-02 7.507111e-01 -9.205151e-02 2.254863e-01 1.092813e+00 4.820870e-01 5.349485e-02 3.920939e-01 -3.419605e-02 -1.535311e-01 8.696625e-02 -1.935286e-01 -2.199320e-01 -2.659225e-01 -2.797187e-01 -1.885001e-01 -2.526698e-01 -6.888186e-02 -9.813220e-02 -2.775496e-03
<VARIANCE> 39
 3.589507e+01 1.259264e+01 2.773724e+01 4.515773e+01 3.226988e+01 2.283167e+01 4.020184e+01 2.564424e+01 1.602921e+01 2.691581e+01 2.421476e+01 1.778432e+01 4.169900e-02 7.866898e+00 1.473923e+00 1.874653e+00 5.231318e+00 3.279257e+00 3.235216e+00 7.690115e+00 3.571813e+00 2.114259e+00 4.483984e+00 2.567991e+00 2.714992e+00 1.638855e-03 8.219806e-01 2.953953e-01 3.956806e-01 1.057681e+00 6.770969e-01 6.940313e-01 1.319198e+00 5.885226e-01 4.356323e-01 6.861743e-01 5.245273e-01 5.688600e-01 3.540181e-04
<GCONST> 1.019473e+02
<STATE> 4
<MEAN> 39
 -6.362715e-01 5.543404e+00 1.081773e+01 4.751578e+00 -4.608448e+00 -6.132341e+00 -1.024629e+01 -4.603475e+00 -5.354578e+00 -8.474083e+00 -6.861839e-02 -1.483759e+00 7.779464e-01 1.595529e-01 -9.127650e-02 -8.057747e-01 -3.426746e-01 9.381427e-01 -6.274582e-02 -2.258428e-01 -4.910673e-01 -8.413397e-02 -1.349486e-01 -3.678862e-01 -6.975885e-02 -1.358895e-02 -1.604109e-01 3.190636e-03 -3.338738e-03 2.013721e-02 2.335564e-01 1.156410e-01 2.230458e-01 7.325657e-02 1.684518e-01 8.689831e-02 -5.216145e-02 5.838179e-02 -2.947833e-03
<VARIANCE> 39
 7.094424e+00 8.805936e+00 2.877635e+01 2.282560e+01 1.067107e+02 2.240679e+01 3.252253e+01 2.236497e+01 4.444018e+01 2.222392e+01 2.285255e+01 9.170148e+00 2.742589e-02 7.115353e-01 8.630667e-01 1.285647e+00 1.619441e+00 3.725500e+00 2.136993e+00 3.796989e+00 2.381629e+00 3.249777e+00 2.054679e+00 9.599313e-01 1.247990e+00 7.217466e-04 9.355868e-02 1.892662e-01 2.444857e-01 3.343828e-01 6.630343e-01 3.627536e-01 4.862653e-01 4.380785e-01 3.683344e-01 2.923869e-01 1.729660e-01 2.757429e-01 7.652803e-05
<GCONST> 8.042182e+01
<TRANSP> 5
 0.000000e+00 1.000000e+00 0.000000e+00 0.000000e+00 0.000000e+00
 0.000000e+00 9.641981e-01 3.580188e-02 0.000000e+00 0.000000e+00
 0.000000e+00 0.000000e+00 9.053718e-01 9.462818e-02 0.000000e+00
 0.000000e+00 0.000000e+00 0.000000e+00 9.330189e-01 6.698108e-02
 0.000000e+00 0.000000e+00 0.000000e+00 0.000000e+00 0.000000e+00
<ENDHMM>
