~o
<STREAMINFO> 1 39
<VECSIZE> 39<NULLD><MFCC_E_D_A><DIAGC>
~h "two"
<BEGINHMM>
<NUMSTATES> 5
<STATE> 2
<MEAN> 39
 -2.077131e+01 -1.804186e+00 6.838650e+00 -9.693539e+00 -3.235312e+00 -7.194391e+00 1.006783e-02 -1.651689e+00 -5.370293e+00 5.498553e-01 9.104473e-01 -1.380771e+00 5.739182e-01 6.391641e-01 -1.439285e-01 6.470504e-01 -1.811442e-01 -1.208470e+00 -1.023258e+00 -5.419871e-01 -4.311011e-01 -9.418155e-01 -4.861862e-02 -4.425378e-01 -8.106013e-02 2.464953e-02 1.694047e-01 -9.305205e-02 -1.086449e-02 9.427381e-02 -3.745544e-02 1.426118e-02 -3.692492e-02 2.442607e-02 2.459510e-02 -2.210110e-03 -4.362555e-02 2.147144e-02 -6.469345e-03
<VARIANCE> 39
 7.759512e+01 3.565287e+01 5.191895e+01 5.052961e+01 9.557998e+01 5.822794e+01 5.473507e+01 4.938449e+01 5.679636e+01 2.687521e+01 2.904006e+01 2.001570e+01 5.215174e-02 5.363401e+00 3.232948e+00 1.829770e+00 2.401180e+00 3.584968e+00 3.195813e+00 4.993336e+00 3.455575e+00 3.573993e+00 2.622277e+00 2.644125e+00 1.730773e+00 5.347106e-03 6.936124e-01 5.690224e-01 3.195464e-01 4.723555e-01 6.439766e-01 5.861396e-01 8.381079e-01 6.459473e-01 7.013792e-01 5.256976e-01 5.061017e-01 3.301099e-01 8.996461e-04
<GCONST> 1.086817e+02
<STATE> 3
<MEAN> 39
 -8.031065e+00 -3.760675e+00 1.154160e+01 -9.744584e+00 -1.083299e+01 -1.652721e+01 -1.118564e+01 -5.442247e+00 -1.292234e+01 -1.023694e-01 -5.870128e+00 -2.415228e+00 6.102875e-01 1.629980e-01 2.609503e-01 -2.665430e-01 1.515384e-01 4.281450e-01 1.447144e-01 -1.199980e-01 -7.432638e-02 1.500200e-01 -6.245803e-02 -1.178199e-01 -4.133085e-02 -7.957012e-03 -1.823039e-02 4.448041e-02 -2.743535e-02 3.938189e-02 4.919094e-02 5.270954e-02 3.802798e-02 -2.864538e-02 2.603642e-02 -4.555852e-02 1.823204e-04 -1.062236e-02 -1.415988e-03
<VARIANCE> 39
 2.864792e+01 3.828294e+01 6.555370e+01 6.000759e+01 7.183111e+01 5.536933e+01 7.149396e+01 4.410408e+01 5.581072e+01 3.070707e+01 3.753257e+01 4.020065e+01 2.551422e-02 1.350574e-01 3.179282e-01 4.419667e-01 5.275463e-01 7.080377e-01 8.329434e-01 9.882566e-01 1.125260e+00 1.065410e+00 1.120531e+00 1.057198e+00 8.911092e-01 6.971169e-05 2.155258e-02 4.905538e-02 5.692722e-02 8.503418e-02 1.186398e-01 1.294044e-01 1.492755e-01 1.662504e-01 1.648937e-01 1.712895e-01 1.567660e-01 1.373506e-01 1.130443e-05
<GCONST> 6.106582e+01
<STATE> 4
<MEAN> 39
 -8.164585e+00 -1.238029e-01 4.140510e+00 -4.003173e+00 -6.642346e-01 -7.566459e+00 -5.872133e+00 -5.602664e+00 -7.630079e+00 -2.434473e+00 -4.911049e+00 -3.213408e+00 3.471508e-01 -4.714036e-01 -1.444607e-01 -2.635761e-01 4.218361e-01 8.315699e-01 9.405735e-01 8.990843e-01 4.354806e-01 7.108905e-01 -4.581756e-02 4.197134e-01 1.622893e-01 -2.706165e-02 -3.117051e-02 -6.607174e-02 1.397092e-02 -3.788928e-02 -1.024357e-02 2.244697e-02 5.725407e-02 7.700530e-02 4.543784e-02 8.788896e-02 8.317816e-02 3.906139e-02 -5.751528e-04
<VARIANCE> 39
 4.128814e+01 2.543365e+01 5.454570e+01 4.469570e+01 7.461478e+01 6.674496e+01 7.337963e+01 5.117770e+01 6.501201e+01 3.708957e+01 4.447593e+01 4.281300e+01 5.404927e-02 1.088880e+00 1.318678e+00 1.357362e+00 1.865858e+00 2.497197e+00 2.472560e+00 3.120968e+00 2.797141e+00 2.952425e+00 2.911478e+00 2.706810e+00 2.515431e+00 1.377376e-03 1.509286e-01 1.867482e-01 2.123460e-01 3.331979e-01 3.920425e-01 4.123721e-01 5.155296e-01 4.890293e-01 5.036713e-01 5.215735e-01 4.829126e-01 4.267873e-01 1.852031e-04
<GCONST> 9.743113e+01
<TRANSP> 5
 0.000000e+00 1.000000e+00 0.000000e+00 0.000000e+00 0.000000e+00
 0.000000e+00 9.353565e-01 6.464353e-02 0.000000e+00 0.000000e+00
 0.000000e+00 0.000000e+00 9.513478e-01 4.865216e-02 0.000000e+00
 0.000000e+00 0.000000e+00 0.000000e+00 9.142103e-01 8.578972e-02
 0.000000e+00 0.000000e+00 0.000000e+00 0.000000e+00 0.000000e+00
<ENDHMM>
