~o
<STREAMINFO> 1 39
<VECSIZE> 39<NULLD><MFCC_E_D_A><DIAGC>
~h "two"
<BEGINHMM>
<NUMSTATES> 5
<STATE> 2
<MEAN> 39
 -1.392310e+01 -2.045443e+00 7.599720e+00 -2.245149e+00 -3.255238e-01 -4.942631e+00 -6.901314e+00 -2.080848e-01 -3.638164e-01 -8.514825e+00 -3.080058e+00 -5.164120e-02 5.143180e-01 2.672962e-01 -1.805789e-01 8.137231e-01 1.268429e-01 -7.145872e-01 -7.224203e-01 -4.097774e-01 7.032243e-01 -9.637956e-02 2.727481e-01 5.038936e-01 4.589210e-02 2.641027e-02 9.899354e-02 -1.788254e-03 5.661293e-02 5.432073e-02 -4.926386e-02 -4.605420e-02 -2.244427e-02 -1.952526e-02 -4.976808e-02 1.481952e-02 9.701292e-03 2.012579e-02 1.681319e-03
<VARIANCE> 39
 6.695892e+01 1.139417e+01 2.588083e+01 1.033730e+01 2.920131e+01 2.940125e+01 1.410966e+01 4.412056e+01 1.834351e+01 2.993756e+01 2.819114e+01 9.496099e+00 2.336423e-02 8.593874e+00 1.522676e+00 1.545006e+00 1.387570e+00 2.165463e+00 2.029755e+00 1.487155e+00 2.301480e+00 2.077376e+00 3.679576e+00 2.806048e+00 1.091471e+00 2.028386e-03 1.098377e+00 3.238377e-01 2.452455e-01 2.586472e-01 4.274797e-01 3.486721e-01 2.860942e-01 4.175338e-01 4.333712e-01 6.384757e-01 6.021435e-01 2.344745e-01 4.662959e-04
<GCONST> 8.949922e+01
<STATE> 3
<MEAN> 39
 -1.867571e+00 -3.313932e-01 1.466232e+01 2.365475e+00 -4.136658e+00 -1.230404e+01 -1.209095e+01 -2.920423e+00 -3.675786e+00 -2.332797e+00 -2.656237e+00 1.012728e+00 7.161353e-01 2.992440e-02 5.654193e-01 -7.228068e-01 -5.307599e-02 8.960067e-01 5.947211e-01 2.075454e-01 -9.889412e-01 -1.386425e-01 -2.391035e-01 -5.990887e-01 -8.445642e-03 -1.306453e-02 -1.563648e-01 -4.627846e-02 -1.518402e-01 -8.317989e-02 1.414591e-01 1.482611e-01 1.656422e-01 4.812316e-02 5.348566e-02 -7.644331e-02 -3.756598e-02 -1.175905e-02 -4.189626e-03
<VARIANCE> 39
 1.487465e+00 1.716160e+01 2.029275e+01 7.150960e+00 3.427485e+01 2.063037e+01 1.223466e+01 4.456110e+01 9.495522e+00 1.093453e+01 1.660145e+01 1.116863e+01 5.316453e-03 1.669058e-01 7.098059e-01 9.344899e-01 7.167167e-01 1.449564e+00 1.152279e+00 1.079095e+00 1.352037e+00 1.016395e+00 1.543614e+00 1.017345e+00 8.293450e-01 1.348906e-04 1.022325e-01 1.588914e-01 1.821835e-01 1.249479e-01 2.557476e-01 2.476733e-01 1.791706e-01 2.369544e-01 1.759197e-01 3.699729e-01 2.250962e-01 1.467343e-01 9.164139e-05
<GCONST> 5.785022e+01
<STATE> 4
<MEAN> 39
 -5.736083e+00 -1.644274e+00 3.681342e+00 -1.745731e+00 4.195771e+00 -2.570055e+00 -4.736514e+00 -7.806291e+00 -1.137974e+00 -5.888484e+00 -7.830232e+00 -5.608932e-01 4.133590e-01 -2.293109e-01 -2.279502e-01 -2.167465e-01 -7.892289e-02 4.754009e-02 2.039314e-01 2.202071e-01 4.755229e-02 1.675097e-01 -6.603081e-02 -4.248529e-02 -8.402316e-02 -1.323204e-02 2.674446e-02 3.458219e-02 5.845271e-02 3.969046e-02 -3.459458e-02 -4.296881e-02 -6.354774e-02 -2.305617e-02 -2.373774e-02 1.878228e-02 9.632296e-03 -2.221032e-02 1.470697e-03
<VARIANCE> 39
 6.052455e+00 1.041604e+01 6.323101e+00 7.104439e+00 7.521597e+00 1.002324e+01 1.440881e+01 1.437746e+01 1.614995e+01 1.318068e+01 1.769104e+01 1.141326e+01 1.085650e-02 4.175267e-01 6.901592e-01 7.135001e-01 6.156295e-01 7.356305e-01 1.003580e+00 1.510164e+00 1.472396e+00 1.453729e+00 1.515919e+00 1.731305e+00 1.242039e+00 4.586188e-04 5.845838e-02 1.036059e-01 1.114840e-01 1.087073e-01 1.495465e-01 1.882364e-01 2.887353e-01 2.842180e-01 2.886499e-01 3.093170e-01 3.440211e-01 2.649190e-01 5.181679e-05
<GCONST> 5.745571e+01
<TRANSP> 5
 0.000000e+00 1.000000e+00 0.000000e+00 0.000000e+00 0.000000e+00
 0.000000e+00 9.441716e-01 5.582841e-02 0.000000e+00 0.000000e+00
 0.000000e+00 0.000000e+00 9.304968e-01 6.950328e-02 0.000000e+00
 0.000000e+00 0.000000e+00 0.000000e+00 9.528304e-01 4.716964e-02
 0.000000e+00 0.000000e+00 0.000000e+00 0.000000e+00 0.000000e+00
<ENDHMM>
