~o
<STREAMINFO> 1 39
<VECSIZE> 39<NULLD><MFCC_E_D_A><DIAGC>
~h "two"
<BEGINHMM>
<NUMSTATES> 5
<STATE> 2
<MEAN> 39
 -1.595372e+01 -1.416237e+00 -4.814586e-01 -4.898144e+00 -3.155248e+00 -1.951355e+00 2.025731e+00 -3.477068e-01 -2.034574e+00 -4.444920e-01 7.611094e-01 -1.732144e+00 1.793128e-01 1.380369e-01 9.680189e-02 2.502049e-01 3.850822e-02 -3.411735e-01 -3.057898e-01 -2.288879e-03 2.966554e-02 -2.614349e-01 -9.248241e-02 8.110841e-03 -1.564312e-01 3.128082e-02 1.949587e-01 6.461244e-03 1.167417e-01 6.367230e-02 1.115772e-02 -7.757384e-02 -1.202858e-01 1.870012e-02 -2.242682e-02 -7.620785e-02 -5.679215e-02 5.908573e-02 3.225708e-03
<VARIANCE> 39
 1.340157e+01 9.609184e+00 7.168632e+00 4.327077e+01 3.930204e+01 2.683909e+01 1.344551e+01 1.491554e+01 2.356788e+01 1.512455e+01 1.155185e+01 1.525006e+01 1.081101e-01 2.715133e+00 1.413321e+00 1.461329e+00 4.852493e+00 2.724164e+00 2.245313e+00 1.706084e+00 1.687001e+00 2.174412e+00 2.362078e+00 1.366037e+00 1.440697e+00 5.486604e-03 3.567971e-01 2.967955e-01 2.239645e-01 8.852344e-01 4.818630e-01 4.904543e-01 3.832925e-01 3.632700e-01 4.572131e-01 5.450454e-01 2.767157e-01 2.993819e-01 1.047852e-03
<GCONST> 8.861851e+01
<STATE> 3
<MEAN> 39
 1.397652e+00 -5.924084e-01 9.459060e+00 -1.227342e-01 -5.795546e+00 -1.116171e+01 -8.378510e+00 1.819290e+00 -7.954451e+00 -5.144737e+00 -3.186939e+00 -7.010961e-01 6.765217e-01 8.545768e-02 8.088547e-03 -2.494601e-01 7.855344e-02 2.473745e-01 4.437331e-02 -2.032914e-01 -2.510716e-01 4.866255e-03 -3.639047e-02 -1.117150e-01 7.920111e-02 -3.001734e-02 -3.194731e-01 -5.253828e-02 -2.133687e-01 -1.331017e-01 -2.810606e-02 5.868473e-02 1.286110e-01 -6.365009e-02 -1.949278e-03 7.243587e-02 5.438247e-02 -5.561255e-02 -7.298999e-03
<VARIANCE> 39
 2.079988e+01 3.050435e+01 3.111281e+01 2.702906e+01 2.806407e+01 3.923869e+01 4.904098e+01 3.160535e+01 1.361540e+01 1.525489e+01 1.246645e+01 1.959876e+01 5.423921e-02 4.491952e+00 2.542982e+00 2.413545e+00 1.773711e+00 1.927548e+00 2.724241e+00 4.257517e+00 2.424116e+00 1.169695e+00 1.106432e+00 1.371755e+00 1.601869e+00 3.177506e-03 2.635786e-01 3.565942e-01 2.026729e-01 4.193177e-01 3.827024e-01 4.560973e-01 4.827785e-01 4.083061e-01 1.877841e-01 2.418809e-01 2.394990e-01 2.205533e-01 2.051327e-04
<GCONST> 8.758705e+01
<STATE> 4
<MEAN> 39
 -1.203234e+01 -3.361556e-01 -1.097531e+00 -1.696313e+00 -2.628768e+00 -5.088328e+00 -2.271837e+00 -4.740514e+00 -3.772256e+00 -2.513501e+00 -1.172285e+00 -1.642164e+00 -1.866658e-02 -2.385065e-01 -3.621234e-02 -9.452644e-02 -1.430771e-01 2.167200e-01 1.988190e-01 1.283249e-01 1.201143e-01 2.466836e-01 1.790082e-01 1.249409e-01 1.860216e-01 -6.683762e-03 8.338840e-02 5.106212e-02 6.900604e-02 2.592702e-02 3.650437e-02 1.659229e-02 9.831935e-03 5.769524e-02 2.852508e-02 2.496661e-02 3.832555e-02 -5.659251e-03 4.152479e-03
<VARIANCE> 39
 4.092458e+00 3.986125e+00 4.916268e+00 8.650676e+00 1.534500e+01 1.709838e+01 1.482776e+01 1.715601e+01 1.923886e+01 1.500199e+01 1.476227e+01 1.341418e+01 1.808371e-03 2.711097e-01 3.070376e-01 5.110824e-01 7.072334e-01 9.278077e-01 1.431644e+00 1.717927e+00 1.333530e+00 1.517260e+00 1.807850e+00 1.484749e+00 1.065133e+00 2.949937e-04 4.939967e-02 7.111557e-02 1.090011e-01 1.432266e-01 1.814088e-01 2.534354e-01 3.168488e-01 2.688060e-01 3.420431e-01 4.097136e-01 3.013803e-01 1.797083e-01 6.689096e-05
<GCONST> 5.506711e+01
<TRANSP> 5
 0.000000e+00 1.000000e+00 0.000000e+00 0.000000e+00 0.000000e+00
 0.000000e+00 9.588258e-01 4.117423e-02 0.000000e+00 0.000000e+00
 0.000000e+00 0.000000e+00 9.496801e-01 5.031991e-02 0.000000e+00
 0.000000e+00 0.000000e+00 0.000000e+00 9.443918e-01 5.560820e-02
 0.000000e+00 0.000000e+00 0.000000e+00 0.000000e+00 0.000000e+00
<ENDHMM>
