~o
<STREAMINFO> 1 39
<VECSIZE> 39<NULLD><MFCC_E_D_A><DIAGC>
~h "zero"
<BEGINHMM>
<NUMSTATES> 5
<STATE> 2
<MEAN> 39
 -7.649145e+00 2.421206e+00 4.633866e+00 2.491921e-01 6.989760e+00 -5.140938e+00 -3.837093e+00 -7.074830e+00 -5.957390e-01 -8.766950e+00 -6.944347e+00 -4.755923e+00 2.611354e-01 -4.578853e-03 1.554547e-01 -5.571452e-02 2.200660e-01 -1.018617e-01 -1.582853e-02 1.179400e-02 -1.005000e-01 4.318945e-02 5.328326e-02 -6.681144e-02 -4.379733e-02 1.818885e-03 -2.619311e-02 5.877897e-02 -2.652600e-02 1.806813e-02 -2.258594e-02 9.781617e-04 1.244751e-02 -1.522040e-03 -1.256346e-02 -4.951161e-02 -2.639084e-02 -2.666450e-02 1.339667e-03
<VARIANCE> 39
 2.378868e+00 5.894160e+00 6.440643e+00 8.321423e+00 1.274281e+01 1.091805e+01 1.499380e+01 1.671665e+01 1.963823e+01 1.531171e+01 1.605879e+01 1.326360e+01 2.567726e-03 2.782638e-01 5.332335e-01 6.147999e-01 6.277083e-01 1.138993e+00 1.180989e+00 1.203814e+00 1.702966e+00 1.684849e+00 1.401177e+00 1.328120e+00 1.423351e+00 3.368157e-04 6.646930e-02 1.213058e-01 1.135555e-01 1.222180e-01 2.208810e-01 2.227000e-01 2.441540e-01 3.372729e-01 3.161072e-01 2.747773e-01 2.659938e-01 2.933215e-01 9.040340e-05
<GCONST> 5.660313e+01
<STATE> 3
<MEAN> 39
 -1.397140e+01 1.497245e+01 5.578982e+00 4.642530e+00 5.385433e+00 -8.411982e+00 -2.028851e+00 -8.660987e+00 -1.923353e+00 -9.661509e+00 -5.688926e+00 -2.939384e+00 5.512785e-01 -4.849233e-02 3.332980e-01 9.182253e-01 -1.918384e-01 -4.640353e-01 -6.761237e-01 -2.097275e-01 3.305940e-01 -4.769760e-01 -2.994679e-02 2.517284e-01 2.362083e-01 3.136186e-02 2.556161e-01 -3.150915e-01 1.563879e-01 -7.733706e-02 -2.064407e-01 2.620576e-02 -1.401619e-01 1.013281e-01 -9.832521e-04 1.501738e-02 1.189803e-01 6.948520e-03 -2.542873e-05
<VARIANCE> 39
 4.483319e+01 3.140628e+01 3.186603e+01 1.704447e+01 2.325620e+01 3.083127e+01 1.746050e+01 2.496826e+01 3.738369e+01 1.727937e+01 1.344851e+01 1.803566e+01 2.363469e-02 4.912665e+00 4.262618e+00 2.386719e+00 1.987580e+00 3.157468e+00 2.427495e+00 3.100079e+00 2.200272e+00 2.981566e+00 1.785245e+00 1.640538e+00 1.661441e+00 1.167817e-03 4.319487e-01 3.614641e-01 2.047340e-01 3.344736e-01 4.111553e-01 5.264562e-01 4.512931e-01 3.672176e-01 6.424278e-01 2.883964e-01 2.757674e-01 3.463146e-01 1.704163e-04
<GCONST> 8.999348e+01
<STATE> 4
<MEAN> 39
 4.730683e-01 2.217260e+00 7.356520e+00 7.929029e-01 -2.652106e+00 -1.205437e+01 -1.034560e+01 -3.356448e-01 -1.382576e-01 -6.292156e+00 9.694867e-01 -8.557975e-02 8.217399e-01 7.809107e-01 -5.608049e-01 -9.507433e-01 8.902504e-02 5.988667e-02 4.188356e-03 -3.685517e-01 1.848381e-01 6.608119e-01 3.176763e-01 3.607789e-01 1.008642e-01 -1.632926e-03 -2.077325e-01 2.130854e-01 -2.059961e-01 -1.962942e-02 2.209575e-01 7.817756e-02 1.629921e-01 -1.316396e-01 3.311100e-02 8.358996e-02 -6.544032e-02 5.446788e-02 -2.628140e-03
<VARIANCE> 39
 1.370662e+01 1.866254e+01 8.729379e+01 2.292353e+01 4.256233e+01 6.711585e+01 5.033969e+01 1.917658e+01 3.328139e+01 3.899153e+01 2.031538e+01 1.732452e+01 1.032020e-02 1.498441e+00 2.435696e+00 2.729364e+00 1.733126e+00 3.457747e+00 2.833492e+00 2.403657e+00 2.629671e+00 2.446200e+00 2.119778e+00 2.042157e+00 1.884704e+00 3.843614e-04 1.682278e-01 3.199786e-01 4.284406e-01 3.217139e-01 5.760128e-01 4.209006e-01 2.689838e-01 4.322960e-01 3.739427e-01 3.494110e-01 3.767534e-01 3.330232e-01 8.654017e-05
<GCONST> 8.827730e+01
<TRANSP> 5
 0.000000e+00 1.000000e+00 0.000000e+00 0.000000e+00 0.000000e+00
 0.000000e+00 9.593771e-01 4.062294e-02 0.000000e+00 0.000000e+00
 0.000000e+00 0.000000e+00 9.337747e-01 6.622534e-02 0.000000e+00
 0.000000e+00 0.000000e+00 0.000000e+00 9.339549e-01 6.604508e-02
 0.000000e+00 0.000000e+00 0.000000e+00 0.000000e+00 0.000000e+00
<ENDHMM>
