~o
<STREAMINFO> 1 39
<VECSIZE> 39<NULLD><MFCC_E_D_A><DIAGC>
~h "zero"
<BEGINHMM>
<NUMSTATES> 5
<STATE> 2
<MEAN> 39
 -1.345415e+01 1.546648e+00 2.054091e+00 -4.914796e+00 -1.521835e+00 -3.667313e+00 1.624985e+00 3.392875e-01 -5.012684e+00 3.489939e-01 -1.160945e+00 -3.278418e+00 2.026645e-01 3.953216e-01 4.354538e-02 5.566826e-01 -1.250770e-01 -3.521447e-01 -2.780697e-01 -4.662818e-01 1.580797e-01 -3.521656e-01 -1.969370e-01 -3.323133e-03 -9.065504e-02 2.856809e-02 3.742127e-02 -1.003489e-01 5.130830e-02 -1.350997e-02 -7.547025e-02 9.826026e-04 -7.198443e-02 4.091912e-02 -3.566387e-02 1.500607e-02 -1.017927e-02 3.204448e-02 2.949953e-04
<VARIANCE> 39
 3.262383e+01 3.826795e+01 3.267449e+01 1.905863e+01 3.357480e+01 3.239147e+01 2.919534e+01 2.275102e+01 3.753329e+01 1.980077e+01 1.305548e+01 2.033410e+01 1.125392e-01 3.338407e+00 3.066600e+00 1.574202e+00 1.823152e+00 3.155988e+00 2.695717e+00 3.376766e+00 1.790951e+00 2.082248e+00 1.910545e+00 1.432742e+00 1.633660e+00 2.396364e-03 4.461065e-01 3.890719e-01 2.098963e-01 3.561122e-01 4.947159e-01 5.641080e-01 5.464321e-01 3.215786e-01 4.101096e-01 4.096187e-01 3.043381e-01 2.748254e-01 3.276164e-04
<GCONST> 9.260898e+01
<STATE> 3
<MEAN> 39
 7.448429e+00 -7.435769e+00 6.910059e+00 -2.536318e+00 -1.282818e+01 -9.166527e+00 -8.713161e+00 -8.165171e-01 -5.855395e+00 -1.381931e-01 -2.832172e+00 3.262600e+00 7.957407e-01 3.755109e-01 -2.376495e-02 -7.820735e-01 -3.877155e-02 2.112823e-01 1.445025e-01 3.800152e-01 -3.558473e-01 1.281523e-01 3.407300e-01 2.428465e-01 4.559612e-01 -8.187035e-03 -6.118438e-02 2.007560e-01 -6.352951e-02 -2.156974e-03 1.288167e-01 9.896995e-03 1.710420e-01 -9.116916e-02 -3.579507e-02 -7.713088e-02 4.784757e-02 -3.346990e-02 -1.350978e-03
<VARIANCE> 39
 1.482075e+01 1.466968e+01 6.727821e+01 2.427862e+01 2.077608e+01 1.751834e+01 1.595348e+01 2.964206e+01 2.683433e+01 1.699272e+01 2.148240e+01 1.267181e+01 6.114355e-03 5.102025e-01 1.492975e+00 1.317789e+00 1.550822e+00 1.640457e+00 8.219511e-01 1.058500e+00 1.527020e+00 1.519750e+00 6.962538e-01 1.039460e+00 6.741648e-01 1.733404e-04 5.198063e-02 1.255992e-01 1.927253e-01 2.022129e-01 2.320196e-01 1.385399e-01 2.094933e-01 2.636099e-01 1.840942e-01 1.218812e-01 1.206837e-01 1.312378e-01 2.441851e-05
<GCONST> 6.223479e+01
<STATE> 4
<MEAN> 39
 -6.830668e+00 1.319492e+00 5.497703e-01 -3.240359e+00 -3.936558e+00 -2.015330e+00 2.342006e+00 -1.733163e+00 -9.007405e+00 -2.988743e+00 -1.673538e+00 -7.982811e-01 2.112324e-01 -5.639475e-01 2.766815e-02 3.697620e-02 1.443835e-01 1.541268e-01 6.767821e-02 1.487252e-02 4.536899e-02 8.988425e-02 -1.391738e-01 -1.731797e-01 -2.352715e-01 -1.837444e-02 4.351320e-03 -4.083851e-02 1.059658e-02 1.485189e-02 -2.391674e-02 -2.834266e-02 -4.846147e-02 5.958112e-03 4.764809e-02 5.470935e-02 -1.638736e-02 -2.510435e-02 4.549096e-04
<VARIANCE> 39
 6.061363e+01 1.630214e+01 1.196255e+01 1.483642e+01 1.316950e+01 2.443060e+01 3.797585e+01 1.730657e+01 2.014481e+01 2.884897e+01 2.389080e+01 2.749553e+01 7.204994e-02 7.067530e-01 1.343479e+00 9.272525e-01 1.400671e+00 1.285740e+00 1.760807e+00 2.565778e+00 1.479890e+00 1.818150e+00 2.473862e+00 1.906883e+00 2.112098e+00 1.255878e-03 6.154002e-02 1.747506e-01 1.673621e-01 2.383799e-01 2.452457e-01 3.081292e-01 3.552626e-01 3.023180e-01 3.809079e-01 4.404896e-01 3.679161e-01 4.024640e-01 1.613038e-04
<GCONST> 7.981839e+01
<TRANSP> 5
 0.000000e+00 1.000000e+00 0.000000e+00 0.000000e+00 0.000000e+00
 0.000000e+00 9.688904e-01 3.110961e-02 0.000000e+00 0.000000e+00
 0.000000e+00 0.000000e+00 9.578379e-01 4.216213e-02 0.000000e+00
 0.000000e+00 0.000000e+00 0.000000e+00 9.727592e-01 2.724077e-02
 0.000000e+00 0.000000e+00 0.000000e+00 0.000000e+00 0.000000e+00
<ENDHMM>
