~o
<STREAMINFO> 1 39
<VECSIZE> 39<NULLD><MFCC_E_D_A><DIAGC>
~h "zero"
<BEGINHMM>
<NUMSTATES> 5
<STATE> 2
<MEAN> 39
 -1.279774e+01 3.492298e+00 5.652861e+00 -3.436586e+00 5.375091e+00 -7.131720e+00 -4.279294e+00 -4.268808e+00 -1.923574e+00 -6.526722e+00 -5.592202e+00 4.434385e-01 4.854506e-01 2.539749e-01 -1.742659e-01 7.802826e-01 9.700334e-02 -8.018292e-01 -8.596149e-01 -1.848348e-01 7.614703e-01 -1.629402e-01 2.971093e-01 5.509182e-01 1.735193e-01 2.540109e-02 8.343155e-02 -1.290045e-01 3.941751e-02 2.213597e-03 -1.252385e-01 3.602853e-02 6.819964e-03 6.717020e-02 -2.220949e-02 4.014721e-02 -1.621393e-03 9.287423e-03 5.992897e-04
<VARIANCE> 39
 5.408132e+01 3.172215e+01 3.252082e+01 1.538673e+01 4.940364e+01 4.524958e+01 2.067957e+01 3.576003e+01 1.696907e+01 2.292018e+01 2.600589e+01 1.421972e+01 2.664775e-02 6.623575e+00 3.774254e+00 2.526032e+00 1.615887e+00 5.365019e+00 2.228525e+00 2.238901e+00 2.232182e+00 1.544962e+00 2.790502e+00 1.449237e+00 1.593307e+00 7.329759e-04 8.589014e-01 3.709883e-01 3.720238e-01 3.292275e-01 5.503041e-01 4.218539e-01 4.506435e-01 3.521818e-01 2.974927e-01 5.310974e-01 2.729802e-01 3.303154e-01 1.424130e-04
<GCONST> 9.205226e+01
<STATE> 3
<MEAN> 39
 2.404275e-01 -7.311446e+00 8.121164e+00 -1.122026e+00 -9.272653e+00 -1.620209e+01 -4.316716e+00 6.040254e+00 2.498344e+00 4.307258e+00 -2.017600e+00 -4.654246e+00 7.155965e-01 9.162395e-02 9.732132e-02 -7.291788e-01 -2.106335e-01 3.739598e-01 5.029365e-01 1.765960e-01 -3.478507e-01 3.041104e-01 2.291167e-01 -2.374477e-01 -4.548255e-01 -1.068323e-02 -7.730825e-02 1.492342e-01 -2.289955e-02 1.341139e-02 1.410774e-01 4.820426e-02 -3.311968e-02 -1.436377e-01 -3.211386e-02 -8.406696e-02 3.410457e-02 6.562072e-02 -1.422197e-03
<VARIANCE> 39
 5.472609e+00 1.904670e+01 5.265988e+01 1.522559e+01 2.172756e+01 2.492267e+01 1.112425e+01 2.240405e+01 1.988277e+01 1.559986e+01 1.848610e+01 3.808829e+01 7.224738e-03 3.471314e-01 1.358743e+00 1.319491e+00 1.645902e+00 1.329309e+00 1.894720e+00 1.395414e+00 1.841530e+00 1.496938e+00 1.329135e+00 1.840891e+00 2.046617e+00 1.554973e-04 7.927421e-02 1.718918e-01 2.079451e-01 2.595201e-01 3.070752e-01 3.295047e-01 2.929436e-01 2.821936e-01 3.156246e-01 2.541242e-01 3.567296e-01 3.402227e-01 3.375105e-05
<GCONST> 7.039681e+01
<STATE> 4
<MEAN> 39
 -5.282795e+00 -8.040558e-01 3.299592e+00 -2.472500e+00 2.471266e+00 -2.289371e+00 -3.136307e+00 -6.537703e+00 -1.260830e+00 -4.337765e+00 -5.494933e+00 -1.183574e+00 4.336495e-01 -3.456308e-01 6.031544e-02 4.321885e-02 2.447537e-01 4.261970e-01 4.213292e-01 2.503659e-02 -3.590167e-01 -1.681705e-01 -6.447380e-01 -2.210080e-01 3.533701e-01 -1.104588e-02 1.552486e-02 -7.485632e-02 -9.744368e-03 8.554748e-03 -4.227778e-02 -4.241217e-02 2.840278e-02 8.857804e-02 5.011878e-02 4.236696e-02 -7.273680e-02 -9.911466e-02 2.668127e-04
<VARIANCE> 39
 8.778811e+00 5.530198e+00 5.874835e+00 8.182402e+00 1.505269e+01 1.496329e+01 1.478709e+01 1.462104e+01 2.025472e+01 3.027492e+01 2.190173e+01 1.254463e+01 9.211315e-03 3.907430e-01 6.354874e-01 5.027940e-01 6.860270e-01 1.025025e+00 1.520374e+00 1.584218e+00 1.532547e+00 1.982172e+00 1.663053e+00 1.769714e+00 1.581042e+00 2.507908e-04 5.987455e-02 1.019387e-01 1.001491e-01 1.334268e-01 2.031195e-01 2.815090e-01 3.177935e-01 2.996303e-01 3.334047e-01 2.613136e-01 3.805781e-01 2.716660e-01 4.571084e-05
<GCONST> 6.104693e+01
<TRANSP> 5
 0.000000e+00 1.000000e+00 0.000000e+00 0.000000e+00 0.000000e+00
 0.000000e+00 9.482053e-01 5.179476e-02 0.000000e+00 0.000000e+00
 0.000000e+00 0.000000e+00 9.548283e-01 4.517174e-02 0.000000e+00
 0.000000e+00 0.000000e+00 0.000000e+00 9.458139e-01 5.418609e-02
 0.000000e+00 0.000000e+00 0.000000e+00 0.000000e+00 0.000000e+00
<ENDHMM>
