~o
<STREAMINFO> 1 39
<VECSIZE> 39<NULLD><MFCC_E_D_A><DIAGC>
~h "zero"
<BEGINHMM>
<NUMSTATES> 5
<STATE> 2
<MEAN> 39
 -1.787641e+01 3.244728e+00 2.918961e+00 -3.781106e+00 -5.770404e+00 -6.926977e+00 -3.283118e+00 -6.533217e+00 -4.028121e+00 -3.373406e+00 -1.547914e+00 -3.374865e+00 5.121608e-01 3.691279e-01 -3.293557e-01 2.145117e-01 -4.265132e-01 -5.379123e-01 -2.890590e-01 -2.416560e-01 -1.803058e-01 -1.818550e-01 1.167357e-01 -1.398283e-01 -8.637836e-02 1.873140e-02 6.397338e-02 -8.822791e-02 3.192334e-03 -3.691894e-02 9.498202e-04 4.059987e-02 8.453281e-03 4.676798e-02 4.289879e-03 3.621102e-02 -1.353366e-02 -5.614250e-03 -1.936524e-03
<VARIANCE> 39
 1.164580e+02 6.758170e+01 7.601427e+01 8.474317e+01 8.528550e+01 6.240100e+01 7.210443e+01 5.197507e+01 4.934315e+01 3.437466e+01 3.793756e+01 2.315899e+01 5.875885e-02 3.615168e+00 3.081878e+00 3.640411e+00 3.383345e+00 4.243543e+00 3.547232e+00 3.420717e+00 3.635396e+00 3.158638e+00 2.421850e+00 2.206101e+00 1.731028e+00 1.404386e-03 4.373216e-01 3.777180e-01 4.175981e-01 4.360434e-01 6.774344e-01 6.605284e-01 6.152766e-01 6.487278e-01 5.411209e-01 4.573533e-01 3.843099e-01 3.272929e-01 1.847257e-04
<GCONST> 1.072747e+02
<STATE> 3
<MEAN> 39
 -3.600931e+00 -8.746282e+00 1.319816e+00 -1.141053e+01 -1.023594e+01 -1.141626e+01 -8.078060e+00 -1.860756e+00 -6.104432e+00 -2.578657e+00 -6.175968e+00 -7.447524e+00 6.401310e-01 1.111911e-01 1.167916e-01 -2.725500e-01 -1.466944e-02 2.960267e-01 1.877829e-01 3.507923e-02 3.105745e-02 -4.564773e-02 -5.965886e-02 -6.063263e-02 -1.017539e-01 -5.510605e-03 -2.775103e-02 4.807383e-02 2.137578e-02 4.865110e-02 2.621479e-02 5.972609e-03 1.579306e-02 -4.134558e-02 -2.070163e-02 -3.029268e-02 8.760693e-03 3.027230e-02 -9.182074e-04
<VARIANCE> 39
 3.976371e+01 5.111762e+01 1.000809e+02 6.917445e+01 5.509136e+01 5.621653e+01 5.168182e+01 9.228766e+01 5.178902e+01 3.542400e+01 2.985854e+01 3.316055e+01 2.390006e-02 3.331268e-01 8.365998e-01 1.136396e+00 1.509866e+00 1.354570e+00 1.244375e+00 1.545630e+00 2.092957e+00 1.575508e+00 1.645301e+00 1.322797e+00 1.124053e+00 1.295608e-04 3.504799e-02 8.000363e-02 1.051210e-01 1.836057e-01 2.013985e-01 1.812374e-01 2.336147e-01 2.929857e-01 2.476920e-01 2.446947e-01 2.043988e-01 1.712919e-01 1.538207e-05
<GCONST> 7.562571e+01
<STATE> 4
<MEAN> 39
 -9.265367e+00 -3.343584e+00 9.456542e-01 -9.414164e+00 2.312749e+00 -3.482916e+00 -1.756372e+00 -6.564531e+00 -5.756195e+00 -2.262541e+00 -4.405544e+00 -3.485843e+00 3.638346e-01 -6.051775e-01 5.244931e-02 3.575994e-01 7.543482e-01 7.203647e-01 4.737752e-01 5.620569e-01 3.646934e-01 3.755425e-01 -1.329177e-02 3.469266e-01 4.637567e-01 -2.457986e-02 -1.516241e-02 -8.102191e-02 -4.026431e-02 -3.076692e-02 -1.898915e-02 -3.040755e-02 4.123190e-03 1.357442e-01 1.417461e-01 9.553213e-02 7.493556e-02 2.626286e-02 -4.095408e-04
<VARIANCE> 39
 4.806580e+01 4.021193e+01 6.108606e+01 9.047106e+01 8.937202e+01 6.113557e+01 4.844996e+01 5.244497e+01 6.188004e+01 4.512646e+01 3.801746e+01 4.720959e+01 4.773832e-02 1.201321e+00 1.328262e+00 1.821310e+00 2.379898e+00 2.324591e+00 2.656496e+00 2.360679e+00 2.786713e+00 3.542942e+00 3.064752e+00 2.330015e+00 2.087042e+00 1.653268e-03 1.628271e-01 1.944889e-01 2.835954e-01 3.279248e-01 3.566514e-01 4.235279e-01 3.869702e-01 4.631136e-01 5.386344e-01 4.977985e-01 4.298892e-01 3.443918e-01 1.798281e-04
<GCONST> 9.860559e+01
<TRANSP> 5
 0.000000e+00 1.000000e+00 0.000000e+00 0.000000e+00 0.000000e+00
 0.000000e+00 9.610118e-01 3.898825e-02 0.000000e+00 0.000000e+00
 0.000000e+00 0.000000e+00 9.662065e-01 3.379354e-02 0.000000e+00
 0.000000e+00 0.000000e+00 0.000000e+00 9.091693e-01 9.083068e-02
 0.000000e+00 0.000000e+00 0.000000e+00 0.000000e+00 0.000000e+00
<ENDHMM>
