~o
<STREAMINFO> 1 39
<VECSIZE> 39<NULLD><MFCC_E_D_A><DIAGC>
~h "eight"
<BEGINHMM>
<NUMSTATES> 5
<STATE> 2
<MEAN> 39
 -8.412941e+00 2.842216e+00 5.602355e+00 1.295426e+00 7.152945e+00 -4.413590e+00 -2.190976e+00 -7.053070e+00 -1.698715e+00 -9.985946e+00 -6.609478e+00 -3.448769e+00 2.823189e-01 -7.412883e-06 3.316836e-02 1.197112e-02 -2.893188e-02 -9.849878e-02 -3.278831e-02 2.151470e-02 -9.245019e-03 -1.444978e-04 -8.489084e-03 -2.124497e-02 3.787176e-03 2.183836e-04 8.386407e-03 -6.045962e-04 1.151638e-02 5.239225e-04 -3.177311e-02 -1.764253e-02 -1.324849e-03 1.927536e-02 4.624224e-03 2.430492e-02 2.268253e-02 3.520729e-03 1.457627e-04
<VARIANCE> 39
 8.821925e+00 5.876478e+00 6.634625e+00 9.040520e+00 8.103041e+00 1.425626e+01 1.554239e+01 1.411016e+01 1.652703e+01 1.632947e+01 1.194941e+01 1.300907e+01 1.000000e-02 5.084774e-01 5.206259e-01 5.982207e-01 6.773136e-01 8.734337e-01 1.329155e+00 1.378916e+00 1.530878e+00 1.534836e+00 1.703213e+00 1.254402e+00 1.319782e+00 1.000000e-02 9.292936e-02 1.022078e-01 1.123842e-01 1.428862e-01 1.861307e-01 2.785636e-01 2.771595e-01 3.062244e-01 3.200494e-01 3.589053e-01 2.623170e-01 2.573530e-01 1.000000e-02
<GCONST> 6.774335e+01
<STATE> 3
<MEAN> 39
 -9.113144e+00 2.860611e+00 3.873647e+00 -2.196424e-01 5.107622e+00 -3.561581e+00 -1.632835e+00 -5.791454e+00 -8.260096e-01 -5.672692e+00 -3.376400e+00 -3.716318e+00 3.138780e-01 -9.111368e-03 -3.782137e-02 3.407053e-01 5.823791e-02 -1.775509e+00 6.168687e-02 -1.253148e-01 1.778784e-01 5.292413e-02 6.324331e-01 9.576526e-01 -9.535921e-02 2.345763e-02 3.666916e-02 9.689751e-02 3.320759e-01 -8.614399e-02 -8.064166e-01 -2.611621e-02 -2.905221e-03 1.827983e-01 5.945775e-02 7.585045e-02 3.599158e-01 -1.463897e-01 1.131753e-02
<VARIANCE> 39
 6.870417e+00 5.062232e+00 1.348016e+01 5.683833e+00 1.130329e+01 1.377587e+01 1.880793e+01 2.778654e+01 1.549852e+01 2.981577e+01 1.982137e+01 6.192056e+00 1.000000e-02 6.882602e-01 3.535879e-01 3.299027e+00 1.026876e+00 9.051232e+00 1.247770e+00 1.369669e+00 1.680633e+00 1.935808e+00 3.456272e+00 2.621638e+00 9.347279e-01 1.000000e-02 1.779141e-01 1.363666e-01 6.060948e-01 1.078286e-01 1.054395e+00 3.146672e-01 2.284408e-01 3.255591e-01 4.568369e-01 7.255049e-01 5.634329e-01 1.410206e-01 1.000000e-02
<GCONST> 8.007855e+01
<STATE> 4
<MEAN> 39
 -6.103839e+00 6.899715e+00 1.301635e+01 -2.747401e+00 -1.346507e+01 -6.119497e+00 -5.033669e+00 -7.569375e+00 -3.838766e+00 -7.838410e+00 3.368213e+00 -6.184429e+00 6.921605e-01 1.828934e-01 8.738488e-02 1.499870e-01 -1.902331e-01 5.171951e-02 1.285011e-01 -8.339934e-02 -2.235495e-01 -2.930845e-01 -1.797866e-01 1.072330e-01 -2.804476e-02 1.595366e-02 -4.666356e-02 -7.321011e-02 -1.761832e-01 4.382543e-02 4.365955e-01 4.321235e-02 2.264592e-02 -1.055029e-01 -2.720536e-02 -5.044602e-02 -1.899217e-01 5.542832e-02 -6.458631e-03
<VARIANCE> 39
 1.975478e+01 1.177412e+01 2.412179e+01 2.141529e+01 1.278946e+02 1.342034e+01 1.423109e+01 3.060640e+01 2.052588e+01 1.877385e+01 4.437562e+01 1.016800e+01 3.330567e-02 1.000050e+00 1.633600e+00 2.810938e+00 1.965940e+00 1.043221e+01 1.608619e+00 1.206148e+00 2.529306e+00 1.652212e+00 1.806544e+00 3.566018e+00 1.705077e+00 1.000000e-02 1.506642e-01 2.476181e-01 4.094669e-01 3.872483e-01 1.339608e+00 2.770572e-01 1.993283e-01 4.493069e-01 2.827990e-01 3.605751e-01 4.012282e-01 3.648086e-01 1.000000e-02
<GCONST> 9.264777e+01
<TRANSP> 5
 0.000000e+00 1.000000e+00 0.000000e+00 0.000000e+00 0.000000e+00
 0.000000e+00 9.711934e-01 2.880658e-02 0.000000e+00 0.000000e+00
 0.000000e+00 0.000000e+00 8.510638e-01 1.489362e-01 0.000000e+00
 0.000000e+00 0.000000e+00 0.000000e+00 9.406779e-01 5.932203e-02
 0.000000e+00 0.000000e+00 0.000000e+00 0.000000e+00 0.000000e+00
<ENDHMM>
