~o
<STREAMINFO> 1 39
<VECSIZE> 39<NULLD><MFCC_E_D_A><DIAGC>
~h "eight"
<BEGINHMM>
<NUMSTATES> 5
<STATE> 2
<MEAN> 39
 -1.344824e+01 -2.099042e+00 -1.102616e+00 -2.008415e+00 6.010275e-01 4.267991e-01 1.549246e+00 6.839844e-01 7.488483e-01 2.628114e-02 3.735718e-01 -1.348055e-01 -7.145326e-02 2.052767e-01 -1.189650e-01 4.903510e-01 -4.594576e-01 -3.874354e-01 -4.415292e-01 -1.683670e-02 3.425933e-01 -4.778379e-01 7.236136e-03 -3.437761e-01 -7.769214e-02 2.741714e-02 1.727681e-01 -6.504743e-02 2.376241e-01 -2.540775e-01 -1.834405e-01 -3.033784e-01 2.357509e-02 2.092108e-01 -2.044979e-01 8.216402e-03 -1.373170e-01 -2.841643e-02 1.548467e-02
<VARIANCE> 39
 8.213350e-01 2.036321e+00 3.689031e+00 4.378952e+00 8.577148e+00 9.508307e+00 8.775942e+00 1.207146e+01 1.048833e+01 1.204906e+01 1.128866e+01 1.066101e+01 1.000000e-02 4.397118e-01 6.655481e-01 1.769061e+00 1.802991e+00 1.755457e+00 2.902497e+00 1.363305e+00 2.180823e+00 2.095241e+00 1.352599e+00 1.662754e+00 1.083444e+00 1.000000e-02 1.428034e-01 7.535189e-02 2.675260e-01 2.663501e-01 2.852432e-01 4.985581e-01 2.846553e-01 3.622016e-01 3.354797e-01 2.897552e-01 3.158470e-01 2.376161e-01 1.000000e-02
<GCONST> 6.781497e+01
<STATE> 3
<MEAN> 39
 -2.563994e+00 -2.370810e+00 2.069301e+01 -1.155201e+01 -1.189437e+01 -1.361068e+01 -1.200979e+00 9.418415e+00 -1.403184e+01 -2.014090e+00 -3.751904e+00 4.342355e-01 7.608879e-01 3.165387e-01 4.927744e-01 3.969325e-01 4.516288e-01 7.023084e-02 1.070914e-02 -1.823419e-01 -2.274340e-01 -1.512449e-01 -3.475451e-01 1.089645e-01 -1.734973e-01 5.278901e-03 -1.660391e-01 -5.596712e-03 -3.219637e-01 1.828194e-01 2.005271e-01 2.411785e-01 -6.184832e-02 -2.090054e-01 1.941885e-01 9.829782e-03 1.122418e-01 -4.000010e-03 -1.425264e-02
<VARIANCE> 39
 1.030970e+01 5.251700e+01 4.599362e+01 4.944040e+01 2.035775e+01 2.522056e+01 3.500743e+01 5.344001e+01 3.374666e+01 2.104506e+01 1.579170e+01 2.115473e+01 1.909003e-02 1.765247e+00 2.121686e+00 5.385862e+00 3.906382e+00 2.915048e+00 4.342241e+00 2.217949e+00 2.979251e+00 3.735575e+00 1.139275e+00 1.797067e+00 1.540523e+00 1.000000e-02 2.006510e-01 3.234723e-01 4.027888e-01 5.202546e-01 2.580542e-01 5.018462e-01 3.827789e-01 3.145436e-01 5.212039e-01 1.691533e-01 3.382238e-01 2.413604e-01 1.000000e-02
<GCONST> 9.655126e+01
<STATE> 4
<MEAN> 39
 -1.233841e+01 -8.887074e-01 2.361971e-01 -2.884622e+00 -2.587272e+00 -4.429356e+00 1.652740e-01 -1.491681e-01 -4.259561e+00 -2.024048e+00 -2.142386e+00 -1.880152e+00 8.891445e-02 -2.116538e-01 -2.128782e-01 -3.056842e-01 -8.280321e-02 -2.631123e-04 2.533915e-02 6.236156e-02 -6.269065e-02 1.188891e-01 1.503896e-01 -7.092025e-03 6.877770e-02 -9.410136e-03 3.202332e-02 2.840827e-02 8.630370e-02 -1.112315e-02 -3.686856e-02 -3.971048e-02 2.461725e-02 4.775026e-02 -4.110229e-02 -2.018112e-03 1.949050e-03 4.264365e-03 2.565318e-03
<VARIANCE> 39
 1.158925e+01 8.292928e+00 2.046324e+01 1.799036e+01 1.943104e+01 2.665877e+01 2.038497e+01 1.827690e+01 2.776788e+01 2.457835e+01 2.398669e+01 2.019807e+01 4.197949e-02 8.003981e-01 9.056019e-01 2.141216e+00 1.552789e+00 2.583611e+00 2.899976e+00 1.835880e+00 1.720278e+00 2.997437e+00 2.551321e+00 2.240165e+00 1.927232e+00 1.000000e-02 1.211979e-01 1.746083e-01 3.133743e-01 3.374673e-01 5.804507e-01 5.726879e-01 3.537923e-01 3.430800e-01 6.310513e-01 5.137128e-01 4.539119e-01 3.980600e-01 1.000000e-02
<GCONST> 9.004019e+01
<TRANSP> 5
 0.000000e+00 1.000000e+00 0.000000e+00 0.000000e+00 0.000000e+00
 0.000000e+00 9.222222e-01 7.777778e-02 0.000000e+00 0.000000e+00
 0.000000e+00 0.000000e+00 9.539474e-01 4.605263e-02 0.000000e+00
 0.000000e+00 0.000000e+00 0.000000e+00 9.756944e-01 2.430556e-02
 0.000000e+00 0.000000e+00 0.000000e+00 0.000000e+00 0.000000e+00
<ENDHMM>
