~o
<STREAMINFO> 1 39
<VECSIZE> 39<NULLD><MFCC_E_D_A><DIAGC>
~h "eight"
<BEGINHMM>
<NUMSTATES> 5
<STATE> 2
<MEAN> 39
 -1.237571e+01 -3.841348e+00 1.171174e+01 -1.964605e+01 -1.388253e+01 -4.633281e+00 -3.980089e+00 -8.921544e+00 -3.712384e+00 -2.585105e+00 -7.336147e+00 -3.419349e+00 6.480937e-01 1.278529e-01 4.630143e-01 5.239035e-01 -3.291498e-01 -2.947412e-01 -1.448935e-01 -6.566244e-01 -5.766791e-01 -3.832800e-02 -1.270174e-01 -1.911728e-01 -1.187110e-02 1.012173e-02 -1.110656e-02 6.073005e-02 -6.811234e-02 1.950279e-01 1.421797e-01 2.660008e-02 7.657869e-04 3.069283e-02 3.809905e-02 1.300990e-02 7.651532e-02 2.138059e-02 -6.126849e-03
<VARIANCE> 39
 3.348648e+01 4.898927e+01 8.099238e+01 7.636299e+01 6.454019e+01 4.230939e+01 1.295642e+02 5.940968e+01 4.482801e+01 4.112791e+01 3.336730e+01 3.589273e+01 4.217390e-02 8.037129e-01 1.152818e+00 1.256653e+00 2.502821e+00 2.860870e+00 1.304078e+00 2.056835e+00 1.466591e+00 1.517075e+00 1.908229e+00 1.437454e+00 1.644835e+00 1.000000e-02 1.452577e-01 1.947870e-01 2.357610e-01 3.528744e-01 3.502206e-01 2.227489e-01 3.299045e-01 2.550354e-01 2.606093e-01 3.283369e-01 2.278707e-01 2.375578e-01 1.000000e-02
<GCONST> 9.586320e+01
<STATE> 3
<MEAN> 39
 -1.200285e+01 3.526102e+00 1.230865e+01 -8.763941e+00 -6.814676e+00 -3.747036e+00 -9.460908e+00 -1.161826e+01 -3.266564e+00 -4.206931e+00 -4.958615e+00 -1.685853e+00 3.688254e-01 -3.978088e-01 -7.660542e-01 -2.224010e+00 2.367594e+00 2.124545e+00 6.155720e-01 2.033223e+00 2.008459e+00 5.043032e-01 3.458420e-01 1.143205e+00 1.277204e-02 -6.779852e-02 -1.168706e-01 -3.040791e-01 -2.422205e-01 -2.519891e-01 1.146679e-01 6.911534e-02 2.852654e-01 4.273232e-01 2.181845e-01 1.935318e-01 1.363024e-01 9.900779e-02 -9.965560e-04
<VARIANCE> 39
 2.430500e+01 1.910331e+01 5.633205e+01 6.801063e+01 6.455663e+01 4.156816e+01 4.734133e+01 4.444175e+01 3.916206e+01 2.770411e+01 3.482464e+01 2.673970e+01 5.318924e-02 1.080984e+00 2.072709e+00 2.698750e+00 3.663232e+00 3.351661e+00 2.629452e+00 3.994937e+00 4.668510e+00 3.921924e+00 2.921281e+00 2.876004e+00 2.356266e+00 1.000000e-02 1.857668e-01 2.997899e-01 5.840162e-01 7.419365e-01 8.282834e-01 4.977264e-01 7.429072e-01 7.250718e-01 5.252121e-01 4.734252e-01 5.214435e-01 3.918689e-01 1.000000e-02
<GCONST> 1.076400e+02
<STATE> 4
<MEAN> 39
 -1.916590e+01 -1.335387e+00 2.040602e+00 -4.281910e+00 1.474281e+00 -2.654178e+00 3.178702e+00 2.303044e-01 6.204251e-01 7.173077e-02 2.593960e+00 -2.355092e-01 2.806035e-01 -1.135787e-02 -8.426614e-02 -1.273666e-01 2.382694e-02 6.782381e-02 -4.588839e-02 2.148022e-01 1.937188e-01 4.054222e-02 4.963718e-02 1.050761e-01 3.295746e-02 -1.169456e-03 3.353887e-02 5.118742e-02 6.866427e-02 -2.183718e-02 -4.974971e-02 -4.980714e-03 -8.603810e-02 -8.589605e-02 -2.989705e-02 -3.991223e-02 -5.454704e-02 -1.226777e-02 7.794377e-04
<VARIANCE> 39
 5.492068e+01 2.734960e+01 3.764853e+01 4.174190e+01 2.813964e+01 2.793537e+01 2.855593e+01 2.435295e+01 2.621474e+01 2.102318e+01 2.119023e+01 1.689558e+01 8.042270e-02 2.895165e+00 1.959787e+00 1.841856e+00 2.012637e+00 1.839118e+00 2.171562e+00 2.354625e+00 2.198627e+00 2.182832e+00 1.938677e+00 1.914446e+00 1.555912e+00 1.000000e-02 3.906151e-01 3.581651e-01 3.485239e-01 3.789541e-01 3.715722e-01 4.197691e-01 4.433419e-01 4.631391e-01 4.311056e-01 3.803215e-01 3.770806e-01 3.090794e-01 1.000000e-02
<GCONST> 9.724411e+01
<TRANSP> 5
 0.000000e+00 1.000000e+00 0.000000e+00 0.000000e+00 0.000000e+00
 0.000000e+00 9.589192e-01 4.108079e-02 0.000000e+00 0.000000e+00
 0.000000e+00 0.000000e+00 8.200483e-01 1.799517e-01 0.000000e+00
 0.000000e+00 0.000000e+00 0.000000e+00 9.649742e-01 3.502586e-02
 0.000000e+00 0.000000e+00 0.000000e+00 0.000000e+00 0.000000e+00
<ENDHMM>
