~o
<STREAMINFO> 1 39
<VECSIZE> 39<NULLD><MFCC_E_D_A><DIAGC>
~h "eight"
<BEGINHMM>
<NUMSTATES> 5
<STATE> 2
<MEAN> 39
 -5.317463e+00 -6.093406e+00 8.941418e+00 -4.502727e+00 -4.894827e+00 -8.255992e+00 -1.481093e+00 9.763447e+00 -5.071246e+00 -2.607577e+00 -5.183471e+00 -3.523139e+00 5.737696e-01 1.207626e-01 -1.450422e-01 7.426301e-01 -2.755281e-01 -1.189291e+00 -6.545398e-01 1.229301e-01 9.460309e-01 -3.066095e-01 6.281797e-01 7.684699e-01 1.305281e-01 2.308503e-02 -1.888005e-02 1.046437e-01 7.213895e-02 1.684074e-02 7.030131e-03 8.686925e-02 -1.204238e-01 -2.561264e-01 -1.355705e-03 -5.234072e-03 4.721156e-02 7.835680e-02 -1.295404e-03
<VARIANCE> 39
 8.457454e+00 1.219592e+01 1.724083e+01 1.314098e+01 6.999915e+01 2.907227e+01 2.648750e+01 1.569259e+02 2.017128e+01 3.241011e+01 2.901675e+01 2.367005e+01 3.529671e-02 9.715112e-01 1.112018e+00 7.979545e-01 9.587342e-01 1.388234e+00 1.054396e+00 2.344690e+00 9.932147e+00 2.153966e+00 1.715538e+00 1.684440e+00 2.403984e+00 1.000000e-02 1.874079e-01 1.633268e-01 1.348428e-01 1.678548e-01 2.533959e-01 2.387118e-01 4.129120e-01 1.081770e+00 4.061639e-01 3.064443e-01 3.871578e-01 3.515767e-01 1.000000e-02
<GCONST> 8.922758e+01
<STATE> 3
<MEAN> 39
 -5.931465e+00 2.045403e-02 1.730909e+01 -4.555823e+00 -9.988975e+00 -6.220490e+00 -9.776537e+00 -2.482734e+00 -6.368905e+00 8.386047e-01 -1.077401e+00 1.953145e+00 6.348595e-01 -1.414641e-01 4.479768e-01 -8.241184e-01 3.714638e-01 1.583835e+00 9.534363e-01 -5.612394e-01 -1.731323e+00 2.157845e-01 -9.193377e-01 -1.008120e+00 -1.393099e-01 -2.761628e-02 4.149852e-02 -2.288394e-01 -4.260722e-01 5.570364e-03 1.564719e-01 -1.402598e-01 3.554485e-01 3.073353e-01 1.797667e-01 -8.084521e-02 -9.045990e-02 -1.102855e-01 -3.740541e-03
<VARIANCE> 39
 2.086304e+00 5.848146e+00 2.009055e+01 9.586314e+00 3.268057e+01 2.116876e+01 1.660051e+01 5.154256e+01 1.745074e+01 1.879759e+01 2.353704e+01 1.115506e+01 1.000000e-02 2.263234e-01 1.125338e+00 3.186163e+00 8.506010e-01 1.130582e+00 1.912381e+00 2.940464e+00 3.148612e+00 1.993972e+00 8.910628e-01 1.333005e+00 1.077347e+00 1.000000e-02 4.903848e-02 7.050408e-02 2.671496e-01 1.759687e-01 2.582025e-01 3.225409e-01 2.547957e-01 3.019901e-01 3.177268e-01 2.380315e-01 3.616259e-01 2.098350e-01 1.000000e-02
<GCONST> 7.490585e+01
<STATE> 4
<MEAN> 39
 -1.020280e+01 -1.555177e+00 5.901665e+00 -3.601449e+00 3.383814e+00 -4.391732e+00 -4.547030e+00 -4.896656e+00 -1.673484e+00 -6.816657e+00 -5.396738e+00 -2.379463e-04 3.884320e-01 -3.157303e-02 -5.592351e-02 -1.642623e-01 5.556093e-02 2.000477e-01 1.112966e-01 1.680177e-01 -6.230275e-03 1.282340e-01 -1.151665e-01 -7.646579e-02 -1.449463e-02 -4.465992e-03 5.684169e-03 2.255968e-02 8.323295e-02 -1.933224e-02 -5.127274e-02 5.455406e-03 -3.909240e-02 3.029642e-02 -2.697174e-02 2.862891e-02 6.784812e-03 -2.918494e-03 1.756649e-03
<VARIANCE> 39
 2.926925e+01 5.679684e+00 9.431423e+00 1.638988e+01 9.132626e+00 2.017765e+01 1.256909e+01 3.205951e+01 1.503824e+01 1.442800e+01 2.274852e+01 9.727812e+00 1.000000e-02 3.089537e+00 7.613810e-01 1.218119e+00 1.594832e+00 1.079796e+00 2.023727e+00 1.580477e+00 2.816406e+00 1.649203e+00 1.640279e+00 2.144327e+00 1.062926e+00 1.000000e-02 5.170577e-01 1.649207e-01 2.124178e-01 3.022294e-01 2.014352e-01 3.504510e-01 3.193997e-01 4.609490e-01 3.173053e-01 3.312309e-01 3.809561e-01 2.170891e-01 1.000000e-02
<GCONST> 8.110413e+01
<TRANSP> 5
 0.000000e+00 1.000000e+00 0.000000e+00 0.000000e+00 0.000000e+00
 0.000000e+00 9.360465e-01 6.395349e-02 0.000000e+00 0.000000e+00
 0.000000e+00 0.000000e+00 8.865979e-01 1.134021e-01 0.000000e+00
 0.000000e+00 0.000000e+00 0.000000e+00 9.616725e-01 3.832753e-02
 0.000000e+00 0.000000e+00 0.000000e+00 0.000000e+00 0.000000e+00
<ENDHMM>
