~o
<STREAMINFO> 1 39
<VECSIZE> 39<NULLD><MFCC_E_D_A><DIAGC>
~h "five"
<BEGINHMM>
<NUMSTATES> 5
<STATE> 2
<MEAN> 39
 -1.799126e+01 -5.042173e+00 1.000133e-01 -5.209832e+00 2.159547e+00 -1.353549e+00 2.715991e-02 -9.093756e-01 7.412086e-01 -1.238240e+00 -8.015568e-01 -1.984176e+00 3.723794e-01 6.686009e-01 -4.262017e-01 -6.171483e-01 -7.226275e-01 4.803295e-02 1.678810e-02 -2.189673e-01 -5.966538e-01 -3.016473e-01 -2.283216e-01 -4.207794e-01 -4.632181e-01 2.877451e-02 4.229060e-02 -4.656257e-02 -2.634798e-02 8.695810e-03 4.181719e-02 1.436285e-02 -1.626227e-02 -2.729559e-02 -1.979367e-02 -2.226536e-02 7.564140e-03 4.116105e-03 -7.784790e-04
<VARIANCE> 39
 8.558676e+01 2.772616e+01 5.712703e+01 6.812137e+01 3.147188e+01 2.639574e+01 2.093214e+01 4.110526e+01 2.857425e+01 2.615651e+01 3.928573e+01 2.834397e+01 5.326891e-02 4.577078e+00 1.928489e+00 2.685823e+00 4.402066e+00 2.069519e+00 2.162100e+00 2.007265e+00 3.360768e+00 2.796560e+00 2.379370e+00 2.755102e+00 2.503166e+00 1.000000e-02 6.788821e-01 2.907158e-01 4.529656e-01 8.055114e-01 3.813824e-01 4.109532e-01 3.918549e-01 6.082599e-01 5.025995e-01 4.326643e-01 5.001653e-01 4.601329e-01 1.000000e-02
<GCONST> 1.056530e+02
<STATE> 3
<MEAN> 39
 -6.621565e+00 -1.151432e+01 -3.060143e+00 -1.401412e+01 -2.255988e+00 -5.452175e+00 -3.351094e+00 -8.084446e+00 -6.502696e+00 -7.054878e+00 -8.665148e+00 -5.653552e+00 6.967365e-01 -1.585115e-01 2.762624e-01 6.465768e-01 1.800160e-01 -5.948088e-01 -3.189784e-01 3.175684e-02 1.020653e-01 -9.271386e-02 7.228257e-02 1.107373e-02 2.029468e-01 -5.519886e-03 1.210753e-02 5.211037e-02 3.647556e-02 3.882757e-02 -1.773276e-02 -2.430846e-02 -4.985498e-03 2.072812e-02 7.269407e-03 8.343681e-03 8.309416e-03 1.760193e-02 -1.293706e-03
<VARIANCE> 39
 3.285040e+01 5.061343e+01 9.898672e+01 6.624559e+01 1.530456e+02 6.510658e+01 7.671753e+01 4.999068e+01 5.768017e+01 4.710210e+01 5.511417e+01 4.967987e+01 1.650880e-02 1.650590e-01 5.493920e-01 7.305492e-01 9.517748e-01 1.633950e+00 9.827278e-01 1.714318e+00 1.517733e+00 1.239600e+00 1.566670e+00 1.178550e+00 1.128286e+00 1.000000e-02 2.496435e-02 7.540109e-02 8.547942e-02 1.433260e-01 1.768988e-01 1.539704e-01 2.079378e-01 2.231934e-01 2.069429e-01 2.214046e-01 1.667316e-01 1.766299e-01 1.000000e-02
<GCONST> 8.350437e+01
<STATE> 4
<MEAN> 39
 -1.554830e+01 -3.259924e+00 5.896720e+00 -4.654758e+00 -1.743358e+00 -4.427942e+00 4.521310e-01 -1.076633e+00 -2.135969e+00 -2.640594e+00 -1.883573e+00 -7.558239e-01 3.216763e-01 -2.478193e-01 4.549409e-02 -1.692144e-01 4.151301e-01 6.180457e-01 3.004893e-01 1.533908e-01 3.820032e-01 3.186080e-01 7.825021e-02 3.080557e-01 1.889288e-01 -1.720118e-02 7.128580e-04 -1.048028e-02 -2.446173e-02 -4.016611e-02 -3.068763e-03 3.354016e-02 2.660400e-02 1.728052e-03 1.757567e-02 1.562294e-02 -5.838887e-03 -1.740764e-02 9.812916e-05
<VARIANCE> 39
 5.516032e+01 2.284013e+01 4.638736e+01 4.258708e+01 7.527747e+01 3.916866e+01 2.988367e+01 5.195898e+01 3.865730e+01 2.704061e+01 3.462376e+01 2.235790e+01 3.668370e-02 1.916705e+00 1.355412e+00 1.679625e+00 2.250964e+00 3.492029e+00 2.356655e+00 2.380334e+00 2.949286e+00 2.730900e+00 2.470088e+00 2.217265e+00 1.913568e+00 1.000000e-02 2.452534e-01 2.152799e-01 2.515267e-01 3.340406e-01 4.849193e-01 4.162948e-01 4.299834e-01 5.322218e-01 5.050662e-01 4.763401e-01 4.079300e-01 3.587033e-01 1.000000e-02
<GCONST> 1.006853e+02
<TRANSP> 5
 0.000000e+00 1.000000e+00 0.000000e+00 0.000000e+00 0.000000e+00
 0.000000e+00 9.508575e-01 4.914248e-02 0.000000e+00 0.000000e+00
 0.000000e+00 0.000000e+00 9.637998e-01 3.620020e-02 0.000000e+00
 0.000000e+00 0.000000e+00 0.000000e+00 9.596316e-01 4.036847e-02
 0.000000e+00 0.000000e+00 0.000000e+00 0.000000e+00 0.000000e+00
<ENDHMM>
