~o
<STREAMINFO> 1 39
<VECSIZE> 39<NULLD><MFCC_E_D_A><DIAGC>
~h "five"
<BEGINHMM>
<NUMSTATES> 5
<STATE> 2
<MEAN> 39
 -9.149204e+00 -2.971197e+00 2.240078e+00 -3.121143e+00 2.328231e+00 -1.063722e-01 -2.612026e+00 -2.769432e+00 -1.029210e+00 -5.237617e+00 -2.636696e+00 -4.255432e+00 4.880244e-01 7.894940e-01 -6.296492e-01 -3.718705e-01 -1.021793e+00 7.592196e-02 7.240670e-01 1.871186e-01 4.725535e-01 4.747745e-02 2.285429e-01 6.068586e-01 -7.773998e-01 2.830550e-02 4.315460e-02 -7.828161e-02 2.215975e-02 -3.858051e-02 5.278995e-02 6.641897e-02 -4.963038e-02 -3.045446e-02 -3.237662e-02 -1.313194e-02 2.250334e-02 -6.082941e-02 9.577367e-04
<VARIANCE> 39
 4.627178e+01 1.495890e+01 1.043454e+01 4.611705e+01 1.120553e+01 2.305966e+01 2.090831e+01 2.512020e+01 1.474796e+01 1.370080e+01 2.488662e+01 2.944334e+01 3.659895e-02 5.208913e+00 1.181324e+00 8.031483e-01 2.793486e+00 1.210168e+00 2.011819e+00 1.996726e+00 1.802439e+00 1.420784e+00 1.324761e+00 1.668585e+00 1.876711e+00 1.000000e-02 9.998719e-01 1.461525e-01 1.639076e-01 5.044143e-01 2.160678e-01 3.610656e-01 4.137680e-01 3.623326e-01 3.145382e-01 2.692693e-01 2.933052e-01 3.500244e-01 1.000000e-02
<GCONST> 8.855890e+01
<STATE> 3
<MEAN> 39
 -2.134306e+00 -6.240207e+00 4.233782e+00 -8.110680e+00 1.130633e-01 -1.660078e+00 -3.187011e+00 3.639129e+00 -1.051742e+00 -2.372404e+00 8.977506e-01 -8.340944e+00 6.824934e-01 -2.969675e-01 4.885694e-01 5.715724e-01 6.826329e-01 -3.583378e-01 -8.460378e-01 -7.204790e-02 -1.653601e-01 -1.410981e-01 8.106701e-02 -1.493767e-01 5.457969e-01 -8.206244e-03 -4.245295e-02 5.382784e-02 -6.782140e-02 2.315053e-02 7.745178e-02 1.598266e-02 2.524970e-02 -3.038725e-02 4.827557e-02 -6.839132e-02 -7.643790e-02 1.544330e-02 -1.632054e-03
<VARIANCE> 39
 9.929348e+00 2.461893e+01 5.190289e+01 3.662859e+01 5.459551e+01 1.154513e+02 1.851710e+01 3.751251e+01 1.791371e+01 2.425311e+01 2.775824e+01 3.189991e+01 1.000000e-02 2.120664e-01 7.500810e-01 1.395076e+00 7.313443e-01 2.725540e+00 2.850401e+00 1.530530e+00 3.716843e+00 1.476007e+00 1.620247e+00 3.129807e+00 1.195213e+00 1.000000e-02 5.233506e-02 1.488523e-01 2.139918e-01 1.789195e-01 3.552095e-01 4.326656e-01 2.887118e-01 5.227606e-01 2.949431e-01 3.065346e-01 5.937183e-01 2.405423e-01 1.000000e-02
<GCONST> 8.699387e+01
<STATE> 4
<MEAN> 39
 -1.152901e+01 -5.438511e-01 5.134919e+00 -3.904513e-01 2.332278e+00 -4.714621e+00 -2.594893e+00 -4.716468e+00 -4.801814e-01 -6.471023e+00 -4.448146e+00 -1.677387e+00 3.951322e-01 -1.716133e-01 -1.944763e-01 -4.218309e-01 -9.919146e-02 4.698526e-01 4.840809e-01 -7.144873e-02 -1.775021e-01 2.719619e-01 -2.275584e-01 -3.633207e-01 -9.182143e-02 -1.366012e-02 6.575926e-02 -3.541518e-02 9.813689e-02 -1.643827e-02 -1.037268e-01 -1.065910e-01 1.799917e-03 2.967349e-02 -3.358380e-02 1.047864e-01 7.651189e-02 6.656927e-03 1.845171e-03
<VARIANCE> 39
 1.201288e+01 6.284020e+00 7.798866e+00 6.503734e+00 1.387699e+01 1.896778e+01 1.794997e+01 1.993112e+01 1.379729e+01 1.389274e+01 1.474624e+01 1.076564e+01 1.000000e-02 1.219975e+00 4.664231e-01 1.125417e+00 7.148449e-01 1.212131e+00 2.503151e+00 1.313701e+00 1.579966e+00 1.485106e+00 1.602605e+00 1.324987e+00 1.183671e+00 1.000000e-02 1.365566e-01 8.751909e-02 1.440513e-01 1.377892e-01 2.154637e-01 3.921899e-01 2.284605e-01 3.276584e-01 2.642929e-01 2.213279e-01 2.313880e-01 2.349790e-01 1.000000e-02
<GCONST> 7.110361e+01
<TRANSP> 5
 0.000000e+00 1.000000e+00 0.000000e+00 0.000000e+00 0.000000e+00
 0.000000e+00 9.328859e-01 6.711410e-02 0.000000e+00 0.000000e+00
 0.000000e+00 0.000000e+00 9.586777e-01 4.132231e-02 0.000000e+00
 0.000000e+00 0.000000e+00 0.000000e+00 9.468085e-01 5.319148e-02
 0.000000e+00 0.000000e+00 0.000000e+00 0.000000e+00 0.000000e+00
<ENDHMM>
