~o
<STREAMINFO> 1 39
<VECSIZE> 39<NULLD><MFCC_E_D_A><DIAGC>
~h "five"
<BEGINHMM>
<NUMSTATES> 5
<STATE> 2
<MEAN> 39
 -8.308298e+00 2.521899e+00 4.892828e+00 4.404695e-01 7.961315e+00 -4.682507e+00 -3.469752e+00 -7.654126e+00 -8.029181e-01 -8.690802e+00 -6.857406e+00 -3.240975e+00 2.636251e-01 -5.019208e-02 4.051570e-02 -2.200642e-02 -1.388009e-02 -3.705054e-02 4.218645e-02 1.312975e-02 5.089999e-02 2.116480e-02 5.787473e-02 6.799259e-02 7.493729e-02 -6.844798e-04 -9.456779e-04 -5.675666e-03 -2.553796e-02 -9.872332e-03 -1.338527e-02 1.776759e-02 1.657154e-02 2.270315e-02 3.761766e-02 3.369311e-02 1.964668e-02 2.144524e-02 2.698635e-04
<VARIANCE> 39
 3.861151e+00 5.243564e+00 6.109334e+00 6.927944e+00 1.355623e+01 1.080576e+01 1.526470e+01 1.535973e+01 1.989804e+01 1.599878e+01 1.771083e+01 1.237957e+01 1.000000e-02 4.079022e-01 4.961726e-01 9.576415e-01 7.184219e-01 1.035292e+00 1.071678e+00 1.412707e+00 1.689374e+00 1.933273e+00 1.728589e+00 1.669002e+00 1.362790e+00 1.000000e-02 7.786603e-02 9.413760e-02 2.023809e-01 1.430691e-01 2.022996e-01 2.219938e-01 2.828216e-01 3.374291e-01 4.131518e-01 3.779970e-01 3.456278e-01 2.892374e-01 1.000000e-02
<GCONST> 6.917317e+01
<STATE> 3
<MEAN> 39
 -1.141158e+01 3.699423e+00 2.904612e+00 9.798104e-01 3.204488e+00 -8.494248e-01 -1.766453e+00 -4.828137e+00 1.287283e+00 -5.560902e+00 -4.473278e+00 -2.829091e+00 3.379288e-01 1.045494e+00 -1.679910e-01 -5.765699e-01 -1.540149e+00 1.948815e-01 1.516109e+00 4.034407e-01 -4.244453e-01 1.354055e+00 6.133453e-01 1.272237e+00 -6.930099e-01 4.681383e-02 5.776265e-01 -1.147844e-01 -1.098936e-01 -8.501130e-01 5.458986e-02 2.775539e-01 4.233889e-02 -4.152640e-01 1.573273e-01 -7.196144e-02 1.752622e-01 -7.086103e-01 1.635998e-02
<VARIANCE> 39
 2.056829e+01 4.067979e+00 5.050157e+00 1.295736e+01 1.068473e+01 1.635526e+01 1.521722e+01 1.787071e+01 1.966188e+01 1.593141e+01 1.430945e+01 1.070691e+01 1.000000e-02 5.013989e+00 3.615626e-01 1.146638e+00 6.964922e+00 1.545800e+00 2.224140e+00 2.223414e+00 2.764400e+00 3.403387e+00 1.831152e+00 2.722395e+00 3.340051e+00 1.000000e-02 5.159658e-01 8.324163e-02 2.027923e-01 7.656804e-01 2.726188e-01 4.294143e-01 4.030775e-01 3.665161e-01 4.835408e-01 3.503223e-01 3.638650e-01 5.067852e-01 1.000000e-02
<GCONST> 8.524422e+01
<STATE> 4
<MEAN> 39
 -1.268961e+00 -2.600401e-01 -2.148481e+00 -1.344410e+01 2.497251e+00 2.292698e+00 1.465974e+00 -7.833815e+00 7.357360e+00 -6.327111e+00 -2.582033e+00 -1.550757e+01 7.547374e-01 1.400380e-01 -3.217870e-02 -5.009509e-02 6.934742e-02 -4.305274e-01 -4.880926e-01 -7.552901e-02 2.446782e-01 1.121793e-01 -1.259351e-01 -3.153009e-01 -2.207846e-01 6.893117e-03 -1.696083e-01 5.952115e-02 1.165243e-01 3.199012e-01 8.829985e-03 -1.392485e-01 -8.460207e-02 1.042111e-01 -1.312112e-01 -8.448798e-03 -1.004774e-01 2.143629e-01 -6.366063e-03
<VARIANCE> 39
 2.217090e+01 1.514939e+01 1.042714e+01 5.432896e+01 4.317131e+01 4.316238e+01 9.260953e+00 3.438926e+01 3.890525e+01 2.065763e+01 2.631469e+01 3.667909e+01 2.111811e-02 1.353116e+00 1.268183e+00 1.105638e+00 4.639607e+00 2.650288e+00 1.738435e+00 1.100371e+00 2.330234e+00 2.859548e+00 1.657704e+00 1.920985e+00 3.881441e+00 1.000000e-02 2.490974e-01 1.459284e-01 1.679022e-01 4.573112e-01 4.153139e-01 2.749324e-01 1.852686e-01 4.529854e-01 5.509251e-01 2.668038e-01 4.533968e-01 4.499472e-01 1.000000e-02
<GCONST> 9.179404e+01
<TRANSP> 5
 0.000000e+00 1.000000e+00 0.000000e+00 0.000000e+00 0.000000e+00
 0.000000e+00 9.675926e-01 3.240741e-02 0.000000e+00 0.000000e+00
 0.000000e+00 0.000000e+00 8.292683e-01 1.707317e-01 0.000000e+00
 0.000000e+00 0.000000e+00 0.000000e+00 9.500000e-01 5.000000e-02
 0.000000e+00 0.000000e+00 0.000000e+00 0.000000e+00 0.000000e+00
<ENDHMM>
