~o
<STREAMINFO> 1 39
<VECSIZE> 39<NULLD><MFCC_E_D_A><DIAGC>
~h "five"
<BEGINHMM>
<NUMSTATES> 5
<STATE> 2
<MEAN> 39
 -1.446481e+01 -3.088987e+00 -3.106522e+00 -4.074090e+00 -4.106427e+00 -3.121282e+00 2.397651e+00 -4.219057e-01 1.987147e-01 -5.513058e-01 3.577696e-01 -5.872455e-01 6.580405e-02 1.458587e-01 -2.776381e-02 -1.607089e-01 -2.084437e-01 -2.153330e-01 -1.243856e-01 1.539425e-01 5.695639e-02 -1.740109e-01 -8.465704e-02 -4.612301e-02 -1.866346e-01 2.020715e-02 1.809707e-01 4.934357e-03 2.278200e-02 -4.872216e-02 5.914315e-02 6.084841e-02 -5.191218e-02 6.771894e-02 -6.472722e-02 -1.455661e-02 -7.500815e-03 -3.105197e-02 3.425666e-03
<VARIANCE> 39
 1.048310e+01 6.069292e+00 1.233467e+01 1.588351e+01 3.437048e+01 2.111673e+01 1.543044e+01 1.482191e+01 1.671981e+01 1.590767e+01 1.018840e+01 1.291218e+01 4.299681e-02 1.906046e+00 4.763384e-01 1.007940e+00 1.163963e+00 2.291565e+00 2.009525e+00 1.919241e+00 1.897971e+00 1.612001e+00 1.582817e+00 1.206149e+00 1.319216e+00 1.000000e-02 3.406393e-01 9.189261e-02 1.992059e-01 2.290336e-01 3.991834e-01 3.687282e-01 4.118744e-01 3.637060e-01 3.488165e-01 3.387401e-01 2.414783e-01 2.374643e-01 1.000000e-02
<GCONST> 8.015733e+01
<STATE> 3
<MEAN> 39
 2.178843e+00 -6.916490e+00 3.165231e+00 -8.563526e+00 -5.944769e+00 -5.624578e+00 8.517621e-01 1.189095e+01 -7.674508e+00 -2.979125e+00 -3.182827e+00 -6.317679e+00 7.426696e-01 -1.510174e-01 -4.705748e-02 2.700310e-01 2.757119e-01 5.230126e-02 -6.911856e-02 1.281057e-01 2.132660e-02 8.771287e-02 -8.059099e-02 -3.150547e-02 3.405251e-02 -4.004822e-03 -3.029740e-01 -7.767496e-02 -1.405227e-01 -4.823461e-02 -9.115199e-02 -6.668164e-02 -3.979025e-03 -1.354163e-01 1.186592e-01 2.746319e-02 1.459786e-02 2.031145e-02 -5.860960e-03
<VARIANCE> 39
 2.461263e+01 3.833220e+01 4.136840e+01 7.577060e+01 4.152613e+01 5.645256e+01 3.695138e+01 3.804436e+01 2.910644e+01 1.584440e+01 2.293488e+01 4.041699e+01 2.154340e-02 5.452247e+00 2.759692e+00 2.272294e+00 3.020939e+00 3.455601e+00 3.222595e+00 2.924651e+00 3.851939e+00 3.072855e+00 1.421510e+00 1.446185e+00 2.285881e+00 1.000000e-02 4.214524e-01 4.059854e-01 2.156962e-01 3.950661e-01 5.669490e-01 4.190501e-01 5.101703e-01 5.047176e-01 4.313721e-01 2.694082e-01 2.514440e-01 2.850062e-01 1.000000e-02
<GCONST> 1.018320e+02
<STATE> 4
<MEAN> 39
 -1.417735e+01 -3.854169e+00 -3.287050e+00 -4.901269e+00 -4.823519e+00 -5.245325e+00 9.324725e-01 -6.695772e-01 -1.247941e+00 -1.191405e+00 -5.906036e-01 -1.606311e+00 1.362314e-01 2.023445e-02 1.020658e-01 -4.991687e-02 -2.563676e-02 1.138957e-01 1.201072e-01 -2.171955e-01 -8.567909e-02 -2.827111e-02 1.269356e-01 1.415505e-02 8.893129e-02 -1.045273e-02 9.489234e-02 5.342145e-02 8.628646e-02 6.767305e-02 2.027367e-02 4.000914e-03 2.784569e-02 4.998368e-02 -3.557035e-02 -2.342974e-02 -3.930860e-04 2.605000e-02 1.889011e-03
<VARIANCE> 39
 1.925882e+01 1.855479e+01 1.414118e+01 1.745806e+01 1.938570e+01 1.951967e+01 1.792094e+01 1.658388e+01 2.044600e+01 1.699516e+01 1.415867e+01 1.277666e+01 2.384143e-02 1.196541e+00 6.711490e-01 1.108935e+00 1.404551e+00 1.265677e+00 1.514202e+00 1.609073e+00 1.578110e+00 1.636921e+00 1.780722e+00 1.466071e+00 1.415894e+00 1.000000e-02 1.708039e-01 1.090074e-01 1.447315e-01 2.261160e-01 2.493634e-01 3.124971e-01 3.351881e-01 2.995882e-01 3.471712e-01 3.661789e-01 2.847152e-01 3.073623e-01 1.000000e-02
<GCONST> 7.965137e+01
<TRANSP> 5
 0.000000e+00 1.000000e+00 0.000000e+00 0.000000e+00 0.000000e+00
 0.000000e+00 9.629630e-01 3.703703e-02 0.000000e+00 0.000000e+00
 0.000000e+00 0.000000e+00 9.639176e-01 3.608247e-02 0.000000e+00
 0.000000e+00 0.000000e+00 0.000000e+00 9.732825e-01 2.671756e-02
 0.000000e+00 0.000000e+00 0.000000e+00 0.000000e+00 0.000000e+00
<ENDHMM>
