~o
<STREAMINFO> 1 39
<VECSIZE> 39<NULLD><MFCC_E_D_A><DIAGC>
~h "four"
<BEGINHMM>
<NUMSTATES> 5
<STATE> 2
<MEAN> 39
 -1.422625e+01 -3.313258e+00 -3.448828e+00 -3.837477e+00 -4.661174e+00 -2.920787e+00 3.170878e+00 -7.208143e-01 -3.693789e-01 -9.346210e-01 4.286149e-01 -8.023299e-02 1.258270e-01 3.144246e-01 1.710829e-01 -1.525757e-02 -2.387420e-01 -2.425944e-01 8.885378e-03 1.240643e-01 3.992743e-02 -2.166809e-01 -1.338049e-01 1.064447e-02 -4.929583e-03 1.908570e-02 1.527783e-01 4.462571e-02 3.549764e-02 -9.256785e-02 -7.497077e-02 3.130296e-02 -3.506739e-02 9.747733e-02 -9.812305e-02 -4.465806e-02 3.153172e-02 1.455375e-02 3.499563e-03
<VARIANCE> 39
 1.769585e+01 1.249622e+01 1.773415e+01 1.361601e+01 3.113428e+01 2.869370e+01 1.819874e+01 1.914891e+01 1.829193e+01 1.675865e+01 1.356222e+01 1.176473e+01 4.687908e-02 3.585384e+00 2.020741e+00 1.401961e+00 1.416847e+00 2.157950e+00 2.063486e+00 1.401377e+00 2.304379e+00 2.239738e+00 2.364582e+00 1.639639e+00 1.440987e+00 1.000000e-02 3.332828e-01 3.830934e-01 2.206152e-01 3.550395e-01 4.707259e-01 3.752614e-01 3.047019e-01 4.536834e-01 4.062127e-01 4.586483e-01 3.570348e-01 3.097090e-01 1.000000e-02
<GCONST> 8.939787e+01
<STATE> 3
<MEAN> 39
 8.778115e+00 1.526940e+00 -1.559075e+00 -1.972375e+01 -2.013821e+01 1.927043e+00 1.006473e+00 1.137497e+01 -1.445305e+01 -8.260889e+00 6.307410e+00 3.824828e+00 8.706348e-01 5.693336e-01 -1.705811e-01 -2.995584e-01 5.513372e-02 -1.776170e-01 2.091078e-01 -2.748123e-01 2.337594e-01 8.120078e-02 -1.870530e-01 2.980982e-01 6.363473e-01 2.185028e-03 -2.872862e-01 -9.771097e-02 -1.333787e-01 2.794822e-01 2.884521e-01 -1.484894e-01 7.588401e-02 -2.378612e-01 3.156253e-01 1.324942e-01 -1.662184e-01 -3.102914e-03 -8.007461e-03
<VARIANCE> 39
 1.936233e+00 1.145928e+01 9.818392e+00 3.402420e+01 2.639473e+01 2.091093e+01 2.199755e+01 1.683650e+01 2.144943e+01 1.856599e+01 1.537776e+01 2.980582e+01 1.000000e-02 2.283197e+00 6.251377e-01 9.767773e-01 4.829004e+00 3.036738e+00 1.366365e+00 1.237353e+00 2.957189e+00 3.285431e+00 9.845682e-01 1.537204e+00 1.019136e+00 1.000000e-02 4.374682e-01 2.240223e-01 1.129132e-01 2.624023e-01 2.460601e-01 1.605189e-01 1.465672e-01 2.191699e-01 2.230688e-01 2.650728e-01 2.376641e-01 2.078204e-01 1.000000e-02
<GCONST> 7.901762e+01
<STATE> 4
<MEAN> 39
 -3.722714e+00 -1.319473e+00 -4.268919e+00 -3.316211e+00 -2.295106e+00 -8.504342e-01 4.840890e-01 5.645440e-01 -2.169769e+00 -4.839998e+00 -1.575432e+00 8.740954e-01 2.390681e-01 -5.925305e-01 -8.246272e-03 1.863159e-01 2.095409e-01 3.687684e-01 -1.179698e-01 -1.026079e-01 -1.814548e-01 1.890939e-01 2.408364e-01 -2.132718e-01 -3.832131e-01 -1.986554e-02 -1.275195e-02 2.066227e-03 2.820091e-02 -4.714104e-02 -6.758943e-02 4.061243e-02 8.652656e-03 3.485813e-02 -5.916546e-02 4.344815e-03 5.678771e-02 -5.983904e-03 5.442132e-04
<VARIANCE> 39
 7.172633e+01 1.209105e+01 1.299069e+01 1.544824e+01 1.919271e+01 3.115276e+01 2.321865e+01 2.491970e+01 1.722989e+01 3.142071e+01 1.337603e+01 3.227545e+01 8.024140e-02 6.419774e-01 1.230227e+00 7.188594e-01 1.770281e+00 2.165884e+00 2.281447e+00 1.927014e+00 1.414241e+00 1.889955e+00 1.460085e+00 1.467533e+00 1.519862e+00 1.000000e-02 6.280074e-02 1.928581e-01 1.523069e-01 3.118117e-01 2.966870e-01 4.247606e-01 3.814041e-01 2.765091e-01 3.337190e-01 2.738199e-01 2.436045e-01 2.425609e-01 1.000000e-02
<GCONST> 8.454665e+01
<TRANSP> 5
 0.000000e+00 1.000000e+00 0.000000e+00 0.000000e+00 0.000000e+00
 0.000000e+00 9.728682e-01 2.713178e-02 0.000000e+00 0.000000e+00
 0.000000e+00 0.000000e+00 9.448819e-01 5.511810e-02 0.000000e+00
 0.000000e+00 0.000000e+00 0.000000e+00 9.714286e-01 2.857143e-02
 0.000000e+00 0.000000e+00 0.000000e+00 0.000000e+00 0.000000e+00
<ENDHMM>
