~o
<STREAMINFO> 1 39
<VECSIZE> 39<NULLD><MFCC_E_D_A><DIAGC>
~h "four"
<BEGINHMM>
<NUMSTATES> 5
<STATE> 2
<MEAN> 39
 -1.761893e+01 -3.711942e+00 -2.320530e-02 -5.717007e+00 8.003294e-01 -1.097549e+00 -1.149271e+00 -9.556169e-01 -1.732784e-01 -3.528473e-01 2.317481e-01 -1.099731e+00 3.496310e-01 6.939046e-01 1.291107e-01 -3.612922e-01 -1.014493e+00 -4.669716e-01 -3.014145e-02 -2.419722e-01 -3.190396e-01 -4.900531e-01 -1.524885e-01 -2.685788e-01 -1.241952e-01 2.305188e-02 5.451609e-02 2.291178e-03 -1.278936e-02 -4.944035e-02 -1.967376e-02 1.354500e-02 1.040791e-02 1.779120e-02 -9.967761e-05 1.047397e-03 -1.516016e-02 -4.751780e-03 -6.749083e-04
<VARIANCE> 39
 9.196389e+01 2.673320e+01 4.289849e+01 9.373189e+01 4.978431e+01 2.240962e+01 2.459162e+01 3.380905e+01 3.888934e+01 2.150435e+01 2.338207e+01 1.742756e+01 4.876959e-02 4.349555e+00 1.454597e+00 1.408375e+00 5.445796e+00 2.831531e+00 1.709246e+00 1.999379e+00 2.335629e+00 3.059115e+00 2.231296e+00 1.993033e+00 1.555131e+00 1.000000e-02 5.437201e-01 2.587937e-01 2.466639e-01 8.145197e-01 4.773765e-01 3.339004e-01 3.790235e-01 4.473860e-01 5.588773e-01 4.248514e-01 3.731044e-01 2.971319e-01 1.000000e-02
<GCONST> 1.012700e+02
<STATE> 3
<MEAN> 39
 -1.092428e+00 8.468698e-02 -5.311865e+00 -2.577564e+01 -9.048731e+00 -1.476359e+00 -4.419292e+00 -4.549165e+00 -7.876893e+00 -4.291043e+00 -5.643281e+00 -3.194527e+00 6.329710e-01 -2.529093e-02 2.559534e-02 3.007745e-02 2.302010e-01 3.921058e-02 3.110208e-02 6.298510e-02 2.762717e-02 9.058078e-02 -1.105715e-01 8.291835e-03 -5.755064e-02 -5.433555e-03 -2.974434e-02 -8.709838e-03 2.277317e-02 1.088216e-01 5.240531e-02 -9.812849e-03 6.096221e-03 -3.849807e-02 -1.702442e-02 -7.253475e-03 1.970060e-02 -1.282868e-02 -1.462685e-03
<VARIANCE> 39
 3.169714e+01 3.728995e+01 4.782312e+01 8.231516e+01 1.019760e+02 3.381079e+01 2.798193e+01 2.981057e+01 5.044235e+01 4.759801e+01 4.039177e+01 3.391571e+01 2.277416e-02 1.286560e-01 3.060122e-01 3.453367e-01 6.604443e-01 6.395574e-01 6.963262e-01 7.188566e-01 8.476251e-01 8.734943e-01 8.491943e-01 8.224915e-01 7.568217e-01 1.000000e-02 2.557366e-02 4.619111e-02 6.002726e-02 1.157720e-01 1.074493e-01 1.206595e-01 1.291631e-01 1.376323e-01 1.519414e-01 1.547505e-01 1.453378e-01 1.261824e-01 1.000000e-02
<GCONST> 6.929137e+01
<STATE> 4
<MEAN> 39
 -6.282031e+00 -3.716526e+00 -2.417637e+00 -9.303711e+00 -6.742010e-01 -2.935823e+00 -1.551643e+00 -4.235187e+00 -6.060997e+00 -5.319858e+00 -4.460567e+00 -4.581375e+00 3.923960e-01 -6.612955e-01 -2.495988e-01 4.492112e-01 1.177513e+00 7.763015e-01 -3.364160e-02 3.448750e-01 2.975588e-01 2.933229e-01 1.783281e-01 2.574537e-01 1.831347e-01 -2.551169e-02 -1.711233e-02 9.236421e-03 -6.204205e-03 -6.031671e-02 -3.484145e-02 2.229287e-02 8.936077e-03 5.991984e-02 6.296328e-02 4.594714e-02 3.717760e-02 6.706887e-02 -5.363031e-04
<VARIANCE> 39
 5.461763e+01 5.514978e+01 6.243732e+01 9.986291e+01 8.190459e+01 6.247821e+01 4.549671e+01 5.083196e+01 6.205303e+01 5.774236e+01 4.684875e+01 4.854190e+01 6.378835e-02 1.216221e+00 1.357870e+00 1.569426e+00 2.572214e+00 2.679362e+00 2.798957e+00 2.613966e+00 2.557479e+00 2.987215e+00 3.075332e+00 2.751473e+00 2.481029e+00 1.000000e-02 1.663516e-01 1.949625e-01 2.738394e-01 3.815935e-01 3.924545e-01 3.986211e-01 4.302942e-01 4.347360e-01 4.978131e-01 4.873620e-01 4.684252e-01 4.059902e-01 1.000000e-02
<GCONST> 1.063187e+02
<TRANSP> 5
 0.000000e+00 1.000000e+00 0.000000e+00 0.000000e+00 0.000000e+00
 0.000000e+00 9.565468e-01 4.345324e-02 0.000000e+00 0.000000e+00
 0.000000e+00 0.000000e+00 9.563332e-01 4.366686e-02 0.000000e+00
 0.000000e+00 0.000000e+00 0.000000e+00 9.280610e-01 7.193901e-02
 0.000000e+00 0.000000e+00 0.000000e+00 0.000000e+00 0.000000e+00
<ENDHMM>
