~o
<STREAMINFO> 1 39
<VECSIZE> 39<NULLD><MFCC_E_D_A><DIAGC>
~h "four"
<BEGINHMM>
<NUMSTATES> 5
<STATE> 2
<MEAN> 39
 -8.262457e+00 3.473403e+00 4.198629e+00 -1.094603e-01 4.924336e+00 -4.894235e+00 -3.675182e+00 -7.834133e+00 -1.082599e+00 -8.325251e+00 -8.171941e+00 -4.657310e+00 2.574711e-01 -1.271821e-01 1.809015e-01 -1.765935e-02 1.519113e-01 -1.622857e-01 1.131303e-01 -1.374751e-02 9.370150e-03 -5.374376e-02 1.790843e-02 -4.627344e-02 3.945489e-02 1.796545e-03 -4.326609e-03 -5.083241e-03 -4.202932e-02 -7.698501e-03 -1.636875e-02 1.794789e-02 3.880240e-02 4.256985e-02 7.298006e-02 5.938874e-02 8.897638e-02 6.647886e-02 3.176110e-04
<VARIANCE> 39
 5.748069e+00 7.427084e+00 7.319101e+00 8.262747e+00 2.119526e+01 1.144166e+01 1.301155e+01 1.641475e+01 2.025510e+01 1.648773e+01 1.913070e+01 1.254265e+01 1.000000e-02 3.442438e-01 3.382837e-01 9.598262e-01 7.201726e-01 1.070962e+00 1.152338e+00 1.146240e+00 1.481665e+00 2.287182e+00 1.388120e+00 1.346521e+00 1.463382e+00 1.000000e-02 7.575879e-02 8.418397e-02 1.859279e-01 1.578575e-01 2.177007e-01 2.206698e-01 2.130188e-01 3.355187e-01 4.751918e-01 3.075911e-01 2.871574e-01 2.900291e-01 1.000000e-02
<GCONST> 6.925236e+01
<STATE> 3
<MEAN> 39
 -1.082534e+01 4.027903e+00 2.740320e+00 2.174055e+00 4.317161e+00 1.098992e+00 -7.025868e-01 -3.234283e+00 -1.087752e+00 -4.173188e+00 -2.773671e+00 -6.261750e-01 4.232709e-01 1.084877e+00 3.648377e-01 -3.436860e-01 -7.125117e-01 -8.692121e-01 5.936807e-02 3.447289e-01 5.071140e-01 3.499587e-01 4.315675e-01 8.095662e-01 3.343510e-01 3.507936e-02 5.069016e-01 2.701929e-01 1.681795e-01 -3.663516e-01 -4.810218e-01 -1.975874e-01 -5.440770e-02 4.078340e-02 -5.382888e-02 -1.303253e-01 -1.978694e-01 -1.198464e-01 1.181724e-02
<VARIANCE> 39
 1.284489e+01 1.778316e+01 3.288270e+01 9.326258e+00 2.013707e+01 1.948205e+01 2.237814e+01 2.028516e+01 1.706441e+01 1.779464e+01 1.416510e+01 1.219744e+01 1.689479e-02 4.225714e+00 2.470024e+00 2.105000e+00 3.127231e+00 3.405396e+00 2.301354e+00 1.783731e+00 2.406655e+00 1.848321e+00 2.684713e+00 2.624974e+00 1.299572e+00 1.000000e-02 4.975041e-01 3.297430e-01 3.297726e-01 5.126104e-01 4.805948e-01 4.394540e-01 4.029828e-01 5.078347e-01 3.049653e-01 5.227489e-01 4.379832e-01 2.641498e-01 1.000000e-02
<GCONST> 9.235604e+01
<STATE> 4
<MEAN> 39
 3.448281e+00 8.719213e+00 -2.285567e+00 -8.997982e+00 -7.474165e+00 -4.329800e+00 -4.240019e+00 -4.085384e+00 -5.751433e-01 -3.180325e+00 7.604679e-02 -8.249313e-01 7.799728e-01 2.653564e-01 -3.163206e-01 -2.723382e-01 1.064271e-01 3.552326e-01 -1.374736e-01 -2.610907e-01 1.997355e-02 1.979999e-01 -7.247434e-02 -1.059643e-01 8.490643e-03 2.569625e-03 -2.636855e-01 -1.584948e-01 3.421412e-02 2.450088e-01 2.992154e-01 7.747785e-02 7.162418e-02 1.218826e-02 -3.664044e-02 -4.415261e-02 -9.058082e-02 -2.383528e-02 -7.678926e-03
<VARIANCE> 39
 1.707220e+01 3.934573e+01 3.555657e+01 4.692542e+01 6.504142e+01 1.483619e+01 2.902803e+01 2.071919e+01 3.526245e+01 1.882811e+01 2.677817e+01 2.646536e+01 1.538607e-02 1.906331e+00 1.978176e+00 1.824787e+00 4.492534e+00 4.222462e+00 2.111441e+00 2.854092e+00 2.269281e+00 3.765593e+00 1.669826e+00 3.463528e+00 2.311481e+00 1.000000e-02 2.212209e-01 3.035288e-01 3.282967e-01 4.605713e-01 4.074724e-01 3.783586e-01 5.460280e-01 4.566394e-01 6.067080e-01 2.978022e-01 5.619952e-01 3.240531e-01 1.000000e-02
<GCONST> 9.869834e+01
<TRANSP> 5
 0.000000e+00 1.000000e+00 0.000000e+00 0.000000e+00 0.000000e+00
 0.000000e+00 9.503546e-01 4.964539e-02 0.000000e+00 0.000000e+00
 0.000000e+00 0.000000e+00 8.793104e-01 1.206896e-01 0.000000e+00
 0.000000e+00 0.000000e+00 0.000000e+00 9.473684e-01 5.263158e-02
 0.000000e+00 0.000000e+00 0.000000e+00 0.000000e+00 0.000000e+00
<ENDHMM>
