~o
<STREAMINFO> 1 39
<VECSIZE> 39<NULLD><MFCC_E_D_A><DIAGC>
~h "four"
<BEGINHMM>
<NUMSTATES> 5
<STATE> 2
<MEAN> 39
 -9.232805e+00 -5.107985e-01 4.276525e+00 -3.123286e+00 5.435355e-01 -1.765632e+00 -4.723577e+00 -4.802867e+00 -7.487235e-01 -6.773512e+00 -4.508445e+00 -1.786505e+00 4.133419e-01 9.070309e-01 2.175070e-01 1.190301e-02 -1.109482e+00 -1.069508e+00 1.797073e-01 4.189270e-01 3.271256e-01 2.908887e-01 4.411883e-02 1.916806e-01 7.203668e-02 2.957709e-02 1.133164e-01 3.363556e-02 1.672936e-02 -1.277726e-01 -1.655963e-01 1.885812e-02 4.924002e-02 -7.222435e-03 1.016583e-01 1.516615e-02 -5.029270e-02 3.256158e-02 2.247016e-03
<VARIANCE> 39
 3.415560e+01 6.440414e+00 4.154196e+00 3.208419e+01 2.782246e+01 1.108739e+01 1.656725e+01 1.382426e+01 1.375070e+01 1.297690e+01 1.593602e+01 8.751364e+00 2.346787e-02 4.459913e+00 8.943139e-01 4.534719e-01 3.304731e+00 3.078702e+00 1.171887e+00 2.054782e+00 1.500421e+00 1.857033e+00 1.227429e+00 1.567618e+00 9.823579e-01 1.000000e-02 6.937560e-01 1.775849e-01 9.378425e-02 4.689724e-01 4.120139e-01 2.404355e-01 4.037493e-01 2.948766e-01 3.437452e-01 2.022995e-01 3.093181e-01 1.805952e-01 1.000000e-02
<GCONST> 8.053217e+01
<STATE> 3
<MEAN> 39
 2.907989e+00 3.049944e+00 2.721164e+00 -1.754537e+01 -1.241541e+01 -3.479635e-01 1.624310e+00 -1.959724e+00 7.769278e+00 -4.692412e+00 -6.858186e+00 1.705791e+00 7.131231e-01 -2.003388e-01 -7.180890e-02 -1.453917e-01 2.856591e-01 4.176179e-01 3.745628e-01 -1.205628e-02 -9.485307e-03 -3.561653e-02 -4.191942e-02 -1.630465e-01 4.440030e-02 -7.282445e-03 -1.398415e-01 -5.840420e-02 -2.868048e-03 2.169988e-01 2.686051e-01 5.723760e-02 -3.122222e-02 -9.837408e-03 -1.169116e-01 -3.218703e-02 5.925408e-02 -3.767223e-02 -3.042835e-03
<VARIANCE> 39
 1.720760e+00 3.949888e+00 4.034795e+00 6.987828e+00 1.053884e+01 1.939286e+01 9.685386e+00 8.729362e+00 1.223320e+01 7.519928e+00 1.387741e+01 6.894199e+00 1.000000e-02 1.842738e-01 3.439102e-01 3.598297e-01 1.073398e+00 1.409622e+00 1.478261e+00 9.247855e-01 8.053429e-01 1.429564e+00 7.339249e-01 1.214772e+00 6.878844e-01 1.000000e-02 9.932923e-02 6.119835e-02 7.646831e-02 1.855957e-01 2.889379e-01 2.094833e-01 2.012015e-01 1.866366e-01 1.707365e-01 1.389364e-01 1.882441e-01 1.423376e-01 1.000000e-02
<GCONST> 5.574951e+01
<STATE> 4
<MEAN> 39
 -6.154680e+00 -1.904526e+00 2.656697e+00 -4.239093e+00 3.971773e+00 1.409421e+00 -2.679448e+00 -6.104283e+00 7.522981e-01 -6.506947e+00 -6.560184e+00 -5.616829e-01 4.104273e-01 -5.520679e-01 -9.400971e-02 8.079848e-02 6.108897e-01 6.235230e-01 -6.183971e-01 -3.008492e-01 -4.427510e-01 -2.398673e-01 1.792885e-02 -1.734487e-01 -1.661378e-01 -1.774454e-02 7.030579e-02 4.462837e-02 1.487047e-02 -1.314852e-01 -1.707165e-01 -7.049799e-02 -8.833795e-03 1.590514e-02 6.520836e-02 1.588673e-02 -4.392970e-02 -1.064174e-02 1.656899e-03
<VARIANCE> 39
 8.732555e+00 4.787633e+00 4.645514e+00 1.439443e+01 1.818499e+01 3.399511e+01 1.598312e+01 1.687003e+01 1.590442e+01 1.285939e+01 1.987312e+01 1.197930e+01 1.212729e-02 6.351527e-01 5.205827e-01 6.119418e-01 1.045377e+00 2.583129e+00 2.449468e+00 1.393838e+00 1.136313e+00 1.615270e+00 1.494316e+00 1.881666e+00 1.594576e+00 1.000000e-02 8.666711e-02 6.741209e-02 1.424022e-01 1.794310e-01 3.891117e-01 4.850639e-01 2.561254e-01 2.185840e-01 3.243000e-01 3.422889e-01 3.411509e-01 3.294653e-01 1.000000e-02
<GCONST> 7.379513e+01
<TRANSP> 5
 0.000000e+00 1.000000e+00 0.000000e+00 0.000000e+00 0.000000e+00
 0.000000e+00 9.346405e-01 6.535948e-02 0.000000e+00 0.000000e+00
 0.000000e+00 0.000000e+00 9.487180e-01 5.128206e-02 0.000000e+00
 0.000000e+00 0.000000e+00 0.000000e+00 9.386503e-01 6.134969e-02
 0.000000e+00 0.000000e+00 0.000000e+00 0.000000e+00 0.000000e+00
<ENDHMM>
