~o
<STREAMINFO> 1 39
<VECSIZE> 39<NULLD><MFCC_E_D_A><DIAGC>
~h "nine"
<BEGINHMM>
<NUMSTATES> 5
<STATE> 2
<MEAN> 39
 -7.126811e+00 -3.018698e+00 3.089279e+00 -5.727542e+00 -5.216642e+00 -9.600536e+00 -5.287307e+00 -6.487633e+00 -5.528227e+00 -9.387294e+00 -9.006834e+00 -3.080002e+00 5.512810e-01 2.820424e-01 -8.090430e-01 -8.387060e-01 -5.220578e-01 4.588408e-01 -9.799144e-02 -4.610909e-01 3.455385e-01 -1.508556e-01 -4.778100e-01 -1.542650e-01 -9.324379e-02 2.941557e-02 -6.903810e-02 -8.770613e-02 -9.480336e-02 2.560016e-02 1.875480e-01 1.482962e-01 4.052694e-02 6.427377e-03 9.721881e-02 9.724794e-02 1.231705e-01 -7.028167e-03 -4.778172e-03
<VARIANCE> 39
 4.077374e+01 5.777869e+01 8.126160e+01 5.623593e+01 8.194053e+01 6.128817e+01 6.558180e+01 8.338750e+01 4.350405e+01 5.271389e+01 6.539256e+01 4.084022e+01 5.773918e-02 1.230217e+00 3.132859e+00 4.223005e+00 2.386096e+00 4.788314e+00 4.572018e+00 3.487514e+00 6.488770e+00 3.193938e+00 3.308994e+00 3.194621e+00 2.595899e+00 1.000000e-02 2.214231e-01 4.758655e-01 6.128658e-01 4.232318e-01 5.968782e-01 7.074741e-01 6.316541e-01 1.172914e+00 5.804015e-01 6.038654e-01 4.988249e-01 4.647918e-01 1.000000e-02
<GCONST> 1.156293e+02
<STATE> 3
<MEAN> 39
 -8.127645e+00 -1.106116e+01 -1.990656e+00 -1.262330e+01 2.215535e+00 -5.487436e+00 -9.734979e+00 -3.935745e+00 -7.918256e+00 -1.005692e+01 -5.470429e+00 -5.096132e+00 6.848097e-01 -1.066780e-01 2.471291e-01 5.405334e-01 -1.864478e-01 -4.994814e-01 2.424910e-01 2.314123e-01 -2.100520e-01 -1.215809e-01 2.435535e-01 1.634727e-02 -7.163521e-02 -4.334998e-03 -1.604867e-02 5.518219e-02 8.497787e-02 4.528456e-03 -1.072237e-01 -2.205889e-02 3.873959e-02 3.772004e-02 -2.001344e-02 1.907692e-02 -4.651450e-02 2.445724e-02 -6.206115e-04
<VARIANCE> 39
 4.311674e+01 4.844556e+01 8.677886e+01 8.207231e+01 1.407327e+02 5.897296e+01 7.425611e+01 6.094444e+01 7.292300e+01 5.873293e+01 5.129461e+01 4.159863e+01 1.918980e-02 1.521463e-01 4.878535e-01 8.518275e-01 7.629758e-01 1.694617e+00 9.626678e-01 1.359699e+00 1.445606e+00 1.392650e+00 1.621134e+00 1.185851e+00 1.348316e+00 1.000000e-02 2.029586e-02 5.712204e-02 7.317803e-02 9.395344e-02 1.524911e-01 1.362352e-01 1.702190e-01 1.864833e-01 2.100602e-01 2.121179e-01 1.657758e-01 1.912999e-01 1.000000e-02
<GCONST> 8.228976e+01
<STATE> 4
<MEAN> 39
 -9.566702e+00 -7.660670e-01 9.192023e+00 -6.670536e+00 -4.939691e+00 -3.571560e+00 -2.411013e+00 -6.958729e+00 -6.696286e+00 -5.659882e+00 -6.795950e+00 -3.793116e+00 4.501465e-01 -1.334871e-01 1.857325e-01 3.184414e-02 5.104433e-01 3.558363e-01 6.127467e-03 2.366556e-01 2.084334e-01 2.434868e-01 1.167742e-01 2.007986e-01 1.938859e-01 -1.630631e-02 -8.387401e-03 -3.894718e-02 -6.092016e-02 7.246607e-03 5.750459e-02 9.714549e-03 -1.242773e-03 4.564483e-02 2.879940e-02 -1.069077e-04 4.029116e-02 1.552220e-02 -6.789620e-04
<VARIANCE> 39
 3.646252e+01 3.124218e+01 4.425348e+01 8.361526e+01 8.005611e+01 6.261207e+01 5.676178e+01 6.803200e+01 5.507887e+01 5.009805e+01 5.495683e+01 4.706435e+01 5.086203e-02 6.428361e-01 1.259438e+00 1.735890e+00 2.763103e+00 2.606965e+00 3.599723e+00 2.839333e+00 3.252238e+00 2.614308e+00 2.750735e+00 2.594976e+00 2.073674e+00 1.000000e-02 8.715943e-02 1.592596e-01 2.131118e-01 4.105510e-01 3.561450e-01 5.394176e-01 4.772967e-01 5.074931e-01 4.453535e-01 4.363596e-01 4.299994e-01 3.569825e-01 1.000000e-02
<GCONST> 1.034830e+02
<TRANSP> 5
 0.000000e+00 1.000000e+00 0.000000e+00 0.000000e+00 0.000000e+00
 0.000000e+00 9.299393e-01 7.006072e-02 0.000000e+00 0.000000e+00
 0.000000e+00 0.000000e+00 9.513934e-01 4.860662e-02 0.000000e+00
 0.000000e+00 0.000000e+00 0.000000e+00 9.580889e-01 4.191114e-02
 0.000000e+00 0.000000e+00 0.000000e+00 0.000000e+00 0.000000e+00
<ENDHMM>
