~o
<STREAMINFO> 1 39
<VECSIZE> 39<NULLD><MFCC_E_D_A><DIAGC>
~h "nine"
<BEGINHMM>
<NUMSTATES> 5
<STATE> 2
<MEAN> 39
 -1.271463e+01 -2.037151e+00 -4.630359e-01 -9.986762e-01 -3.138925e-01 -1.961504e+00 9.266649e-01 1.441618e-01 -1.011109e+00 -1.583336e+00 -1.626200e-01 -7.344533e-03 -2.036245e-02 1.106032e-01 3.163377e-01 2.949171e-01 3.156092e-01 2.173266e-01 2.041695e-01 -7.442766e-02 -1.591776e-01 -1.445442e-01 -5.576313e-02 -1.774129e-01 -2.657036e-01 1.374579e-02 1.336490e-01 9.857564e-02 1.267224e-01 5.424157e-02 -1.033148e-01 -6.597673e-02 3.279682e-03 1.331527e-02 -5.964645e-02 -2.335267e-02 -4.457669e-02 -7.034263e-02 8.114173e-03
<VARIANCE> 39
 2.046572e+00 4.941883e+00 5.384437e+00 8.662606e+00 1.238072e+01 1.725344e+01 1.077241e+01 1.604061e+01 1.585136e+01 1.036518e+01 1.587738e+01 1.180393e+01 1.000000e-02 3.383926e-01 7.144391e-01 8.187890e-01 1.160809e+00 1.102013e+00 1.522749e+00 1.546161e+00 2.026221e+00 1.691865e+00 9.152367e-01 1.823907e+00 1.270455e+00 1.000000e-02 1.353652e-01 1.259645e-01 1.642678e-01 2.128139e-01 2.984029e-01 3.328954e-01 3.227056e-01 4.692897e-01 3.510750e-01 1.494953e-01 3.624144e-01 2.624475e-01 1.000000e-02
<GCONST> 6.941419e+01
<STATE> 3
<MEAN> 39
 1.162329e+00 1.960723e-01 1.015888e+01 -8.499358e-01 -7.390833e+00 -6.199767e+00 -5.582814e+00 8.336008e+00 -1.001861e+01 -6.874493e+00 -7.420032e+00 -6.388123e+00 7.288145e-01 3.283023e-02 -1.490687e-01 1.567775e-02 -1.478693e-01 -1.944322e-01 -2.027254e-01 6.384317e-03 1.549296e-01 -1.166274e-01 -1.552068e-01 -3.853837e-02 3.473977e-02 -1.600599e-03 -8.289771e-02 -7.605987e-02 -9.645537e-02 -4.894879e-02 4.182632e-02 1.559733e-02 -1.388871e-02 -2.874641e-03 1.967585e-02 -1.800754e-02 3.492505e-02 3.525855e-02 -5.577938e-03
<VARIANCE> 39
 1.558960e+01 6.895374e+01 5.125581e+01 5.068658e+01 5.765910e+01 3.412447e+01 6.992215e+01 7.840408e+01 1.692755e+01 1.557642e+01 1.672370e+01 2.605750e+01 3.101879e-02 1.977565e+00 3.520977e+00 3.530438e+00 3.534467e+00 5.560874e+00 3.320121e+00 3.875784e+00 4.647854e+00 1.569724e+00 1.812828e+00 1.502176e+00 2.186361e+00 1.000000e-02 2.041574e-01 4.109639e-01 3.817483e-01 5.469503e-01 9.235839e-01 6.351981e-01 5.860116e-01 6.445865e-01 2.753239e-01 3.378289e-01 2.817394e-01 2.849937e-01 1.000000e-02
<GCONST> 1.037399e+02
<STATE> 4
<MEAN> 39
 -1.055230e+01 -1.672279e+00 8.036502e-01 -1.560781e+00 -2.882911e+00 -6.027295e+00 -1.292493e+00 -5.795984e-02 -4.755407e+00 -5.895662e+00 -2.769381e+00 -1.212557e+00 5.587132e-02 -1.684797e-01 8.870523e-02 -2.146889e-01 1.777325e-02 1.593710e-01 1.860394e-01 -9.239294e-03 -2.734804e-01 2.505620e-01 3.504283e-01 1.568539e-01 4.181575e-02 -9.268348e-03 2.814281e-02 3.912947e-02 5.197152e-02 1.572206e-02 -2.452401e-02 2.006893e-02 3.501531e-02 2.887205e-03 2.654377e-02 8.768376e-02 -5.853491e-03 6.026722e-04 2.415668e-03
<VARIANCE> 39
 3.047694e+00 5.340390e+00 9.683748e+00 8.667677e+00 1.047070e+01 1.630406e+01 1.302591e+01 3.533993e+01 2.595498e+01 2.970038e+01 1.531304e+01 1.486084e+01 1.000000e-02 2.215046e-01 3.462202e-01 1.014686e+00 8.998775e-01 1.200112e+00 1.597282e+00 1.582976e+00 2.394404e+00 1.986339e+00 2.146160e+00 1.832241e+00 1.369097e+00 1.000000e-02 4.328415e-02 8.008121e-02 2.025945e-01 1.677434e-01 2.371238e-01 2.946025e-01 3.387008e-01 5.000187e-01 4.038024e-01 4.489546e-01 3.913511e-01 2.789375e-01 1.000000e-02
<GCONST> 7.271606e+01
<TRANSP> 5
 0.000000e+00 1.000000e+00 0.000000e+00 0.000000e+00 0.000000e+00
 0.000000e+00 9.530202e-01 4.697987e-02 0.000000e+00 0.000000e+00
 0.000000e+00 0.000000e+00 9.762712e-01 2.372881e-02 0.000000e+00
 0.000000e+00 0.000000e+00 0.000000e+00 9.575757e-01 4.242424e-02
 0.000000e+00 0.000000e+00 0.000000e+00 0.000000e+00 0.000000e+00
<ENDHMM>
