~o
<STREAMINFO> 1 39
<VECSIZE> 39<NULLD><MFCC_E_D_A><DIAGC>
~h "nine"
<BEGINHMM>
<NUMSTATES> 5
<STATE> 2
<MEAN> 39
 -7.227572e+00 2.910341e+00 6.082891e+00 2.120733e+00 8.168000e+00 -3.965450e+00 -2.181393e+00 -7.506040e+00 -9.708025e-01 -8.044065e+00 -6.374482e+00 -3.521378e+00 3.406525e-01 1.423415e-03 4.435073e-02 3.728402e-02 5.804297e-02 -3.318552e-02 3.183433e-02 5.374565e-02 1.975434e-02 3.418891e-03 3.308061e-02 3.497843e-02 5.285287e-02 1.798937e-03 4.813546e-02 3.351207e-02 4.708739e-02 8.328371e-03 -2.504202e-02 -8.319923e-04 -9.824594e-03 -3.408478e-02 -2.827709e-02 9.952829e-03 4.148379e-02 2.265698e-02 2.218827e-03
<VARIANCE> 39
 8.146738e+00 9.110432e+00 8.281153e+00 1.394046e+01 1.263634e+01 1.374341e+01 2.539234e+01 2.178563e+01 2.261695e+01 1.438835e+01 1.693979e+01 1.643651e+01 1.632267e-02 4.638229e-01 6.536348e-01 6.631978e-01 7.220771e-01 9.636077e-01 1.361062e+00 1.744096e+00 1.517227e+00 1.893893e+00 1.395164e+00 1.633549e+00 1.257098e+00 1.000000e-02 1.221853e-01 1.175325e-01 1.335358e-01 1.471908e-01 2.044991e-01 2.941364e-01 3.474974e-01 3.075964e-01 3.751005e-01 2.906785e-01 3.224523e-01 2.818020e-01 1.000000e-02
<GCONST> 7.346639e+01
<STATE> 3
<MEAN> 39
 -2.094653e+00 8.452198e+00 9.971794e+00 2.809738e+00 2.647746e+00 -4.606840e+00 -2.167142e+00 -1.188470e+01 -5.175620e+00 -7.027645e+00 -4.299962e+00 -2.218255e+00 6.192903e-01 1.963385e+00 1.538447e-01 9.674897e-01 -1.392864e+00 -2.813689e+00 -8.810478e-01 -1.478992e+00 7.445046e-02 6.720517e-01 -3.342124e-02 -1.582915e-01 7.544637e-01 8.048280e-02 -1.624840e-01 -7.194068e-01 -5.923164e-01 -6.970147e-01 -4.680043e-01 4.907708e-02 -4.263740e-01 1.114656e+00 1.102871e+00 -2.535994e-02 -7.321141e-01 -2.378139e-01 -1.070502e-02
<VARIANCE> 39
 1.782913e+01 1.005960e+01 7.740105e+00 8.136851e+00 2.904716e+01 1.387257e+01 2.033983e+01 2.313851e+01 1.992501e+01 9.199293e+00 7.316961e+00 6.501716e+00 1.750631e-02 9.875370e-01 2.795211e+00 1.260352e+00 3.395663e+00 3.235201e+00 1.316763e+00 2.229228e+00 6.719747e+00 6.332510e+00 1.327385e+00 2.265598e+00 1.334284e+00 1.000000e-02 3.304921e-01 2.660127e-01 2.850302e-01 2.685603e-01 8.322586e-01 5.420333e-01 2.238244e-01 7.475187e-01 4.648733e-01 2.239518e-01 2.221565e-01 3.934035e-01 1.000000e-02
<GCONST> 8.655574e+01
<STATE> 4
<MEAN> 39
 1.309569e+00 5.525392e-01 -7.905953e-01 -7.404527e+00 -2.099957e+00 -2.197818e+00 -4.897439e+00 -3.677330e+00 1.082914e+01 -8.577648e+00 -8.081777e+00 -6.299682e+00 7.375405e-01 6.852778e-03 -3.235745e-01 -6.973678e-01 -1.379193e-01 1.612424e-01 1.179811e-01 1.325095e-01 2.110832e-01 4.478697e-01 -1.746574e-01 5.870631e-02 -2.507547e-01 -1.969836e-03 -3.859619e-02 1.143874e-01 8.437659e-02 2.102275e-01 1.819302e-01 -5.045588e-02 1.310636e-01 -2.001422e-01 -2.984249e-01 8.669136e-04 1.096442e-01 6.062891e-02 -2.141865e-03
<VARIANCE> 39
 1.293567e+01 8.658788e+00 4.247732e+01 1.593806e+01 3.251438e+01 1.724222e+01 2.233923e+01 2.950499e+01 3.784915e+01 1.212407e+01 2.911091e+01 2.276829e+01 1.412179e-02 5.659252e-01 1.170847e+00 3.095646e+00 2.071332e+00 2.514879e+00 1.453038e+00 1.723440e+00 5.946344e+00 4.755907e+00 1.139143e+00 2.779799e+00 2.014835e+00 1.000000e-02 1.085805e-01 1.469589e-01 3.017173e-01 3.344038e-01 5.297031e-01 2.370900e-01 3.982107e-01 1.028210e+00 5.784118e-01 2.201285e-01 4.636062e-01 3.891346e-01 1.000000e-02
<GCONST> 9.019769e+01
<TRANSP> 5
 0.000000e+00 1.000000e+00 0.000000e+00 0.000000e+00 0.000000e+00
 0.000000e+00 9.739777e-01 2.602231e-02 0.000000e+00 0.000000e+00
 0.000000e+00 0.000000e+00 7.666667e-01 2.333333e-01 0.000000e+00
 0.000000e+00 0.000000e+00 0.000000e+00 9.440000e-01 5.600000e-02
 0.000000e+00 0.000000e+00 0.000000e+00 0.000000e+00 0.000000e+00
<ENDHMM>
