~o
<STREAMINFO> 1 39
<VECSIZE> 39<NULLD><MFCC_E_D_A><DIAGC>
~h "nine"
<BEGINHMM>
<NUMSTATES> 5
<STATE> 2
<MEAN> 39
 -5.628144e+00 4.822597e-01 6.236691e+00 -1.138668e+00 4.688912e+00 -2.960140e+00 -4.042680e+00 -7.363618e+00 -2.348624e+00 -4.584062e+00 -8.930244e+00 -1.092599e+00 4.371193e-01 5.231484e-01 4.887085e-01 6.601586e-01 -2.145325e-02 -3.514298e-01 -7.315255e-01 -1.243566e-01 6.278166e-01 -1.538550e-01 6.647050e-01 3.939750e-01 -4.067641e-01 3.023979e-02 2.512743e-02 -1.451844e-01 -7.614090e-03 -1.007425e-01 -8.336576e-02 -1.105359e-01 -9.155444e-02 3.747726e-01 5.614476e-02 5.407061e-02 1.543564e-01 -1.935436e-01 2.096373e-03
<VARIANCE> 39
 1.064860e+01 1.269228e+01 1.252949e+01 6.154655e+00 9.406674e+00 1.297935e+01 1.033293e+01 1.316728e+01 1.134968e+01 1.870273e+01 1.272865e+01 9.878366e+00 2.457644e-02 9.309694e-01 1.090588e+00 8.882578e-01 8.196185e-01 1.228020e+00 1.939001e+00 1.140093e+00 2.123532e+00 1.216438e+00 2.034763e+00 1.957371e+00 1.386417e+00 1.000000e-02 1.786643e-01 4.602340e-01 2.422894e-01 1.533298e-01 2.234170e-01 3.396809e-01 2.024871e-01 3.766067e-01 2.589349e-01 3.732735e-01 2.990775e-01 2.944899e-01 1.000000e-02
<GCONST> 7.556735e+01
<STATE> 3
<MEAN> 39
 -1.635375e+00 -7.241173e+00 5.294147e+00 -5.333370e+00 -6.304955e-01 -3.972089e+00 -4.495128e+00 6.670452e+00 -2.038144e+00 -9.879311e-01 -1.086123e-01 -1.056490e+01 6.913868e-01 -5.321878e-02 -4.246182e-02 -9.493290e-03 1.584301e-02 -1.672435e-02 2.429077e-02 1.637625e-01 -9.903151e-02 -8.332244e-02 -2.904293e-02 5.726628e-02 6.196852e-02 -1.326620e-03 -5.371970e-03 8.746096e-02 -2.300842e-02 8.237330e-02 1.129769e-01 8.588784e-02 2.077493e-02 -2.055692e-01 -3.617855e-03 -5.450002e-02 -1.440188e-01 1.204661e-01 -8.719845e-04
<VARIANCE> 39
 5.152588e+00 3.374949e+01 4.342588e+01 1.192432e+01 3.699242e+01 7.428054e+01 4.612992e+01 3.709607e+01 2.115871e+01 1.859404e+01 2.678429e+01 2.296881e+01 1.000000e-02 2.949835e-01 2.666655e+00 2.263436e+00 1.121748e+00 3.063603e+00 4.334429e+00 2.338422e+00 6.096123e+00 1.459187e+00 1.919861e+00 3.132456e+00 2.357701e+00 1.000000e-02 5.718467e-02 2.315310e-01 2.563494e-01 1.804962e-01 3.972548e-01 5.810983e-01 3.404635e-01 8.150073e-01 2.648264e-01 4.215891e-01 5.475625e-01 3.367336e-01 1.000000e-02
<GCONST> 9.196596e+01
<STATE> 4
<MEAN> 39
 -6.447089e+00 -6.329916e-01 6.194183e+00 -6.250623e-01 3.777299e+00 -3.621603e+00 -1.968441e+00 -5.981870e+00 -1.462975e+00 -5.499365e+00 -7.685577e+00 -7.775410e-01 4.363808e-01 -2.393169e-01 -1.770344e-01 -3.813502e-01 3.532915e-02 2.268379e-01 3.639076e-01 -1.284042e-01 -2.362750e-01 2.773686e-01 -2.837031e-01 -3.345944e-01 1.102938e-01 -1.498036e-02 -1.766254e-02 -4.001264e-02 4.585738e-02 -6.022068e-02 -1.108579e-01 -7.103043e-02 6.008494e-03 6.838425e-02 -4.285745e-02 2.736432e-02 1.344199e-01 -4.696033e-02 -3.842224e-05
<VARIANCE> 39
 8.836679e+00 1.083973e+01 1.152350e+01 8.748451e+00 9.396075e+00 1.580842e+01 2.123317e+01 1.847256e+01 1.534421e+01 2.239907e+01 1.588652e+01 8.187040e+00 1.640649e-02 4.614298e-01 7.844151e-01 5.901228e-01 1.073133e+00 1.281202e+00 1.839965e+00 1.458125e+00 2.203064e+00 1.287679e+00 2.397933e+00 1.646362e+00 8.585941e-01 1.000000e-02 7.579121e-02 1.478237e-01 1.002386e-01 2.271345e-01 2.572243e-01 3.361577e-01 3.283851e-01 4.449748e-01 2.549387e-01 4.276271e-01 3.300240e-01 1.698682e-01 1.000000e-02
<GCONST> 7.349489e+01
<TRANSP> 5
 0.000000e+00 1.000000e+00 0.000000e+00 0.000000e+00 0.000000e+00
 0.000000e+00 9.152542e-01 8.474576e-02 0.000000e+00 0.000000e+00
 0.000000e+00 0.000000e+00 9.653979e-01 3.460208e-02 0.000000e+00
 0.000000e+00 0.000000e+00 0.000000e+00 9.494950e-01 5.050505e-02
 0.000000e+00 0.000000e+00 0.000000e+00 0.000000e+00 0.000000e+00
<ENDHMM>
