~o
<STREAMINFO> 1 39
<VECSIZE> 39<NULLD><MFCC_E_D_A><DIAGC>
~h "one"
<BEGINHMM>
<NUMSTATES> 5
<STATE> 2
<MEAN> 39
 -2.387879e+00 3.609621e+00 -1.452608e+00 -1.418421e+01 -9.547569e+00 -5.245946e+00 -5.156974e+00 -4.609588e+00 -7.237489e+00 -6.537162e+00 -5.533650e+00 -6.019705e+00 5.017748e-01 6.894817e-01 -4.188854e-01 -1.031427e+00 -1.787639e+00 -3.585036e-01 7.252358e-01 2.276233e-03 1.578402e-01 -5.499495e-01 -2.605072e-01 -1.052507e-01 -1.441221e-01 3.992140e-02 -1.841849e-01 -2.746987e-01 -6.545941e-02 1.791765e-01 3.930753e-01 2.519458e-01 4.855876e-02 -3.838807e-02 4.047414e-02 2.197896e-02 1.074540e-01 6.818496e-02 -4.906652e-03
<VARIANCE> 39
 4.888775e+01 2.794590e+01 3.714085e+01 1.151573e+02 7.788636e+01 4.308009e+01 3.305136e+01 3.276455e+01 4.169201e+01 3.210035e+01 3.351429e+01 2.280566e+01 6.068199e-02 1.789546e+00 2.702488e+00 1.805140e+00 3.888361e+00 5.370029e+00 4.901291e+00 2.920450e+00 2.816271e+00 2.981645e+00 2.921463e+00 2.409821e+00 1.927714e+00 1.000000e-02 2.744362e-01 2.587884e-01 2.754197e-01 7.300576e-01 7.320565e-01 6.172173e-01 5.659229e-01 5.395209e-01 4.959086e-01 4.709796e-01 4.745861e-01 3.363973e-01 1.000000e-02
<GCONST> 1.072734e+02
<STATE> 3
<MEAN> 39
 -5.468415e+00 -9.864183e+00 -6.880244e+00 -1.807435e+01 3.030167e+00 -1.114558e+00 -8.284623e+00 -4.768258e+00 -7.910585e+00 -8.479048e+00 -6.486548e+00 -5.351888e+00 6.812922e-01 -2.926363e-01 -2.261459e-01 5.075470e-01 1.119276e+00 2.006571e-01 -8.113462e-01 -2.388982e-01 -4.326123e-02 3.650705e-01 -1.699720e-01 -2.817360e-01 1.533574e-01 -6.893083e-03 6.326862e-03 2.382739e-01 2.057073e-01 1.080413e-01 -2.268678e-01 -2.107850e-01 7.009644e-02 -3.942041e-02 3.422436e-02 4.208397e-02 -3.233042e-02 2.981142e-02 -2.560463e-03
<VARIANCE> 39
 4.555276e+01 4.722356e+01 4.400478e+01 7.667607e+01 1.000353e+02 7.938792e+01 6.839720e+01 5.367430e+01 8.730558e+01 5.753675e+01 5.263276e+01 4.222694e+01 2.008651e-02 2.481175e-01 1.680804e+00 1.368408e+00 1.092447e+00 3.375958e+00 2.661213e+00 2.707440e+00 2.706318e+00 2.230844e+00 2.114128e+00 2.426570e+00 2.086713e+00 1.000000e-02 3.490609e-02 1.162172e-01 1.323707e-01 1.802798e-01 2.374737e-01 3.632674e-01 3.936099e-01 4.504853e-01 3.621951e-01 3.263871e-01 3.776100e-01 3.130131e-01 1.000000e-02
<GCONST> 9.696725e+01
<STATE> 4
<MEAN> 39
 -8.919000e+00 1.055597e-01 8.814980e+00 -1.441623e+00 -2.813166e+00 -9.975153e+00 -2.935614e+00 -6.291451e+00 -5.508719e+00 -8.155243e+00 -7.996797e+00 -1.616582e+00 4.314200e-01 -2.506076e-01 2.494279e-01 3.036965e-01 3.050462e-01 2.214980e-01 3.342668e-01 3.307986e-01 5.953495e-02 9.088621e-02 2.085994e-01 3.425744e-01 1.248153e-01 -1.532974e-02 9.612216e-04 -1.003077e-01 -1.296814e-01 -8.342504e-02 7.244093e-02 1.121203e-01 -2.315074e-02 1.020767e-01 2.342610e-02 1.430210e-02 4.531111e-02 -1.521112e-02 2.668690e-05
<VARIANCE> 39
 3.102643e+01 3.150247e+01 4.585066e+01 3.263622e+01 6.994256e+01 6.997900e+01 5.494796e+01 5.548864e+01 4.280479e+01 4.920336e+01 5.663235e+01 4.727509e+01 5.465680e-02 4.713503e-01 1.580766e+00 2.051514e+00 1.512467e+00 1.858438e+00 2.436347e+00 2.265634e+00 2.798512e+00 2.077324e+00 2.237335e+00 1.920590e+00 1.743986e+00 1.000000e-02 7.220533e-02 2.016657e-01 2.602734e-01 2.556213e-01 2.542384e-01 3.749830e-01 3.752215e-01 4.058626e-01 3.392816e-01 3.777787e-01 3.167387e-01 3.067031e-01 1.000000e-02
<GCONST> 9.720219e+01
<TRANSP> 5
 0.000000e+00 1.000000e+00 0.000000e+00 0.000000e+00 0.000000e+00
 0.000000e+00 9.001340e-01 9.986595e-02 0.000000e+00 0.000000e+00
 0.000000e+00 0.000000e+00 9.397005e-01 6.029947e-02 0.000000e+00
 0.000000e+00 0.000000e+00 0.000000e+00 9.531447e-01 4.685535e-02
 0.000000e+00 0.000000e+00 0.000000e+00 0.000000e+00 0.000000e+00
<ENDHMM>
