~o
<STREAMINFO> 1 39
<VECSIZE> 39<NULLD><MFCC_E_D_A><DIAGC>
~h "one"
<BEGINHMM>
<NUMSTATES> 5
<STATE> 2
<MEAN> 39
 -3.384586e-02 3.324730e+00 -1.743418e+00 -1.380300e+01 -1.022551e+01 -4.384395e+00 -2.324708e+00 -4.040948e+00 -3.573158e+00 -5.224614e+00 -4.090537e+00 -4.994595e+00 5.056069e-01 8.515295e-01 -2.438765e-01 -5.213745e-01 -1.956869e+00 -5.735094e-01 8.484689e-01 1.165880e-01 5.787355e-02 -2.711697e-01 -1.172498e-01 9.703001e-02 -2.333204e-01 5.203118e-02 -2.421982e-01 -3.262264e-01 -1.140569e-01 1.512488e-01 3.765734e-01 2.660108e-01 6.878134e-02 -1.155830e-03 2.700207e-03 4.615706e-02 1.111182e-01 3.464564e-02 -6.175577e-03
<VARIANCE> 39
 5.596835e+01 3.978700e+01 4.143988e+01 1.298980e+02 8.183669e+01 6.788694e+01 5.828795e+01 4.849169e+01 4.966090e+01 4.162595e+01 3.487798e+01 2.783980e+01 8.852787e-02 2.940810e+00 3.507693e+00 2.534783e+00 4.378098e+00 5.860179e+00 5.602132e+00 3.424755e+00 3.188238e+00 3.037422e+00 2.877880e+00 2.341594e+00 2.114585e+00 1.000000e-02 4.029053e-01 3.876839e-01 3.374171e-01 8.137335e-01 8.266793e-01 7.465041e-01 6.161284e-01 5.607393e-01 4.687456e-01 4.949287e-01 4.194801e-01 3.759025e-01 1.000000e-02
<GCONST> 1.138105e+02
<STATE> 3
<MEAN> 39
 -9.097740e-01 -1.132377e+01 -7.108638e+00 -1.626897e+01 -1.085801e+00 2.889391e+00 -6.740688e+00 -4.793740e+00 -5.710743e+00 -6.643860e+00 -4.733397e+00 -8.341516e+00 7.753183e-01 -2.547819e-01 -3.081194e-01 3.392712e-01 1.229356e+00 3.403516e-01 -6.466509e-01 -3.062089e-01 -9.368131e-02 2.629764e-01 -8.963665e-02 -3.135427e-01 -2.063098e-02 -7.499649e-03 1.993494e-02 2.279984e-01 1.759076e-01 1.111368e-01 -1.860692e-01 -2.036410e-01 5.865576e-02 -5.655724e-02 1.506036e-02 4.292452e-03 -3.028582e-02 5.518989e-02 -2.672267e-03
<VARIANCE> 39
 3.217020e+01 6.540856e+01 4.709451e+01 9.703728e+01 1.047638e+02 9.925694e+01 8.399439e+01 7.280405e+01 1.016872e+02 6.871146e+01 7.660858e+01 4.967938e+01 1.259662e-02 3.304137e-01 2.100454e+00 1.732279e+00 1.616832e+00 3.529138e+00 2.941245e+00 2.447332e+00 3.059604e+00 2.522484e+00 2.288138e+00 2.046716e+00 2.109522e+00 1.000000e-02 4.274835e-02 1.266866e-01 1.531139e-01 2.455873e-01 3.089619e-01 3.790094e-01 3.762247e-01 5.071847e-01 4.290070e-01 3.896634e-01 3.377562e-01 3.310427e-01 1.000000e-02
<GCONST> 1.011890e+02
<STATE> 4
<MEAN> 39
 -6.619941e+00 -1.025446e+00 2.864918e+00 -1.840287e-01 -2.585643e+00 -6.576189e+00 -2.276684e+00 -5.412890e+00 -2.530250e+00 -6.825108e+00 -4.969662e+00 -3.726962e+00 3.975787e-01 -3.516536e-01 1.739910e-01 3.936917e-02 1.916357e-01 2.132838e-01 1.312621e-01 2.437922e-01 1.099879e-01 4.378683e-03 9.488529e-02 2.430849e-01 2.006796e-01 -2.152893e-02 -7.790514e-03 -7.495879e-02 -9.279124e-02 -7.295210e-02 4.214399e-02 6.797138e-02 -2.728553e-02 7.264283e-02 3.017718e-02 1.937276e-02 2.069792e-02 -1.701547e-02 2.402267e-04
<VARIANCE> 39
 4.066959e+01 3.307469e+01 4.524299e+01 4.082681e+01 5.182900e+01 4.654914e+01 4.908557e+01 5.091920e+01 4.748939e+01 6.309615e+01 4.718396e+01 3.054906e+01 7.091979e-02 6.435634e-01 1.499119e+00 1.654934e+00 1.589262e+00 1.970534e+00 2.203404e+00 2.138399e+00 2.733033e+00 2.060318e+00 2.188787e+00 1.919097e+00 1.635627e+00 1.000000e-02 9.044005e-02 1.870464e-01 2.236910e-01 2.580392e-01 3.126413e-01 3.655643e-01 3.637233e-01 4.499289e-01 3.624107e-01 3.832851e-01 3.355367e-01 2.976113e-01 1.000000e-02
<GCONST> 9.706358e+01
<TRANSP> 5
 0.000000e+00 1.000000e+00 0.000000e+00 0.000000e+00 0.000000e+00
 0.000000e+00 9.045467e-01 9.545334e-02 0.000000e+00 0.000000e+00
 0.000000e+00 0.000000e+00 9.412727e-01 5.872730e-02 0.000000e+00
 0.000000e+00 0.000000e+00 0.000000e+00 9.583961e-01 4.160389e-02
 0.000000e+00 0.000000e+00 0.000000e+00 0.000000e+00 0.000000e+00
<ENDHMM>
