~o
<STREAMINFO> 1 39
<VECSIZE> 39<NULLD><MFCC_E_D_A><DIAGC>
~h "one"
<BEGINHMM>
<NUMSTATES> 5
<STATE> 2
<MEAN> 39
 -4.211373e+00 1.763265e+00 4.820040e+00 -3.755112e+00 6.134478e-01 -4.187112e+00 -4.312604e+00 -5.695836e+00 1.762751e+00 -4.625371e+00 -6.484812e+00 1.497455e-01 4.902022e-01 6.528178e-01 3.509271e-01 1.467276e-02 -9.880025e-01 -1.151535e+00 3.532369e-02 3.131346e-01 4.101028e-01 5.481431e-01 9.009149e-02 2.244800e-01 4.381531e-02 2.571400e-02 4.330102e-02 -9.808788e-02 -7.606372e-02 -1.558912e-01 -6.070837e-02 2.516639e-01 1.533484e-01 2.158578e-02 -6.755222e-03 -9.535442e-02 3.736319e-02 6.677802e-03 1.267461e-03
<VARIANCE> 39
 2.113762e+01 1.600235e+01 5.766998e+00 2.769358e+01 4.710237e+01 1.676758e+01 1.537675e+01 1.245791e+01 2.343680e+01 1.380632e+01 1.112802e+01 1.313990e+01 2.810724e-02 9.871401e-01 9.438047e-01 8.874121e-01 2.697443e+00 2.767509e+00 2.984135e+00 2.472945e+00 1.278827e+00 1.921193e+00 1.594209e+00 1.018617e+00 1.220840e+00 1.000000e-02 1.707133e-01 1.861086e-01 1.568741e-01 3.112330e-01 4.521556e-01 5.851137e-01 4.185392e-01 2.508652e-01 4.143304e-01 3.100182e-01 2.239813e-01 2.514306e-01 1.000000e-02
<GCONST> 8.290458e+01
<STATE> 3
<MEAN> 39
 2.059861e+00 -2.640623e+00 8.094925e-02 -1.558652e+01 -7.941917e+00 7.529687e+00 -7.981799e-01 -1.547232e+00 1.992633e+00 -2.104362e+00 1.497159e+00 -3.475312e+00 7.582072e-01 -3.286991e-01 -5.346796e-01 1.132924e-02 1.057267e+00 1.051388e+00 -1.784734e-01 -4.764536e-01 -1.676487e-01 -1.081934e+00 9.245610e-01 8.487114e-01 -1.026083e+00 -5.381715e-03 -7.468466e-02 2.882813e-01 2.849205e-01 4.185523e-01 1.555946e-01 -6.520624e-01 -1.915460e-01 -1.629952e-01 -1.054115e-01 1.165709e-01 -1.526056e-01 1.103046e-02 -3.016120e-03
<VARIANCE> 39
 3.874193e+00 1.462391e+01 1.195096e+01 2.707089e+01 3.389112e+01 3.689859e+01 3.699847e+01 2.183897e+01 2.512562e+01 3.400745e+01 2.882752e+01 3.875229e+01 1.000000e-02 2.779681e-01 1.759192e+00 1.652575e+00 2.416307e+00 1.374133e+00 9.929798e+00 3.264951e+00 2.227140e+00 1.439903e+00 1.951311e+00 2.093972e+00 2.244280e+00 1.000000e-02 6.038296e-02 1.284551e-01 1.081458e-01 2.355558e-01 3.897361e-01 4.517981e-01 6.790127e-01 4.753916e-01 3.311216e-01 3.920107e-01 3.347368e-01 4.837061e-01 1.000000e-02
<GCONST> 8.786062e+01
<STATE> 4
<MEAN> 39
 -4.781464e+00 -4.048774e-01 6.466756e+00 -1.085948e+00 2.895396e+00 -4.684674e+00 -4.251412e+00 -5.406534e+00 -2.938781e+00 -1.562615e+00 -4.321370e+00 -3.895525e+00 5.015477e-01 -3.480148e-01 -6.224876e-02 6.661929e-03 2.371596e-01 3.065311e-01 7.199621e-02 9.155925e-02 -2.020241e-01 7.447412e-02 -5.000555e-01 -4.873381e-01 3.938514e-01 -1.557180e-02 2.154334e-02 -6.292240e-02 -7.766416e-02 -9.291559e-02 -3.009697e-02 1.409844e-01 -2.050573e-02 5.087952e-02 6.193130e-02 -1.722679e-02 3.999623e-02 -1.418176e-02 8.018562e-04
<VARIANCE> 39
 8.930665e+00 1.256397e+01 1.014182e+01 1.396294e+01 1.187869e+01 1.795838e+01 1.440921e+01 1.724788e+01 2.444140e+01 3.047939e+01 2.860236e+01 2.038880e+01 2.676605e-02 3.112192e-01 1.241923e+00 1.035665e+00 1.826683e+00 1.095194e+00 1.985313e+00 1.769836e+00 1.502773e+00 2.305403e+00 1.414158e+00 1.950476e+00 1.083673e+00 1.000000e-02 6.126180e-02 1.603517e-01 1.327198e-01 3.392380e-01 1.976335e-01 4.223095e-01 3.802919e-01 2.724205e-01 4.325438e-01 2.810107e-01 3.683614e-01 1.867808e-01 1.000000e-02
<GCONST> 7.849380e+01
<TRANSP> 5
 0.000000e+00 1.000000e+00 0.000000e+00 0.000000e+00 0.000000e+00
 0.000000e+00 9.375000e-01 6.250000e-02 0.000000e+00 0.000000e+00
 0.000000e+00 0.000000e+00 9.074074e-01 9.259259e-02 0.000000e+00
 0.000000e+00 0.000000e+00 0.000000e+00 9.557522e-01 4.424778e-02
 0.000000e+00 0.000000e+00 0.000000e+00 0.000000e+00 0.000000e+00
<ENDHMM>
