~o
<STREAMINFO> 1 39
<VECSIZE> 39<NULLD><MFCC_E_D_A><DIAGC>
~h "one"
<BEGINHMM>
<NUMSTATES> 5
<STATE> 2
<MEAN> 39
 -1.285394e+01 -2.425218e+00 -2.357885e+00 -2.636559e+00 2.440992e-01 -6.520635e-01 1.857801e+00 -2.460559e-01 1.637256e-01 -1.571303e+00 -5.859302e-02 -1.390194e-02 -8.317118e-03 1.407889e-01 1.589538e-01 2.238763e-01 1.710710e-01 7.464255e-02 2.311951e-02 2.787470e-03 1.510329e-02 -1.160487e-01 -1.490983e-01 -2.062137e-01 -2.169348e-01 9.863929e-03 1.315185e-01 1.276224e-01 1.134098e-01 1.314572e-02 -5.942511e-02 -7.444952e-02 -2.838668e-02 3.418716e-02 -3.899104e-02 -7.211737e-02 -8.150926e-02 -8.573803e-02 8.002721e-03
<VARIANCE> 39
 2.225823e+00 4.692939e+00 8.177017e+00 7.584403e+00 9.918789e+00 1.102806e+01 1.454158e+01 1.517191e+01 1.205933e+01 1.242593e+01 1.224383e+01 1.123206e+01 1.000000e-02 3.602042e-01 8.287035e-01 8.863934e-01 9.550641e-01 1.354860e+00 1.331782e+00 1.812287e+00 1.873922e+00 1.468284e+00 1.524879e+00 1.426915e+00 1.413811e+00 1.000000e-02 1.577491e-01 1.896684e-01 1.537544e-01 1.996685e-01 3.975791e-01 3.164073e-01 3.765573e-01 4.067405e-01 2.903900e-01 2.932719e-01 3.008525e-01 2.377450e-01 1.000000e-02
<GCONST> 7.026218e+01
<STATE> 3
<MEAN> 39
 3.785508e+00 -4.568588e-01 4.793585e+00 -5.766175e+00 -8.057431e+00 -2.503382e+00 -6.694492e-01 5.597141e+00 -7.167950e+00 -5.997526e+00 -5.932075e+00 -5.598569e+00 6.981797e-01 7.703846e-02 -1.136367e-01 1.268342e-02 -1.075145e-01 -2.301017e-01 -2.149152e-01 -6.451908e-02 1.076664e-01 -7.623825e-02 -1.355951e-01 -8.001945e-02 1.681639e-01 -4.888138e-04 -9.176531e-02 -7.886659e-02 -1.025641e-01 -2.584427e-03 7.856736e-02 4.086415e-02 6.722107e-03 2.850061e-03 3.553592e-02 2.154610e-02 4.599330e-02 4.693178e-02 -5.937998e-03
<VARIANCE> 39
 3.496357e+01 6.516273e+01 3.181149e+01 1.519146e+02 6.339977e+01 6.870714e+01 3.862122e+01 4.356551e+01 2.778234e+01 2.751897e+01 1.694912e+01 3.141932e+01 3.998473e-02 2.693438e+00 4.530249e+00 2.500856e+00 6.969409e+00 7.416036e+00 5.697103e+00 3.067016e+00 3.195411e+00 3.088655e+00 1.872428e+00 1.741096e+00 2.796218e+00 1.000000e-02 2.027122e-01 5.516376e-01 2.911419e-01 8.181750e-01 1.205640e+00 8.488644e-01 4.719540e-01 5.333513e-01 6.407226e-01 2.947083e-01 3.533821e-01 4.126585e-01 1.000000e-02
<GCONST> 1.103358e+02
<STATE> 4
<MEAN> 39
 -1.067911e+01 -1.293707e+00 -9.540292e-01 -3.619498e+00 -2.711188e+00 -3.875727e+00 -4.407661e-01 1.147371e-01 -1.503374e+00 -3.166241e+00 -1.604289e+00 -2.370226e-01 2.366737e-02 -1.958675e-01 9.903735e-02 -1.261438e-01 4.238793e-02 2.515205e-01 2.532471e-01 6.437333e-02 -1.664903e-01 1.844042e-01 3.175245e-01 2.329783e-01 -7.911330e-02 -9.229436e-03 1.838027e-02 -1.604670e-03 6.965724e-02 -6.292523e-03 -6.402732e-02 1.459785e-02 6.156097e-03 -3.792144e-02 -4.269693e-03 1.395355e-02 -4.802444e-02 -1.818718e-02 3.087888e-03
<VARIANCE> 39
 4.133279e+00 2.809621e+00 4.053995e+00 9.134823e+00 7.264698e+00 1.017654e+01 1.207184e+01 1.999611e+01 1.209785e+01 2.450351e+01 1.398771e+01 1.138782e+01 1.000000e-02 2.720221e-01 3.054951e-01 7.257903e-01 8.814785e-01 8.636072e-01 7.994927e-01 1.665170e+00 2.463939e+00 1.310077e+00 1.331152e+00 1.070443e+00 1.146888e+00 1.000000e-02 4.910381e-02 6.177020e-02 1.436810e-01 1.915817e-01 1.977831e-01 1.485877e-01 3.677374e-01 5.726795e-01 3.082725e-01 1.864799e-01 1.866416e-01 2.528101e-01 1.000000e-02
<GCONST> 6.296027e+01
<TRANSP> 5
 0.000000e+00 1.000000e+00 0.000000e+00 0.000000e+00 0.000000e+00
 0.000000e+00 9.527559e-01 4.724410e-02 0.000000e+00 0.000000e+00
 0.000000e+00 0.000000e+00 9.729730e-01 2.702703e-02 0.000000e+00
 0.000000e+00 0.000000e+00 0.000000e+00 9.552239e-01 4.477612e-02
 0.000000e+00 0.000000e+00 0.000000e+00 0.000000e+00 0.000000e+00
<ENDHMM>
