~o
<STREAMINFO> 1 39
<VECSIZE> 39<NULLD><MFCC_E_D_A><DIAGC>
~h "one"
<BEGINHMM>
<NUMSTATES> 5
<STATE> 2
<MEAN> 39
 -9.683849e+00 3.232771e+00 6.603154e+00 9.418926e-02 7.159202e+00 -3.904838e+00 -3.178769e+00 -7.460748e+00 -2.562181e+00 -8.175285e+00 -6.903630e+00 -3.422972e+00 2.787308e-01 -3.106415e-02 -8.896299e-03 3.291311e-02 -2.799218e-03 -1.679479e-02 -4.238741e-02 7.994639e-02 7.169209e-03 -4.883366e-02 1.097972e-02 6.809330e-03 -1.356918e-02 2.634044e-04 1.925476e-02 1.235776e-02 -4.349112e-03 -9.327290e-03 -3.371718e-05 -3.542250e-02 -2.029980e-03 2.926162e-02 -2.780508e-03 6.367359e-03 2.702017e-02 2.179527e-02 7.559848e-04
<VARIANCE> 39
 7.073328e+00 5.654033e+00 8.386682e+00 6.883358e+00 1.741414e+01 1.575738e+01 1.528021e+01 1.921723e+01 2.160106e+01 1.883311e+01 1.535515e+01 1.521789e+01 1.000000e-02 5.525905e-01 4.315265e-01 6.889021e-01 6.331653e-01 8.308233e-01 1.550085e+00 1.524683e+00 1.499604e+00 1.938698e+00 1.753149e+00 1.556801e+00 1.496594e+00 1.000000e-02 1.071511e-01 7.593020e-02 1.435178e-01 1.225845e-01 1.645052e-01 3.129998e-01 2.930205e-01 3.044800e-01 4.014913e-01 3.545002e-01 3.149472e-01 3.315978e-01 1.000000e-02
<GCONST> 7.080782e+01
<STATE> 3
<MEAN> 39
 -6.419041e+00 2.853318e+00 5.229666e+00 -1.701912e-01 3.193349e+00 -7.747458e+00 -3.012396e+00 -5.591726e+00 2.541550e-01 -6.169537e+00 -5.316792e+00 -2.831023e+00 3.133828e-01 9.625387e-01 7.259172e-01 -1.761756e-01 -5.811857e-01 -5.485608e-01 3.175075e-02 -1.007039e-01 6.613012e-01 2.203190e-01 1.223775e-01 5.255913e-01 2.549715e-01 3.311937e-02 2.236062e-01 1.962035e-01 -1.157971e-01 -3.682421e-01 -2.861949e-01 4.375467e-02 -9.344906e-02 -1.859781e-02 3.528329e-02 -1.086410e-01 5.359705e-02 3.494452e-02 7.420185e-03
<VARIANCE> 39
 7.769285e+00 1.104784e+01 1.049485e+01 8.978209e+00 2.269468e+01 2.896991e+01 1.745599e+01 1.616631e+01 2.319467e+01 1.959204e+01 1.002867e+01 1.174156e+01 1.095988e-02 2.233393e+00 1.915435e+00 1.275482e+00 2.541208e+00 2.920418e+00 2.279363e+00 1.656080e+00 1.778385e+00 2.301369e+00 1.810378e+00 1.324245e+00 1.205462e+00 1.000000e-02 2.344114e-01 3.078862e-01 2.628203e-01 4.454418e-01 4.151079e-01 4.837652e-01 3.942407e-01 2.257465e-01 3.901823e-01 3.698322e-01 2.188790e-01 2.099272e-01 1.000000e-02
<GCONST> 8.365578e+01
<STATE> 4
<MEAN> 39
 4.296143e+00 7.227440e+00 -3.695621e+00 -1.279207e+01 -2.418746e+00 -1.656708e+00 -3.503915e+00 -3.065578e+00 4.447833e+00 -9.038542e+00 -1.705347e+00 -8.212979e-01 7.995263e-01 3.420814e-01 -4.270475e-01 -5.834621e-01 2.184563e-01 8.733639e-03 6.989166e-02 -2.990569e-01 -4.096437e-01 4.489387e-01 -3.801017e-02 -2.226485e-01 -1.845995e-01 1.509949e-02 -2.473310e-01 -1.554631e-01 2.133300e-01 3.963903e-01 2.251916e-01 -8.473489e-02 5.542448e-02 -5.345372e-02 -1.141243e-01 3.899662e-02 -1.426802e-01 -6.543465e-02 -8.001750e-03
<VARIANCE> 39
 2.393125e+00 2.165801e+01 4.130814e+01 6.033186e+01 1.647867e+01 3.609973e+01 3.014910e+01 3.481749e+01 3.051261e+01 2.287896e+01 2.730873e+01 1.812665e+01 1.000000e-02 1.135100e+00 1.176007e+00 4.058116e+00 6.427338e+00 2.938623e+00 3.637962e+00 3.791959e+00 3.891285e+00 3.898748e+00 3.021366e+00 2.695121e+00 1.895406e+00 1.000000e-02 1.546442e-01 2.674707e-01 3.914188e-01 3.736162e-01 4.982923e-01 5.843084e-01 6.735278e-01 7.982094e-01 7.126112e-01 5.607076e-01 5.386365e-01 3.369338e-01 1.000000e-02
<GCONST> 9.885017e+01
<TRANSP> 5
 0.000000e+00 1.000000e+00 0.000000e+00 0.000000e+00 0.000000e+00
 0.000000e+00 9.698276e-01 3.017241e-02 0.000000e+00 0.000000e+00
 0.000000e+00 0.000000e+00 8.985507e-01 1.014493e-01 0.000000e+00
 0.000000e+00 0.000000e+00 0.000000e+00 9.270833e-01 7.291667e-02
 0.000000e+00 0.000000e+00 0.000000e+00 0.000000e+00 0.000000e+00
<ENDHMM>
