~o
<STREAMINFO> 1 39
<VECSIZE> 39<NULLD><MFCC_E_D_A><DIAGC>
~h "seven"
<BEGINHMM>
<NUMSTATES> 5
<STATE> 2
<MEAN> 39
 -1.568104e+01 4.725847e+00 1.994544e+00 -3.910698e+00 8.240936e+00 -6.329413e+00 -2.375563e+00 -7.939267e+00 -8.654753e-01 -8.088983e+00 -6.848302e+00 -8.830474e-02 4.304326e-01 -4.521793e-02 6.676611e-02 1.041679e-01 -8.342132e-02 -2.014425e-01 -6.014748e-01 8.103658e-02 6.341711e-01 1.718655e-01 1.934951e-01 3.731160e-01 -2.448138e-01 1.615489e-02 2.553864e-01 -1.877240e-01 5.698978e-02 -3.097789e-03 -1.258010e-01 -4.441625e-02 -5.236917e-02 2.349930e-01 3.083756e-02 8.832721e-02 3.568782e-03 -1.443747e-01 3.599093e-03
<VARIANCE> 39
 4.658789e+01 2.534060e+01 8.015088e+00 1.251393e+01 2.304058e+01 2.557080e+01 1.491275e+01 2.318110e+01 1.846600e+01 1.636924e+01 2.304515e+01 1.160509e+01 1.000000e-02 5.482060e+00 2.815888e+00 9.003831e-01 1.123289e+00 2.988103e+00 1.483358e+00 1.500714e+00 3.114486e+00 2.436543e+00 1.933788e+00 1.630319e+00 1.591803e+00 1.000000e-02 4.274859e-01 2.372246e-01 1.126586e-01 2.014048e-01 3.593020e-01 2.738209e-01 3.028490e-01 4.806234e-01 4.901507e-01 3.388733e-01 3.238251e-01 2.801163e-01 1.000000e-02
<GCONST> 8.683511e+01
<STATE> 3
<MEAN> 39
 -1.346979e+00 -4.563468e+00 4.114985e+00 -5.029863e+00 -1.809875e+00 -9.410160e+00 -3.548786e+00 6.131307e+00 2.228929e+00 1.740389e-01 -2.353214e+00 -1.073134e+01 6.572104e-01 3.267389e-01 8.477680e-02 1.215292e-01 1.663182e-01 -1.494521e-02 1.442303e-01 -4.190917e-02 -3.976943e-01 -3.691109e-01 2.941598e-01 5.694823e-02 1.194880e-02 -4.745089e-04 -2.449760e-01 1.857749e-01 -2.586493e-02 3.987648e-02 1.437850e-01 8.580473e-02 3.620914e-02 -2.493376e-01 -5.340271e-02 -1.097080e-01 -2.910920e-02 2.006708e-01 -3.641000e-03
<VARIANCE> 39
 7.906671e+00 3.252802e+01 9.837574e+00 1.225322e+01 9.502544e+00 2.002173e+01 8.323823e+00 7.862782e+01 2.231601e+01 1.550080e+01 2.124851e+01 1.721465e+01 1.678374e-02 2.395874e+00 3.340566e+00 1.009700e+00 1.215058e+00 1.471009e+00 2.232778e+00 8.368791e-01 7.387283e+00 1.686663e+00 2.371779e+00 2.558761e+00 3.263139e+00 1.000000e-02 4.698370e-01 3.869964e-01 1.955731e-01 2.192357e-01 3.133360e-01 4.937026e-01 1.455247e-01 8.930452e-01 3.183866e-01 6.168664e-01 5.155210e-01 4.056807e-01 1.000000e-02
<GCONST> 8.905228e+01
<STATE> 4
<MEAN> 39
 -5.531763e+00 -6.621906e-01 5.714322e+00 -5.706786e-01 3.645379e+00 -2.875604e+00 -3.594344e+00 -7.497403e+00 -1.773379e+00 -3.808297e+00 -5.981164e+00 -1.555793e+00 4.345032e-01 -2.754168e-01 -1.482754e-01 -1.845789e-01 -4.777525e-02 2.133748e-01 4.207368e-01 -7.118798e-02 -1.602872e-01 2.677967e-01 -4.550425e-01 -3.847393e-01 2.062498e-01 -1.453345e-02 2.122295e-02 -2.697483e-02 -2.857844e-02 -2.058932e-02 -4.072434e-02 -3.227559e-02 -1.294312e-03 1.918157e-02 -1.762225e-02 1.788287e-02 3.271528e-02 -3.552778e-02 2.568302e-04
<VARIANCE> 39
 5.507342e+00 6.626900e+00 7.563721e+00 8.898041e+00 1.141550e+01 1.665372e+01 1.347577e+01 1.228287e+01 1.871220e+01 2.011448e+01 2.088731e+01 1.121527e+01 1.490751e-02 2.447172e-01 6.807441e-01 5.210199e-01 1.081969e+00 1.256827e+00 1.274570e+00 1.438900e+00 1.500529e+00 1.417185e+00 1.386610e+00 1.666696e+00 1.189806e+00 1.000000e-02 3.295559e-02 1.395536e-01 1.014584e-01 2.313088e-01 2.466888e-01 2.159704e-01 3.116129e-01 3.352965e-01 2.704059e-01 2.657240e-01 3.221096e-01 2.615320e-01 1.000000e-02
<GCONST> 6.861459e+01
<TRANSP> 5
 0.000000e+00 1.000000e+00 0.000000e+00 0.000000e+00 0.000000e+00
 0.000000e+00 9.497488e-01 5.025125e-02 0.000000e+00 0.000000e+00
 0.000000e+00 0.000000e+00 9.530516e-01 4.694836e-02 0.000000e+00
 0.000000e+00 0.000000e+00 0.000000e+00 9.532710e-01 4.672897e-02
 0.000000e+00 0.000000e+00 0.000000e+00 0.000000e+00 0.000000e+00
<ENDHMM>
