~o
<STREAMINFO> 1 39
<VECSIZE> 39<NULLD><MFCC_E_D_A><DIAGC>
~h "seven"
<BEGINHMM>
<NUMSTATES> 5
<STATE> 2
<MEAN> 39
 -2.771550e+01 4.248021e+00 -3.390311e+00 1.981162e-01 -4.577097e-02 2.428533e-02 2.549124e+00 4.426519e-01 1.717852e+00 -1.267096e-01 2.850721e+00 -7.737603e-01 4.553298e-01 -3.819507e-01 2.117109e-01 -9.623332e-02 3.504196e-02 -1.367433e-01 1.940154e-02 -3.315032e-02 8.592472e-03 -2.332582e-02 -2.595856e-02 -2.737327e-02 2.289351e-02 2.087122e-02 3.095120e-01 -1.313472e-01 1.014000e-01 -1.071696e-01 -9.460049e-02 -1.244751e-01 -5.647990e-02 -4.267543e-02 -4.265548e-02 -7.142502e-02 -8.391581e-02 1.652764e-02 -2.819777e-03
<VARIANCE> 39
 3.516108e+01 3.867233e+01 2.814135e+01 3.654556e+01 2.352642e+01 2.961588e+01 2.331198e+01 2.405765e+01 1.818170e+01 1.701942e+01 1.692152e+01 1.263991e+01 4.830077e-02 2.182364e+00 1.613953e+00 1.503758e+00 1.409491e+00 1.384258e+00 1.742314e+00 1.737499e+00 1.649239e+00 1.679370e+00 1.446527e+00 1.489650e+00 1.196893e+00 1.000000e-02 3.005963e-01 2.143508e-01 2.273912e-01 2.634378e-01 3.519611e-01 4.084829e-01 3.450019e-01 3.465856e-01 3.648201e-01 3.232405e-01 3.668127e-01 2.518734e-01 1.000000e-02
<GCONST> 8.883279e+01
<STATE> 3
<MEAN> 39
 -1.084458e+01 -5.492445e+00 4.781409e-01 -8.461038e+00 -6.712574e+00 -9.218834e+00 -6.371298e-01 -1.331659e+00 -2.013765e+00 -6.753547e+00 -7.691431e+00 -2.618810e+00 5.842688e-01 9.719578e-01 -6.215752e-01 1.056568e-01 -5.953378e-01 -4.551477e-01 -6.315598e-01 -1.662052e-01 -1.169386e-01 -1.835942e-01 -4.860194e-01 -6.774350e-01 -8.700093e-02 6.693127e-03 -1.811076e-01 2.722243e-02 -6.405462e-02 5.659254e-02 9.006137e-02 1.269093e-01 6.873048e-02 3.937443e-02 3.586689e-04 3.215449e-02 4.627554e-02 1.879013e-03 1.890590e-04
<VARIANCE> 39
 6.834566e+01 6.305442e+01 5.506510e+01 6.699199e+01 7.445642e+01 5.372204e+01 5.059969e+01 3.995388e+01 3.321123e+01 3.845170e+01 5.108667e+01 2.449832e+01 4.739833e-02 5.956141e+00 4.587120e+00 2.025417e+00 4.850045e+00 5.368455e+00 5.283905e+00 3.839727e+00 3.142206e+00 2.722621e+00 3.293632e+00 4.408636e+00 1.815781e+00 1.000000e-02 7.822638e-01 6.132253e-01 3.655846e-01 6.789026e-01 7.876756e-01 8.915787e-01 6.696439e-01 5.341743e-01 4.478482e-01 4.713562e-01 6.803085e-01 3.056011e-01 1.000000e-02
<GCONST> 1.152554e+02
<STATE> 4
<MEAN> 39
 -8.481051e+00 -2.678897e+00 5.475537e+00 -6.142251e+00 -4.531145e+00 -1.082166e+01 -1.663368e+00 -4.738915e+00 -4.467335e+00 -9.041789e+00 -8.340144e+00 -1.481588e+00 5.159600e-01 -1.250068e-01 2.514796e-01 2.145462e-01 3.791699e-01 3.351310e-01 2.510258e-01 1.162608e-02 -3.672669e-02 -2.990005e-02 1.346910e-01 2.042537e-01 6.181245e-02 -1.285513e-02 -1.425517e-02 9.926219e-03 -8.504635e-03 1.760198e-02 9.177416e-03 1.649830e-02 -9.549117e-03 2.546204e-02 3.916756e-02 4.291337e-02 3.470208e-02 -4.064961e-04 -1.231618e-03
<VARIANCE> 39
 3.080252e+01 4.923136e+01 5.654348e+01 7.101583e+01 8.461021e+01 5.290617e+01 5.302614e+01 5.421959e+01 5.202374e+01 5.349836e+01 3.997336e+01 3.684968e+01 4.671616e-02 4.967667e-01 1.276878e+00 1.201505e+00 1.639724e+00 1.859017e+00 1.963003e+00 2.249997e+00 2.816304e+00 2.249632e+00 2.186872e+00 1.757559e+00 1.496450e+00 1.000000e-02 8.287278e-02 1.969391e-01 1.848298e-01 2.772698e-01 2.804297e-01 3.265290e-01 3.698055e-01 4.732114e-01 3.785948e-01 3.580258e-01 3.137467e-01 2.628464e-01 1.000000e-02
<GCONST> 9.683222e+01
<TRANSP> 5
 0.000000e+00 1.000000e+00 0.000000e+00 0.000000e+00 0.000000e+00
 0.000000e+00 9.407083e-01 5.929169e-02 0.000000e+00 0.000000e+00
 0.000000e+00 0.000000e+00 9.451197e-01 5.488029e-02 0.000000e+00
 0.000000e+00 0.000000e+00 0.000000e+00 9.685985e-01 3.140147e-02
 0.000000e+00 0.000000e+00 0.000000e+00 0.000000e+00 0.000000e+00
<ENDHMM>
