~o
<STREAMINFO> 1 39
<VECSIZE> 39<NULLD><MFCC_E_D_A><DIAGC>
~h "seven"
<BEGINHMM>
<NUMSTATES> 5
<STATE> 2
<MEAN> 39
 -7.733548e+00 2.661588e+00 5.270364e+00 1.369823e+00 7.840522e+00 -5.966105e+00 -3.159065e+00 -7.293546e+00 -7.316225e-01 -8.921665e+00 -6.895443e+00 -3.492927e+00 2.624718e-01 2.659691e-04 5.874232e-03 -4.598653e-02 -4.426260e-02 -1.312437e-01 2.859835e-02 -9.370686e-03 2.740434e-02 5.134904e-02 1.131546e-02 3.531764e-02 -3.147311e-02 4.824236e-04 -3.322165e-02 1.141098e-02 -4.226975e-02 -2.332092e-04 -5.148082e-02 3.837329e-03 -1.100488e-02 1.137374e-02 -1.671205e-02 -1.638518e-02 1.255479e-02 -2.060616e-02 4.977219e-04
<VARIANCE> 39
 3.016573e+00 9.602642e+00 6.326108e+00 7.632558e+00 1.325954e+01 1.064047e+01 1.491919e+01 1.511720e+01 1.566246e+01 1.556046e+01 1.331417e+01 1.626666e+01 1.000000e-02 3.393991e-01 5.183522e-01 7.612555e-01 9.067103e-01 1.365935e+00 1.281636e+00 1.442907e+00 1.971937e+00 1.583573e+00 1.525849e+00 1.244696e+00 1.433144e+00 1.000000e-02 8.213571e-02 9.387988e-02 1.681511e-01 1.792020e-01 2.726909e-01 2.690237e-01 3.129818e-01 4.282852e-01 2.949496e-01 2.789531e-01 2.614349e-01 2.860038e-01 1.000000e-02
<GCONST> 6.922485e+01
<STATE> 3
<MEAN> 39
 -1.511191e+01 5.944874e+00 -2.615976e+00 3.012144e-01 -1.043073e+00 -5.003734e+00 -2.487703e+00 -6.865111e+00 2.165989e+00 -6.383070e+00 -2.546500e+00 -3.532063e+00 3.895503e-01 -6.894043e-02 1.579371e-01 -2.382379e-01 -6.454505e-03 -4.144343e-01 -1.653039e-01 -1.486390e-02 2.114249e-01 5.750423e-01 3.325606e-01 2.264561e-02 -1.115236e-01 1.475717e-02 2.894123e-01 -7.259742e-02 1.890881e-01 -4.967615e-02 1.196132e-01 2.762176e-03 -5.513093e-02 3.477849e-02 1.155847e-01 5.753133e-02 -1.171063e-01 -1.377526e-01 2.977232e-03
<VARIANCE> 39
 6.029655e+01 1.827492e+01 1.931982e+01 2.559489e+01 1.816639e+01 2.293173e+01 2.394727e+01 2.448771e+01 1.875958e+01 4.041517e+01 2.164131e+01 1.037309e+01 1.000000e-02 5.658717e+00 1.222752e+00 2.531557e+00 1.662131e+00 2.366154e+00 1.997503e+00 1.982342e+00 1.898742e+00 2.456045e+00 2.053238e+00 2.358950e+00 1.562727e+00 1.000000e-02 3.957489e-01 2.097384e-01 2.309346e-01 2.969249e-01 4.984016e-01 3.848295e-01 3.767163e-01 4.343064e-01 4.542570e-01 4.131774e-01 4.611470e-01 3.392819e-01 1.000000e-02
<GCONST> 9.253507e+01
<STATE> 4
<MEAN> 39
 -2.123513e+00 3.476319e+00 1.923809e+00 -3.780284e+00 -2.562446e+00 -7.698759e+00 -4.321103e+00 -1.773952e+00 7.998624e+00 -4.939783e+00 -5.684710e+00 -1.135185e+01 6.792979e-01 4.191865e-01 -3.225046e-02 2.992045e-01 -1.596339e-01 2.842541e-01 -5.479644e-03 -1.787335e-01 -7.902774e-02 -5.107132e-01 -7.024562e-02 8.817509e-02 7.382448e-02 4.858325e-03 -1.974407e-01 6.437542e-02 -6.272689e-02 3.595655e-02 4.491238e-02 -4.520891e-02 5.394462e-02 -6.219895e-02 -1.583883e-01 -9.980680e-02 6.509379e-02 2.025242e-01 -3.077483e-03
<VARIANCE> 39
 1.373532e+01 1.460065e+01 1.224824e+01 1.908240e+01 3.038666e+01 1.700151e+01 1.500833e+01 3.331822e+01 4.450726e+01 2.108074e+01 1.919641e+01 4.343146e+01 1.448012e-02 2.208867e+00 2.045403e+00 1.354720e+00 2.772758e+00 2.683441e+00 1.342559e+00 1.552597e+00 4.913608e+00 3.731001e+00 3.371804e+00 2.447821e+00 4.914566e+00 1.000000e-02 4.031585e-01 3.099243e-01 3.173085e-01 5.175247e-01 6.806183e-01 2.849388e-01 3.261503e-01 1.003309e+00 8.065894e-01 8.087977e-01 4.859692e-01 5.410643e-01 1.000000e-02
<GCONST> 9.777692e+01
<TRANSP> 5
 0.000000e+00 1.000000e+00 0.000000e+00 0.000000e+00 0.000000e+00
 0.000000e+00 9.753521e-01 2.464789e-02 0.000000e+00 0.000000e+00
 0.000000e+00 0.000000e+00 9.401709e-01 5.982907e-02 0.000000e+00
 0.000000e+00 0.000000e+00 0.000000e+00 9.391304e-01 6.086957e-02
 0.000000e+00 0.000000e+00 0.000000e+00 0.000000e+00 0.000000e+00
<ENDHMM>
