~o
<STREAMINFO> 1 39
<VECSIZE> 39<NULLD><MFCC_E_D_A><DIAGC>
~h "seven"
<BEGINHMM>
<NUMSTATES> 5
<STATE> 2
<MEAN> 39
 -1.774790e+01 -8.067486e-02 -3.511863e+00 -4.720465e+00 -2.299257e+00 -6.733819e+00 3.271335e+00 1.224515e+00 -2.469168e+00 8.151342e-01 -1.361033e+00 -1.611232e-01 1.998076e-01 1.088442e-02 1.503375e-01 4.845490e-02 -5.553833e-02 -1.398933e-01 -1.846521e-01 8.920973e-02 3.868157e-02 -1.466518e-01 1.150223e-01 -1.392903e-01 -1.232379e-01 1.583755e-02 1.478551e-01 -4.034027e-02 5.522962e-02 -2.619454e-02 -1.378444e-02 -2.581218e-02 -8.937613e-02 6.234810e-02 -2.208942e-02 1.392001e-02 -1.923786e-02 -4.866001e-02 2.023158e-03
<VARIANCE> 39
 5.224368e+01 1.887108e+01 2.107875e+01 2.425811e+01 2.074156e+01 3.308411e+01 2.879389e+01 2.100942e+01 2.281729e+01 1.745687e+01 1.740016e+01 1.308792e+01 6.664595e-02 3.347275e+00 9.565189e-01 1.870625e+00 2.084441e+00 2.016360e+00 2.025293e+00 2.147197e+00 2.152408e+00 1.713351e+00 1.374446e+00 1.830957e+00 1.615294e+00 1.000000e-02 3.271754e-01 1.797615e-01 3.186654e-01 4.245718e-01 4.031163e-01 3.379137e-01 4.496379e-01 4.828468e-01 3.291082e-01 2.735845e-01 3.892537e-01 3.081738e-01 1.000000e-02
<GCONST> 9.176122e+01
<STATE> 3
<MEAN> 39
 2.201451e+00 -7.934831e-01 6.134542e+00 -4.207905e+00 -5.159853e+00 -9.652535e+00 -1.766632e+00 5.697919e+00 -7.533056e+00 2.031417e-02 -4.199861e+00 -7.174880e+00 6.955484e-01 9.164359e-02 -1.813439e-01 7.775721e-02 8.085956e-02 1.059938e-01 6.174859e-02 -1.662403e-01 6.214406e-02 3.143975e-02 -2.541443e-01 4.220431e-02 5.248325e-02 -1.241814e-02 -1.612530e-01 4.495255e-02 -8.925430e-02 4.084406e-02 4.062137e-02 3.124992e-02 8.384148e-02 -5.088962e-02 2.809778e-02 -4.461588e-02 2.621031e-02 7.871552e-02 -3.318225e-03
<VARIANCE> 39
 2.298378e+01 5.586496e+01 2.522336e+01 7.864019e+01 2.000945e+01 2.758886e+01 3.040930e+01 4.974240e+01 2.006079e+01 3.877272e+01 3.889741e+01 1.556878e+01 3.855062e-02 2.759865e+00 4.850866e+00 1.805871e+00 4.734520e+00 2.414976e+00 2.294864e+00 3.136848e+00 5.269541e+00 2.013411e+00 2.348785e+00 3.019177e+00 1.661861e+00 1.000000e-02 2.818821e-01 7.074087e-01 2.122575e-01 7.321225e-01 4.784417e-01 4.531927e-01 5.263612e-01 8.154131e-01 3.981530e-01 4.198691e-01 4.741402e-01 2.962475e-01 1.000000e-02
<GCONST> 1.034836e+02
<STATE> 4
<MEAN> 39
 -1.073088e+01 -1.101575e+00 -6.075451e-02 -2.569855e+00 -2.286423e+00 -6.528963e+00 -1.814417e+00 -1.455970e+00 -3.191296e+00 -3.820862e+00 -2.922972e+00 -7.044829e-01 4.159376e-02 -1.435122e-01 1.510159e-01 -1.509631e-01 3.469236e-03 1.277865e-01 2.217067e-01 1.293155e-01 -2.223858e-01 1.596633e-01 3.321394e-01 1.577572e-01 1.216349e-01 -7.852389e-03 1.521431e-02 -9.774450e-03 4.322815e-02 -1.887968e-02 -5.199968e-02 -1.117816e-02 2.950748e-02 1.678639e-02 -1.408266e-02 5.111279e-02 6.483557e-03 -4.244490e-02 2.034679e-03
<VARIANCE> 39
 4.180730e+00 6.093932e+00 6.079360e+00 6.602379e+00 8.545476e+00 1.376775e+01 1.426741e+01 3.080285e+01 2.709688e+01 2.862379e+01 1.571706e+01 1.323159e+01 1.000000e-02 9.419493e-02 3.317318e-01 5.031669e-01 7.647589e-01 9.246001e-01 7.915004e-01 1.259777e+00 1.390586e+00 1.603101e+00 1.841847e+00 1.245978e+00 1.302842e+00 1.000000e-02 1.724158e-02 5.993108e-02 8.142217e-02 1.975802e-01 2.154737e-01 1.433404e-01 2.330091e-01 2.698510e-01 3.221014e-01 3.931048e-01 2.158775e-01 2.565953e-01 1.000000e-02
<GCONST> 6.282230e+01
<TRANSP> 5
 0.000000e+00 1.000000e+00 0.000000e+00 0.000000e+00 0.000000e+00
 0.000000e+00 9.761904e-01 2.380952e-02 0.000000e+00 0.000000e+00
 0.000000e+00 0.000000e+00 9.745455e-01 2.545454e-02 0.000000e+00
 0.000000e+00 0.000000e+00 0.000000e+00 9.575757e-01 4.242424e-02
 0.000000e+00 0.000000e+00 0.000000e+00 0.000000e+00 0.000000e+00
<ENDHMM>
