~o
<STREAMINFO> 1 39
<VECSIZE> 39<NULLD><MFCC_E_D_A><DIAGC>
~h "six"
<BEGINHMM>
<NUMSTATES> 5
<STATE> 2
<MEAN> 39
 -1.044413e+01 4.979349e+00 3.643293e+00 1.539310e+00 5.103879e+00 -5.274288e+00 -1.359842e+00 -5.025040e+00 9.102666e-01 -6.970196e+00 -4.721596e+00 -3.158517e+00 3.607013e-01 -2.544587e-01 3.728946e-02 -3.333301e-01 -3.732354e-02 -1.889712e-01 -5.211797e-02 1.163940e-01 1.860492e-01 1.283707e-01 -7.527933e-03 -7.521490e-03 4.344349e-02 -1.166405e-05 2.111601e-02 -1.190455e-02 -8.821331e-03 3.727921e-04 -4.524700e-02 3.785862e-03 5.712695e-03 3.838127e-03 4.983560e-02 3.155013e-02 2.819757e-02 2.005485e-02 1.484504e-04
<VARIANCE> 39
 3.243449e+01 2.104874e+01 2.044301e+01 1.203629e+01 2.495119e+01 1.400914e+01 1.420982e+01 2.309487e+01 2.722456e+01 2.879617e+01 1.862541e+01 1.322559e+01 1.703127e-02 1.382396e+00 9.832299e-01 1.075103e+00 7.958884e-01 1.602538e+00 1.296120e+00 1.489208e+00 2.074542e+00 2.649306e+00 2.672256e+00 1.745297e+00 1.307715e+00 1.000000e-02 2.193174e-01 1.808029e-01 2.107453e-01 1.660596e-01 2.752768e-01 2.863839e-01 3.098470e-01 4.060766e-01 5.869573e-01 5.638993e-01 3.970086e-01 2.539153e-01 1.000000e-02
<GCONST> 8.444579e+01
<STATE> 3
<MEAN> 39
 -5.572229e+00 4.764376e+00 5.871390e+00 7.835042e-01 -5.691086e+00 -1.278987e+01 -1.855294e+00 -1.617746e+00 4.528674e+00 -5.540526e+00 -1.186329e+00 -2.632014e+00 5.688208e-01 2.565547e-01 -2.009561e-01 1.744018e-01 1.809643e-01 2.706836e-01 -1.151540e-01 -9.410506e-02 -1.844160e-02 2.777698e-02 -8.718309e-03 -1.618975e-01 -1.412287e-01 -9.192371e-03 -3.800671e-01 1.270201e-01 -1.751036e-01 1.022048e-01 1.158154e-01 3.322636e-02 1.378160e-02 -1.098110e-01 -4.364653e-02 -1.322220e-01 -1.969132e-02 -9.346293e-02 1.940355e-03
<VARIANCE> 39
 3.212423e+01 8.607570e+00 2.651372e+01 1.253994e+01 5.439454e+01 2.671590e+01 1.875363e+01 2.411972e+01 4.696027e+01 2.341703e+01 3.320058e+01 2.718550e+01 3.470230e-02 5.756474e+00 8.524407e-01 3.656464e+00 1.895563e+00 6.968120e+00 2.941286e+00 2.445856e+00 2.914515e+00 5.154855e+00 2.413684e+00 3.726854e+00 3.541515e+00 1.000000e-02 2.805424e-01 2.180918e-01 3.045895e-01 3.285171e-01 9.737526e-01 5.146121e-01 5.106718e-01 5.258215e-01 8.466027e-01 4.411569e-01 6.352755e-01 7.851663e-01 1.000000e-02
<GCONST> 1.025689e+02
<STATE> 4
<MEAN> 39
 -1.500640e+01 6.190053e+00 -2.258245e-01 6.109531e-01 -9.822398e-01 -9.109759e+00 -1.298167e+00 -4.145061e+00 2.831402e+00 -6.847641e+00 -1.679102e+00 -5.150727e+00 5.368080e-01 1.587109e-01 1.722510e-01 2.037696e-01 -1.127133e-01 -3.826190e-02 -2.261140e-01 -5.842705e-02 1.089597e-01 -1.271849e-01 -2.451621e-01 3.725432e-01 -1.356245e-01 1.183943e-02 1.382342e-01 -3.268871e-02 9.564419e-02 -4.440691e-02 3.255602e-02 -7.338505e-03 -2.157761e-03 1.784876e-02 -9.503622e-02 -2.247476e-03 -5.390616e-02 3.399289e-02 -1.421608e-03
<VARIANCE> 39
 9.853937e+01 2.549951e+01 3.483932e+01 2.604431e+01 4.868606e+01 2.334620e+01 2.140486e+01 2.549074e+01 2.799851e+01 2.696804e+01 3.382991e+01 1.611381e+01 4.138700e-02 6.897612e+00 2.567742e+00 2.344095e+00 2.210596e+00 2.841155e+00 1.551694e+00 2.673054e+00 2.630752e+00 2.902105e+00 2.374759e+00 1.993780e+00 1.711213e+00 1.000000e-02 6.346068e-01 3.153013e-01 3.823380e-01 3.808707e-01 5.987906e-01 2.742809e-01 5.771257e-01 4.674278e-01 5.728525e-01 4.813842e-01 3.808623e-01 2.997821e-01 1.000000e-02
<GCONST> 1.011877e+02
<TRANSP> 5
 0.000000e+00 1.000000e+00 0.000000e+00 0.000000e+00 0.000000e+00
 0.000000e+00 9.633508e-01 3.664921e-02 0.000000e+00 0.000000e+00
 0.000000e+00 0.000000e+00 8.771930e-01 1.228070e-01 0.000000e+00
 0.000000e+00 0.000000e+00 0.000000e+00 9.492754e-01 5.072464e-02
 0.000000e+00 0.000000e+00 0.000000e+00 0.000000e+00 0.000000e+00
<ENDHMM>
