~o
<STREAMINFO> 1 39
<VECSIZE> 39<NULLD><MFCC_E_D_A><DIAGC>
~h "six"
<BEGINHMM>
<NUMSTATES> 5
<STATE> 2
<MEAN> 39
 -1.753697e+01 -1.040546e+00 -2.954037e+00 -5.225965e+00 -2.473310e+00 -4.566121e+00 3.986654e+00 6.875739e-01 -2.310191e+00 9.226024e-01 -5.912049e-01 -7.816952e-02 1.370912e-01 -3.062885e-01 2.013482e-01 -1.922877e-01 -1.700426e-01 -1.312236e-01 -1.183029e-01 1.301219e-01 1.788308e-02 -1.866715e-01 7.239326e-02 -1.111337e-01 -1.160139e-02 1.427479e-02 4.798003e-02 9.637964e-03 2.861240e-02 -1.246458e-03 -2.150440e-03 -1.413039e-02 -1.786096e-02 3.019237e-03 1.498846e-02 5.247645e-03 7.542547e-03 1.198247e-02 6.695766e-04
<VARIANCE> 39
 4.297295e+01 1.638766e+01 1.482969e+01 2.701482e+01 1.638037e+01 2.765282e+01 2.347087e+01 1.833982e+01 2.794818e+01 1.730538e+01 1.418639e+01 1.345283e+01 5.782817e-02 1.186290e+00 7.030492e-01 8.930563e-01 1.657862e+00 1.800849e+00 2.143623e+00 1.794663e+00 1.693903e+00 2.255768e+00 1.631463e+00 1.408289e+00 1.375598e+00 1.000000e-02 1.986091e-01 1.302795e-01 1.704774e-01 3.449442e-01 3.837268e-01 4.175624e-01 3.921209e-01 3.629209e-01 4.717105e-01 3.502131e-01 2.844696e-01 2.830772e-01 1.000000e-02
<GCONST> 8.582928e+01
<STATE> 3
<MEAN> 39
 -1.196248e+01 -1.816355e+00 2.709215e+00 -5.168823e+00 -8.868120e+00 -1.604185e+01 2.029505e-01 4.824228e+00 -8.377934e+00 5.657727e-01 -5.571522e-01 7.231352e-01 5.126522e-01 4.166868e-02 -5.790648e-02 1.295189e-01 6.451134e-02 1.025592e-01 -1.651025e-01 -7.227928e-02 9.804120e-02 1.946316e-02 -5.353052e-02 9.169669e-02 -3.329752e-02 -1.481752e-03 -5.251124e-02 1.265460e-02 -3.265472e-02 7.869934e-03 2.450580e-02 4.990431e-02 2.885978e-02 4.752124e-03 2.413326e-03 -6.308543e-03 9.022214e-03 9.557319e-03 -8.727977e-04
<VARIANCE> 39
 1.030104e+02 3.314632e+01 7.919235e+01 4.203411e+01 2.295552e+01 3.548846e+01 5.220803e+01 3.721131e+01 2.749506e+01 3.018253e+01 2.983731e+01 1.773311e+01 8.299544e-02 6.080056e+00 2.496890e+00 4.282557e+00 3.389561e+00 2.529895e+00 3.118275e+00 4.325073e+00 3.365348e+00 2.918693e+00 2.377882e+00 2.042833e+00 1.800095e+00 1.000000e-02 6.758437e-01 4.080662e-01 4.652583e-01 6.260726e-01 5.212975e-01 5.412548e-01 7.280239e-01 5.653564e-01 6.092980e-01 4.148923e-01 3.518637e-01 3.427102e-01 1.000000e-02
<GCONST> 1.087042e+02
<STATE> 4
<MEAN> 39
 -1.630998e+01 4.326873e-01 -2.698394e+00 -3.805350e+00 -2.547370e+00 -6.919558e+00 5.487801e-01 1.240257e+00 -3.774538e+00 5.739167e-01 -5.965798e-01 -1.259246e+00 1.587863e-01 2.563665e-01 -7.745595e-02 4.364128e-02 1.027286e-01 5.590721e-02 3.053102e-01 -8.046144e-02 -1.091987e-01 1.143780e-01 -1.748527e-02 1.136010e-02 6.972475e-03 -1.358397e-02 3.148712e-03 -1.475745e-02 5.367964e-03 3.318778e-03 -7.091333e-03 -1.255816e-02 -5.687770e-03 1.831181e-03 -2.521083e-03 3.460041e-03 5.496920e-03 4.518850e-03 3.671552e-04
<VARIANCE> 39
 3.690018e+01 1.113570e+01 9.117552e+00 1.349970e+01 1.328532e+01 3.377471e+01 2.665996e+01 2.866999e+01 2.425886e+01 2.012741e+01 1.350066e+01 1.420775e+01 4.600205e-02 7.180789e-01 7.464756e-01 6.939332e-01 8.346397e-01 1.293077e+00 2.045311e+00 2.167095e+00 2.040122e+00 1.870401e+00 1.812746e+00 1.650078e+00 1.686780e+00 1.000000e-02 8.075400e-02 9.522135e-02 1.281324e-01 1.721739e-01 2.649349e-01 3.800096e-01 4.372533e-01 4.244125e-01 4.123892e-01 3.898077e-01 3.538554e-01 3.842146e-01 1.000000e-02
<GCONST> 8.146046e+01
<TRANSP> 5
 0.000000e+00 1.000000e+00 0.000000e+00 0.000000e+00 0.000000e+00
 0.000000e+00 9.745455e-01 2.545454e-02 0.000000e+00 0.000000e+00
 0.000000e+00 0.000000e+00 9.722222e-01 2.777778e-02 0.000000e+00
 0.000000e+00 0.000000e+00 0.000000e+00 9.750890e-01 2.491103e-02
 0.000000e+00 0.000000e+00 0.000000e+00 0.000000e+00 0.000000e+00
<ENDHMM>
