~o
<STREAMINFO> 1 39
<VECSIZE> 39<NULLD><MFCC_E_D_A><DIAGC>
~h "six"
<BEGINHMM>
<NUMSTATES> 5
<STATE> 2
<MEAN> 39
 -1.708394e+01 5.049009e+00 2.121336e+00 -2.756071e+00 7.553374e+00 -6.575396e+00 -1.623920e+00 -6.334407e+00 -1.351771e+00 -9.938777e+00 -4.654406e+00 -7.846782e-01 4.397207e-01 -6.915556e-02 6.008467e-02 2.035672e-01 -5.023743e-02 -2.678868e-01 -5.863234e-01 6.984553e-02 6.083843e-01 5.962324e-02 4.569287e-02 3.955613e-01 -1.789142e-01 1.352957e-02 2.698713e-01 -1.816284e-01 1.127078e-01 6.218447e-03 -1.943975e-01 -1.025165e-01 -4.607817e-02 1.718657e-01 1.034839e-02 8.474249e-02 4.571499e-02 -7.648835e-02 2.977199e-03
<VARIANCE> 39
 4.375157e+01 3.491720e+01 9.210052e+00 1.096612e+01 1.577488e+01 2.345017e+01 1.945520e+01 2.019355e+01 1.734044e+01 1.671479e+01 2.220405e+01 1.194872e+01 1.000000e-02 4.467077e+00 2.288694e+00 1.300705e+00 1.337620e+00 2.014085e+00 1.608940e+00 1.744255e+00 1.851867e+00 1.791347e+00 1.862459e+00 1.398066e+00 1.252417e+00 1.000000e-02 3.979176e-01 1.823444e-01 1.321566e-01 2.634950e-01 2.864107e-01 2.887166e-01 2.883247e-01 2.538712e-01 3.825380e-01 3.708674e-01 2.934753e-01 2.220266e-01 1.000000e-02
<GCONST> 8.416528e+01
<STATE> 3
<MEAN> 39
 -6.432366e+00 -4.717516e+00 7.769606e+00 -2.937625e+00 -4.631684e+00 -1.398556e+01 -2.506282e+00 3.802248e+00 -1.750314e+00 -3.429932e+00 -8.322366e-01 -1.696605e+00 5.335739e-01 -3.906752e-01 6.335081e-02 -1.678188e-01 7.137102e-02 2.868660e-01 7.322590e-02 1.329537e-01 -1.756046e-01 -2.900856e-02 -8.361822e-02 -7.898527e-02 2.060200e-01 -4.735339e-03 -3.081965e-01 2.376626e-01 -1.056370e-01 -1.646535e-02 2.193641e-01 1.507649e-01 8.781638e-02 -2.175826e-01 -2.938708e-02 -1.362896e-01 -6.853244e-02 7.908527e-02 -2.055861e-03
<VARIANCE> 39
 2.015600e+01 2.309606e+01 2.818631e+01 1.094004e+01 5.652328e+01 5.893019e+01 1.971242e+01 9.094095e+01 2.086410e+01 1.879955e+01 3.492804e+01 1.483275e+01 3.016515e-02 3.865472e+00 4.086639e+00 1.863809e+00 8.691737e-01 4.756486e+00 5.289269e+00 2.172119e+00 7.298600e+00 2.294350e+00 2.061846e+00 3.419214e+00 1.256153e+00 1.000000e-02 3.933742e-01 4.974563e-01 2.733979e-01 1.719030e-01 4.282935e-01 8.440374e-01 3.800040e-01 9.331188e-01 4.495523e-01 2.668449e-01 6.136456e-01 2.312226e-01 1.000000e-02
<GCONST> 1.000905e+02
<STATE> 4
<MEAN> 39
 -1.488236e+01 2.121706e+00 3.713106e+00 -3.690947e+00 7.580676e+00 -7.470177e+00 -1.961697e+00 -6.206188e+00 -2.012286e+00 -8.007434e+00 -5.990304e+00 3.272325e-01 4.163125e-01 5.304840e-01 -1.784282e-01 1.013942e-02 -4.240960e-02 -1.093152e-01 4.992617e-01 -1.800849e-01 -3.397780e-01 -4.349324e-02 8.828957e-02 -2.910809e-01 -2.794795e-02 -7.239260e-03 1.010928e-01 -1.104657e-01 1.226568e-03 1.842344e-02 -7.081024e-02 -4.461266e-02 -2.938459e-02 8.417872e-02 3.278557e-02 4.679485e-02 4.049084e-02 -1.836944e-02 -6.678036e-04
<VARIANCE> 39
 4.842783e+01 1.918453e+01 5.171725e+00 1.224536e+01 1.742836e+01 2.604441e+01 1.575866e+01 1.932019e+01 1.424946e+01 1.621756e+01 1.804924e+01 1.161300e+01 1.000000e-02 1.194324e+00 1.095005e+00 5.654187e-01 1.000736e+00 1.272455e+00 1.383515e+00 1.292658e+00 1.635134e+00 1.584745e+00 1.737639e+00 1.628975e+00 1.245086e+00 1.000000e-02 1.981361e-01 1.853461e-01 1.094518e-01 1.805474e-01 2.275442e-01 2.653476e-01 2.789283e-01 2.914351e-01 3.021088e-01 3.537484e-01 3.426191e-01 2.668490e-01 1.000000e-02
<GCONST> 7.702814e+01
<TRANSP> 5
 0.000000e+00 1.000000e+00 0.000000e+00 0.000000e+00 0.000000e+00
 0.000000e+00 9.494950e-01 5.050505e-02 0.000000e+00 0.000000e+00
 0.000000e+00 0.000000e+00 9.576271e-01 4.237288e-02 0.000000e+00
 0.000000e+00 0.000000e+00 0.000000e+00 9.583333e-01 4.166666e-02
 0.000000e+00 0.000000e+00 0.000000e+00 0.000000e+00 0.000000e+00
<ENDHMM>
