~o
<STREAMINFO> 1 39
<VECSIZE> 39<NULLD><MFCC_E_D_A><DIAGC>
~h "six"
<BEGINHMM>
<NUMSTATES> 5
<STATE> 2
<MEAN> 39
 -2.726536e+01 4.819520e+00 -2.913169e+00 4.586335e-01 1.944939e-01 -2.042249e-01 3.086342e+00 4.058269e-02 1.727302e+00 -9.171905e-02 3.146400e+00 -9.094589e-01 4.811981e-01 -2.791114e-01 2.553829e-01 2.321198e-02 -1.785857e-02 -1.848641e-01 -8.508211e-02 -5.718080e-03 -1.264153e-01 -8.574749e-02 -1.301892e-02 -3.852346e-02 -3.085236e-02 2.048576e-02 3.029808e-01 -1.133121e-01 1.371895e-01 -1.131148e-01 -1.513144e-01 -1.436333e-01 -8.943935e-02 -7.867768e-02 -7.962979e-02 -3.523200e-02 -6.730057e-02 -2.507274e-03 -2.383513e-03
<VARIANCE> 39
 4.208770e+01 4.105570e+01 3.463436e+01 3.792784e+01 2.440183e+01 2.857704e+01 2.456784e+01 2.321424e+01 1.878489e+01 1.685666e+01 1.836808e+01 1.407602e+01 4.751086e-02 2.448730e+00 1.693591e+00 1.729048e+00 1.412659e+00 1.626422e+00 1.977062e+00 1.820255e+00 1.853861e+00 1.776120e+00 1.616741e+00 1.486540e+00 1.303901e+00 1.000000e-02 3.211802e-01 2.400392e-01 2.711313e-01 2.750189e-01 4.383372e-01 4.308500e-01 4.031877e-01 3.870484e-01 3.924480e-01 3.301321e-01 3.308964e-01 2.683838e-01 1.000000e-02
<GCONST> 9.152999e+01
<STATE> 3
<MEAN> 39
 -1.272689e+01 -2.688581e+00 8.572017e+00 -1.250789e+01 -1.462464e+01 -9.696685e+00 -4.619859e-01 -8.412030e+00 -3.522151e+00 -8.270255e-02 -4.262893e+00 -3.056914e+00 5.914040e-01 5.574939e-01 -3.300403e-01 3.124125e-01 -9.956083e-02 -1.057235e-01 2.384470e-02 -8.356188e-02 -1.120014e-01 4.840076e-02 1.494834e-01 -1.626416e-01 8.709256e-03 -2.250399e-02 -2.721699e-01 4.432547e-02 -2.420230e-01 2.098384e-01 3.438962e-01 2.574170e-01 1.098656e-01 2.486179e-01 1.489805e-01 4.309410e-02 1.597507e-01 6.177502e-02 -4.940008e-03
<VARIANCE> 39
 3.889984e+01 3.597304e+01 6.348378e+01 7.749912e+01 7.221356e+01 4.512127e+01 5.215360e+01 6.971517e+01 4.708649e+01 3.944217e+01 4.064067e+01 2.290661e+01 4.747833e-02 4.707921e+00 3.402730e+00 3.639040e+00 6.368516e+00 8.736130e+00 5.603754e+00 3.277438e+00 5.721634e+00 3.355454e+00 2.946771e+00 3.204201e+00 2.152540e+00 1.000000e-02 4.708097e-01 5.446171e-01 3.826722e-01 6.180001e-01 8.397316e-01 6.868460e-01 5.239646e-01 7.977979e-01 4.466977e-01 5.253448e-01 4.304920e-01 3.596810e-01 1.000000e-02
<GCONST> 1.152360e+02
<STATE> 4
<MEAN> 39
 -2.295264e+01 8.623778e-01 -1.131031e+00 -3.446872e-01 -1.491024e-01 -2.560223e+00 3.094090e+00 6.428246e-01 1.850334e+00 -7.476838e-01 3.185692e+00 5.962758e-02 3.583259e-01 5.680284e-03 -3.481383e-02 -1.154436e-01 3.963735e-02 1.752727e-01 2.860200e-02 3.969946e-02 1.217600e-01 1.643793e-02 -5.983238e-02 5.645365e-02 3.545054e-02 -2.116907e-03 2.908904e-02 -5.417969e-06 5.293979e-02 -3.763801e-02 -6.262744e-02 -2.185820e-02 -1.914516e-02 -6.152779e-02 -2.896678e-02 4.382521e-03 -4.047028e-02 -2.098587e-02 1.055581e-03
<VARIANCE> 39
 6.501795e+01 4.554163e+01 3.608321e+01 4.064488e+01 3.073674e+01 3.645154e+01 2.979712e+01 2.644210e+01 2.373842e+01 2.219364e+01 2.064196e+01 1.623131e+01 6.217584e-02 2.125411e+00 2.155496e+00 1.777653e+00 1.663889e+00 1.914557e+00 2.504974e+00 2.109021e+00 2.123822e+00 2.005366e+00 1.919187e+00 1.839245e+00 1.522533e+00 1.000000e-02 2.601047e-01 3.418429e-01 3.352036e-01 3.190377e-01 3.719949e-01 4.893141e-01 4.171224e-01 4.232678e-01 4.026990e-01 3.783627e-01 3.679028e-01 3.063747e-01 1.000000e-02
<GCONST> 9.663850e+01
<TRANSP> 5
 0.000000e+00 1.000000e+00 0.000000e+00 0.000000e+00 0.000000e+00
 0.000000e+00 9.478411e-01 5.215890e-02 0.000000e+00 0.000000e+00
 0.000000e+00 0.000000e+00 9.372663e-01 6.273369e-02 0.000000e+00
 0.000000e+00 0.000000e+00 0.000000e+00 9.741836e-01 2.581638e-02
 0.000000e+00 0.000000e+00 0.000000e+00 0.000000e+00 0.000000e+00
<ENDHMM>
