~o
<STREAMINFO> 1 39
<VECSIZE> 39<NULLD><MFCC_E_D_A><DIAGC>
~h "three"
<BEGINHMM>
<NUMSTATES> 5
<STATE> 2
<MEAN> 39
 -1.490781e+01 -2.885987e+00 -2.485785e+00 -3.803912e+00 -4.346706e+00 -6.145494e+00 4.114982e+00 -1.830720e+00 1.983679e-01 -1.962620e+00 4.018135e-01 -1.232428e+00 1.635040e-01 1.671039e-01 -5.853720e-02 5.275957e-02 1.516151e-01 -1.943171e-01 -2.461125e-01 3.421965e-02 -5.639974e-02 -7.471234e-02 -4.034142e-02 1.668935e-02 -1.871798e-01 2.379172e-02 1.610522e-01 3.869630e-02 4.454217e-02 5.312166e-02 6.066746e-04 -1.065497e-02 -6.324296e-02 -3.645850e-02 -1.889343e-02 -6.084295e-03 4.796398e-03 2.865391e-02 3.241745e-03
<VARIANCE> 39
 1.402852e+01 9.814813e+00 1.225935e+01 2.007254e+01 2.905343e+01 3.387752e+01 3.417250e+01 1.763185e+01 1.477617e+01 1.893765e+01 1.552123e+01 1.408169e+01 5.954980e-02 2.281681e+00 1.161116e+00 1.325563e+00 2.255328e+00 2.021895e+00 2.588920e+00 2.682106e+00 1.681759e+00 1.861306e+00 2.115083e+00 1.607631e+00 1.250624e+00 1.000000e-02 3.708899e-01 2.412070e-01 2.366926e-01 3.955579e-01 3.750879e-01 5.205652e-01 4.717157e-01 3.141769e-01 3.855011e-01 4.085228e-01 3.278676e-01 2.859450e-01 1.000000e-02
<GCONST> 8.915018e+01
<STATE> 3
<MEAN> 39
 3.512359e+00 -6.294311e+00 1.377159e+01 -7.867172e-02 -1.349911e+01 -1.336436e+01 -8.377864e+00 6.319669e+00 -8.774786e+00 -4.144536e+00 -3.189751e+00 -7.699188e-02 7.825661e-01 1.893243e-01 3.178037e-01 7.485471e-01 -1.082129e-01 -1.531900e-01 9.952527e-02 -8.604334e-02 1.803689e-01 -3.825931e-01 -9.578513e-02 -2.322071e-01 1.329076e-01 -8.847557e-03 -2.817936e-01 -6.078205e-02 -1.163333e-01 -3.649303e-02 5.260036e-02 9.413966e-02 1.225569e-01 -1.390299e-02 9.050778e-02 1.069301e-02 2.149412e-02 -3.966336e-02 -7.046103e-03
<VARIANCE> 39
 2.796529e+01 5.088202e+01 9.813102e+01 2.540242e+01 2.738452e+01 3.384362e+01 4.738981e+01 6.420600e+01 4.682075e+01 1.899607e+01 1.729194e+01 2.409883e+01 1.452990e-02 5.102943e+00 2.964301e+00 2.020469e+00 1.086463e+00 2.052499e+00 2.282583e+00 4.422042e+00 3.695229e+00 1.628357e+00 1.280554e+00 1.275413e+00 1.500228e+00 1.000000e-02 4.034209e-01 4.303153e-01 1.787790e-01 1.904828e-01 3.389282e-01 2.980033e-01 4.255919e-01 4.420866e-01 2.477924e-01 2.073030e-01 2.354615e-01 2.292014e-01 1.000000e-02
<GCONST> 9.523457e+01
<STATE> 4
<MEAN> 39
 -1.043996e+01 -1.311256e+00 4.155117e+00 -1.389197e+00 -4.296624e+00 -4.296223e+00 2.104611e-01 -6.967323e-01 -5.070004e+00 -4.819654e+00 -2.880747e+00 -5.676740e-01 9.132548e-02 -3.603590e-01 -1.899580e-01 -7.079358e-01 -4.884677e-02 3.769795e-01 1.145220e-01 5.149128e-03 -1.144985e-01 3.549391e-01 6.697953e-02 1.950747e-01 7.155189e-02 -1.982030e-02 5.215181e-02 1.611157e-02 5.194483e-02 -1.885534e-02 -6.120985e-02 -8.085100e-02 -1.257306e-02 9.136098e-02 -6.161886e-02 -1.459514e-02 -2.304818e-02 1.114997e-02 3.156454e-03
<VARIANCE> 39
 1.049613e+01 1.045023e+01 4.555696e+01 1.240750e+01 1.762105e+01 3.551566e+01 1.936464e+01 2.127254e+01 2.626712e+01 2.878810e+01 2.522716e+01 1.843793e+01 2.917609e-02 8.585913e-01 7.790353e-01 1.486693e+00 1.238663e+00 1.407382e+00 2.643932e+00 1.707651e+00 2.253882e+00 2.273227e+00 1.692150e+00 1.527541e+00 1.557577e+00 1.000000e-02 1.200240e-01 9.655803e-02 1.711499e-01 2.374894e-01 2.173962e-01 4.170752e-01 3.360254e-01 4.071202e-01 4.395415e-01 2.909801e-01 2.994125e-01 2.669598e-01 1.000000e-02
<GCONST> 8.364873e+01
<TRANSP> 5
 0.000000e+00 1.000000e+00 0.000000e+00 0.000000e+00 0.000000e+00
 0.000000e+00 9.674419e-01 3.255814e-02 0.000000e+00 0.000000e+00
 0.000000e+00 0.000000e+00 9.554140e-01 4.458599e-02 0.000000e+00
 0.000000e+00 0.000000e+00 0.000000e+00 9.578313e-01 4.216868e-02
 0.000000e+00 0.000000e+00 0.000000e+00 0.000000e+00 0.000000e+00
<ENDHMM>
