~o
<STREAMINFO> 1 39
<VECSIZE> 39<NULLD><MFCC_E_D_A><DIAGC>
~h "three"
<BEGINHMM>
<NUMSTATES> 5
<STATE> 2
<MEAN> 39
 -1.242969e+01 -5.753164e-01 4.367610e+00 -6.741723e-02 2.179672e+00 -3.399181e+00 -4.044177e+00 -4.401196e+00 -5.079849e-01 -8.686089e+00 -5.117174e+00 -1.629270e+00 4.019507e-01 2.487223e-01 -1.696914e-01 1.737510e-01 1.958978e-01 -2.574755e-01 -3.190323e-01 -2.737330e-01 2.809288e-01 2.232883e-01 3.328177e-01 3.330472e-01 -1.147165e-01 1.752102e-02 2.584172e-01 -3.129778e-02 -6.049385e-02 4.260216e-02 -2.533129e-02 -1.968643e-01 -9.970772e-02 -4.289380e-02 8.308109e-02 1.747354e-01 6.950138e-02 -6.033888e-03 5.007191e-03
<VARIANCE> 39
 1.792189e+01 1.323647e+01 1.367715e+01 1.251954e+01 1.138237e+01 1.346846e+01 1.388091e+01 2.571032e+01 1.657511e+01 1.882657e+01 1.949791e+01 1.543947e+01 1.000000e-02 3.183462e+00 1.344984e+00 1.459574e+00 1.568955e+00 9.486728e-01 2.340646e+00 1.894252e+00 2.751608e+00 1.869101e+00 2.676854e+00 2.101352e+00 1.372307e+00 1.000000e-02 3.993042e-01 2.178158e-01 3.133495e-01 3.067298e-01 1.824317e-01 5.483096e-01 3.576169e-01 6.175610e-01 3.687580e-01 4.006101e-01 4.341004e-01 2.675368e-01 1.000000e-02
<GCONST> 8.557249e+01
<STATE> 3
<MEAN> 39
 -8.464243e-02 -6.051301e+00 1.334005e+01 4.978787e-01 -7.284515e+00 -1.631966e+01 -8.560852e+00 9.169279e-01 -1.152278e+00 2.022535e+00 1.130879e+00 -8.868047e-01 7.569208e-01 -6.715707e-02 2.587211e-01 1.082366e+00 -4.663044e-01 -4.997344e-01 -6.450059e-02 -1.017546e-01 -1.365411e-01 -7.877969e-01 1.006536e-01 -9.471668e-02 4.313690e-01 3.244427e-03 -3.218344e-01 9.848097e-02 2.134399e-02 -7.043798e-02 1.476827e-01 3.862598e-01 2.422157e-02 -9.980968e-02 -3.862777e-02 -2.473802e-01 -1.878833e-01 9.007590e-03 -6.933320e-03
<VARIANCE> 39
 1.804935e+01 1.555549e+01 8.555919e+01 2.049274e+01 3.315736e+01 2.519770e+01 1.890253e+01 3.026369e+01 4.672667e+01 1.294138e+01 1.052459e+01 1.643509e+01 1.000000e-02 3.865719e+00 1.927050e+00 3.767881e+00 1.357842e+00 2.671739e+00 5.359586e+00 1.807106e+00 4.543373e+00 3.505676e+00 2.718220e+00 1.469890e+00 1.534765e+00 1.000000e-02 3.716356e-01 2.319203e-01 5.799058e-01 2.643070e-01 3.590139e-01 4.237264e-01 3.301283e-01 6.421565e-01 6.766185e-01 5.073105e-01 2.445420e-01 3.003992e-01 1.000000e-02
<GCONST> 9.563784e+01
<STATE> 4
<MEAN> 39
 -7.210144e+00 6.370305e-02 1.087767e+01 -2.799448e+00 1.727241e+00 -1.682800e+00 -7.425807e+00 -7.399271e+00 -2.417656e+00 -5.908216e+00 -7.667294e+00 5.147001e-01 4.741311e-01 -4.535088e-02 -3.591619e-02 -7.702423e-01 1.144408e-01 5.137277e-01 3.397148e-01 2.532212e-01 -6.710555e-02 4.053577e-01 -2.876963e-01 -3.004119e-01 -1.940106e-01 -1.393201e-02 1.926730e-02 -5.097980e-02 2.686314e-02 3.034049e-03 -7.333821e-02 -1.055057e-01 5.090028e-02 6.564137e-02 -1.605482e-02 5.439707e-02 6.961583e-02 -1.192667e-02 5.322960e-04
<VARIANCE> 39
 3.150857e+00 6.673436e+00 4.484979e+01 1.139203e+01 1.926640e+01 1.317751e+01 2.533071e+01 1.175270e+01 2.017275e+01 1.660881e+01 1.165222e+01 1.293321e+01 1.882089e-02 3.169675e-01 6.027578e-01 1.005643e+00 1.131203e+00 1.389525e+00 1.657543e+00 1.984517e+00 1.502380e+00 1.283327e+00 1.545127e+00 1.393298e+00 1.078133e+00 1.000000e-02 6.753177e-02 1.031127e-01 1.296099e-01 2.565592e-01 1.859346e-01 2.542354e-01 3.430124e-01 3.090338e-01 2.521281e-01 2.818210e-01 2.269704e-01 2.197651e-01 1.000000e-02
<GCONST> 7.202129e+01
<TRANSP> 5
 0.000000e+00 1.000000e+00 0.000000e+00 0.000000e+00 0.000000e+00
 0.000000e+00 9.386503e-01 6.134969e-02 0.000000e+00 0.000000e+00
 0.000000e+00 0.000000e+00 9.290780e-01 7.092199e-02 0.000000e+00
 0.000000e+00 0.000000e+00 0.000000e+00 9.549550e-01 4.504504e-02
 0.000000e+00 0.000000e+00 0.000000e+00 0.000000e+00 0.000000e+00
<ENDHMM>
