~o
<STREAMINFO> 1 39
<VECSIZE> 39<NULLD><MFCC_E_D_A><DIAGC>
~h "three"
<BEGINHMM>
<NUMSTATES> 5
<STATE> 2
<MEAN> 39
 -2.199869e+01 -1.727341e+00 1.913726e+00 -3.573084e+00 1.690656e+00 -2.073084e+00 2.638418e+00 1.072014e+00 1.419645e+00 -5.796522e-01 2.333098e+00 3.154078e-01 3.647687e-01 8.132336e-02 -2.209318e-01 2.103134e-01 3.216236e-02 -3.011219e-01 -3.856932e-01 -2.929366e-01 -2.734200e-02 -9.450827e-02 -1.783732e-01 -2.101397e-01 -1.124343e-01 1.598335e-02 2.717433e-01 -3.797946e-02 2.521889e-02 5.204663e-03 -1.288311e-01 -1.582180e-01 -1.891859e-01 -9.825338e-02 -1.024836e-01 -6.654838e-02 -1.034727e-01 -7.993516e-02 -2.202358e-04
<VARIANCE> 39
 4.082091e+01 3.221260e+01 4.994338e+01 3.678556e+01 3.160916e+01 2.822144e+01 2.707306e+01 2.610347e+01 2.163511e+01 1.787405e+01 1.754638e+01 1.469061e+01 4.134537e-02 2.681188e+00 1.747632e+00 2.332459e+00 2.133924e+00 2.501000e+00 2.962044e+00 3.056829e+00 2.515183e+00 2.383112e+00 2.107448e+00 2.139213e+00 1.654044e+00 1.000000e-02 3.259610e-01 2.830917e-01 4.104163e-01 4.513381e-01 4.916979e-01 5.535088e-01 6.453504e-01 5.470078e-01 4.995440e-01 4.258470e-01 3.957649e-01 3.431287e-01 1.000000e-02
<GCONST> 9.895567e+01
<STATE> 3
<MEAN> 39
 -5.560407e+00 -8.654671e+00 7.457302e+00 -5.874738e+00 -1.306784e+01 -1.451191e+01 -9.652527e+00 -4.653025e+00 -7.519578e+00 -3.819409e+00 -4.253974e+00 -4.757132e+00 6.086640e-01 4.858614e-01 -9.171798e-02 9.157341e-01 -1.029388e+00 -1.090099e+00 -1.522703e-01 -4.573734e-01 -6.613217e-01 -9.446681e-01 3.682260e-01 -3.957809e-01 -2.358904e-01 1.661562e-02 -3.494386e-01 1.695796e-01 6.765828e-02 -1.152884e-01 2.413338e-01 3.117284e-01 2.107428e-01 2.180040e-02 1.806609e-01 1.552105e-01 3.796133e-02 1.446919e-01 -2.518717e-03
<VARIANCE> 39
 3.885435e+01 4.647166e+01 6.363719e+01 6.134180e+01 8.527627e+01 4.171476e+01 4.301741e+01 5.610387e+01 4.830145e+01 3.415176e+01 2.829325e+01 2.534658e+01 2.765779e-02 4.845758e+00 2.793338e+00 3.954743e+00 3.225878e+00 4.117359e+00 4.905695e+00 5.478803e+00 4.729062e+00 3.339220e+00 3.522180e+00 2.759115e+00 2.645744e+00 1.000000e-02 4.263303e-01 3.662271e-01 6.371095e-01 4.831541e-01 6.307280e-01 6.439611e-01 7.798405e-01 8.270041e-01 6.390338e-01 6.274387e-01 5.411729e-01 4.406726e-01 1.000000e-02
<GCONST> 1.137386e+02
<STATE> 4
<MEAN> 39
 -1.331468e+01 1.904224e+00 1.603154e+01 -1.425299e+01 -7.311248e+00 -3.080520e+00 -9.332695e+00 -9.900615e+00 -5.507065e+00 -9.883237e-01 -7.179116e+00 -2.016168e+00 4.872583e-01 -1.568636e-01 1.607568e-01 -3.480787e-01 3.538302e-01 5.654437e-01 3.603355e-01 2.624414e-01 1.875610e-01 4.144130e-01 -6.238857e-02 1.981580e-01 1.193868e-01 -1.649316e-02 3.346279e-02 -7.146033e-02 -6.704463e-02 6.742718e-02 -1.418987e-02 -4.315440e-02 3.281207e-02 7.583253e-02 -1.352065e-02 -2.080441e-02 6.081281e-02 -5.010456e-03 -7.564896e-04
<VARIANCE> 39
 2.903131e+01 3.782549e+01 5.158007e+01 8.613404e+01 8.601833e+01 5.307049e+01 7.525013e+01 5.511286e+01 6.384739e+01 3.436865e+01 4.797559e+01 4.163674e+01 5.625735e-02 4.995842e-01 1.342260e+00 1.151214e+00 1.756192e+00 1.740539e+00 1.934110e+00 2.407847e+00 2.191273e+00 1.832092e+00 1.841216e+00 2.012032e+00 1.624969e+00 1.000000e-02 7.220164e-02 1.265419e-01 1.720550e-01 2.651350e-01 2.726421e-01 3.319183e-01 3.302388e-01 3.194234e-01 3.190560e-01 3.338972e-01 3.174248e-01 2.781352e-01 1.000000e-02
<GCONST> 9.552000e+01
<TRANSP> 5
 0.000000e+00 1.000000e+00 0.000000e+00 0.000000e+00 0.000000e+00
 0.000000e+00 9.406213e-01 5.937869e-02 0.000000e+00 0.000000e+00
 0.000000e+00 0.000000e+00 9.224448e-01 7.755522e-02 0.000000e+00
 0.000000e+00 0.000000e+00 0.000000e+00 9.678928e-01 3.210716e-02
 0.000000e+00 0.000000e+00 0.000000e+00 0.000000e+00 0.000000e+00
<ENDHMM>
