~o
<STREAMINFO> 1 39
<VECSIZE> 39<NULLD><MFCC_E_D_A><DIAGC>
~h "three"
<BEGINHMM>
<NUMSTATES> 5
<STATE> 2
<MEAN> 39
 -1.004713e+01 4.741881e+00 4.194737e+00 3.860824e-01 3.882855e+00 -7.220613e+00 -2.685838e+00 -6.956270e+00 -3.731456e-01 -8.477326e+00 -6.486333e+00 -2.841953e+00 3.109601e-01 -3.946066e-01 2.225856e-02 -1.450083e-01 -5.784294e-02 -1.094915e-01 7.642576e-02 6.225764e-02 3.469113e-03 1.087198e-01 2.559134e-02 4.699032e-02 1.619060e-02 4.440728e-03 2.898283e-02 -1.277621e-02 1.194163e-02 -2.487837e-02 -2.213199e-02 -8.754924e-03 7.498298e-03 5.006440e-03 2.982563e-02 7.126620e-02 2.010895e-03 3.905040e-02 7.112417e-04
<VARIANCE> 39
 3.241047e+01 7.990999e+00 8.335182e+00 1.068677e+01 2.788068e+01 2.248941e+01 1.459461e+01 1.710949e+01 2.665665e+01 1.804367e+01 1.945022e+01 1.350108e+01 1.000000e-02 1.119352e+00 6.221094e-01 8.116443e-01 1.017018e+00 1.868877e+00 1.681138e+00 1.553912e+00 1.739084e+00 2.818785e+00 2.199060e+00 2.231786e+00 1.550299e+00 1.000000e-02 1.629308e-01 1.129030e-01 1.715965e-01 2.125740e-01 3.412910e-01 3.185916e-01 3.162878e-01 3.610407e-01 6.032100e-01 4.745594e-01 4.559051e-01 3.185353e-01 1.000000e-02
<GCONST> 8.139069e+01
<STATE> 3
<MEAN> 39
 -1.811618e+01 5.435964e+00 4.006956e+00 2.439383e-01 1.084958e+00 -2.400152e+00 2.144121e+00 -3.884010e+00 1.901461e+00 -2.145181e+00 -3.491190e+00 -6.074860e-01 5.379887e-01 3.017377e+00 6.834032e-02 2.252607e+00 1.301346e+00 3.341092e-01 5.762411e-01 2.513026e-01 1.805348e+00 1.216066e-01 1.701998e+00 9.798084e-01 2.340394e-01 8.158106e-02 1.004033e+00 1.398885e-01 4.921681e-02 4.809628e-01 3.448420e-01 -3.728041e-01 -7.441468e-01 6.514806e-02 1.520175e-01 -5.491750e-01 1.077374e-01 -9.845909e-02 1.098599e-02
<VARIANCE> 39
 1.767321e+01 5.151880e+00 4.661692e+01 1.327323e+01 9.937650e+00 2.483841e+01 2.262710e+01 3.185415e+01 1.764777e+01 2.834557e+01 1.792209e+01 1.820321e+01 2.837674e-02 4.097810e+00 6.459502e-01 3.963508e+00 3.336447e+00 1.712192e+00 3.449211e+00 5.740229e+00 2.523660e+00 1.579299e+00 2.914171e+00 1.979747e+00 1.397081e+00 1.000000e-02 2.433322e-01 1.122851e-01 1.631213e+00 4.658920e-01 2.439009e-01 1.246079e+00 1.655841e+00 1.009834e+00 3.238583e-01 9.050620e-01 5.795161e-01 3.570934e-01 1.000000e-02
<GCONST> 9.713012e+01
<STATE> 4
<MEAN> 39
 6.361239e-01 4.468729e+00 1.310740e+01 1.328648e+00 -2.507540e+00 -1.004029e+01 -1.183666e+01 -3.695938e+00 -9.101443e-01 -9.667355e+00 6.547535e-01 -3.199224e-01 7.934504e-01 3.050095e-01 -3.248958e-02 3.496257e-01 -3.362347e-01 -5.718532e-01 -3.866935e-01 -5.204058e-01 -3.615592e-01 -4.179094e-01 -6.076325e-01 4.764788e-02 3.298883e-02 -3.666414e-03 -3.432880e-01 -6.627751e-03 -4.325230e-02 -1.296653e-01 7.808720e-03 1.510814e-01 2.468538e-01 -5.193985e-02 -6.441077e-02 7.696986e-02 -6.423613e-02 -3.481258e-02 -5.682969e-03
<VARIANCE> 39
 3.307247e+01 9.705769e+00 6.775404e+01 2.578259e+01 7.211475e+01 6.273614e+01 6.892866e+01 3.187007e+01 4.487098e+01 3.726477e+01 2.305173e+01 1.424452e+01 1.956223e-02 4.077829e+00 9.816319e-01 4.447351e+00 2.157903e+00 4.763832e+00 5.590624e+00 1.148225e+01 3.989611e+00 2.793731e+00 3.940428e+00 2.713691e+00 1.426298e+00 1.000000e-02 3.023616e-01 1.758495e-01 7.336361e-01 5.682456e-01 6.876564e-01 6.941902e-01 1.715697e+00 1.003663e+00 4.453610e-01 5.684612e-01 5.538906e-01 2.717539e-01 1.000000e-02
<GCONST> 1.083322e+02
<TRANSP> 5
 0.000000e+00 1.000000e+00 0.000000e+00 0.000000e+00 0.000000e+00
 0.000000e+00 9.688889e-01 3.111111e-02 0.000000e+00 0.000000e+00
 0.000000e+00 0.000000e+00 7.812500e-01 2.187500e-01 0.000000e+00
 0.000000e+00 0.000000e+00 0.000000e+00 9.416667e-01 5.833333e-02
 0.000000e+00 0.000000e+00 0.000000e+00 0.000000e+00 0.000000e+00
<ENDHMM>
