~o
<STREAMINFO> 1 39
<VECSIZE> 39<NULLD><MFCC_E_D_A><DIAGC>
~h "three"
<BEGINHMM>
<NUMSTATES> 5
<STATE> 2
<MEAN> 39
 -1.278278e+01 -5.115420e+00 3.021813e-01 -3.423971e-01 -5.302193e+00 -7.231910e+00 -3.558531e+00 -1.624341e+00 -8.129979e-01 -2.572825e+00 -2.615903e-01 -1.428656e+00 4.654489e-01 4.304619e-01 -3.313518e-01 6.827272e-01 -2.212967e-01 -6.930471e-01 -4.769832e-01 -3.698261e-01 -1.079310e-01 -4.557421e-01 2.314924e-02 -1.488667e-02 -1.136532e-01 2.487263e-02 7.265106e-03 3.482528e-02 8.606025e-02 -6.511526e-02 -6.709857e-03 5.589138e-02 4.965953e-03 -5.073667e-02 -3.319844e-02 4.558076e-02 -2.366529e-02 -1.491234e-02 -1.224089e-03
<VARIANCE> 39
 1.190629e+02 5.513892e+01 7.270499e+01 5.238541e+01 7.475380e+01 9.089659e+01 8.403812e+01 4.549084e+01 5.651412e+01 3.730034e+01 3.645165e+01 2.817736e+01 7.439081e-02 4.946875e+00 2.372040e+00 3.865742e+00 2.884380e+00 3.278377e+00 4.194843e+00 4.908717e+00 3.717469e+00 3.588360e+00 3.019034e+00 2.543842e+00 2.126466e+00 1.000000e-02 6.560961e-01 3.933559e-01 5.773389e-01 4.845735e-01 5.769185e-01 7.160974e-01 8.439885e-01 6.964338e-01 6.638165e-01 5.439459e-01 4.952471e-01 4.009428e-01 1.000000e-02
<GCONST> 1.163547e+02
<STATE> 3
<MEAN> 39
 -7.928254e+00 -1.029837e+00 1.901400e+01 -1.278844e+01 -1.606168e+01 -7.412390e+00 -1.057988e+01 -9.950211e+00 -9.362542e+00 -6.159826e-01 -5.080661e+00 -3.107914e+00 6.839219e-01 -2.104906e-01 7.358845e-01 1.289782e-01 -2.035488e-01 3.054703e-01 5.301495e-01 -5.893834e-02 -4.323997e-01 2.624373e-01 -2.440009e-02 -3.217336e-01 5.259304e-02 -1.127140e-02 4.145885e-02 -5.232963e-02 -1.535751e-01 1.466298e-01 9.433617e-02 -4.174026e-02 3.156414e-02 8.809634e-02 7.878589e-02 -7.793348e-02 2.357891e-02 1.523445e-02 -1.663515e-03
<VARIANCE> 39
 2.499324e+01 6.065500e+01 4.090329e+01 1.115006e+02 5.099402e+01 7.696568e+01 5.941925e+01 4.840010e+01 5.342566e+01 6.409726e+01 7.540127e+01 4.541327e+01 1.439488e-02 3.705356e-01 7.763867e-01 1.028956e+00 1.328665e+00 1.242836e+00 1.477970e+00 1.556565e+00 1.605709e+00 1.574830e+00 1.742563e+00 1.467396e+00 1.266537e+00 1.000000e-02 4.321072e-02 8.145201e-02 1.322459e-01 1.621740e-01 2.026834e-01 2.295811e-01 2.593469e-01 2.607678e-01 2.825032e-01 2.768149e-01 2.471925e-01 2.066790e-01 1.000000e-02
<GCONST> 8.793617e+01
<STATE> 4
<MEAN> 39
 -1.137050e+01 -2.152446e-01 6.563581e+00 -5.025101e+00 -4.349355e+00 -2.683389e+00 -2.077057e+00 -6.772053e+00 -2.154941e+00 -3.404280e+00 -3.393613e+00 -1.871554e+00 2.548752e-01 -2.492982e-01 -4.149437e-01 -1.002645e+00 4.809735e-01 7.308716e-01 1.945170e-01 5.504284e-01 5.330263e-01 3.455231e-01 -4.578556e-02 3.145821e-01 1.043110e-01 -2.979456e-02 -1.559521e-04 -2.771308e-02 1.774355e-02 -5.058000e-02 -4.335424e-02 -4.260084e-02 -3.693964e-02 2.348764e-02 -3.026423e-02 2.481763e-02 3.662755e-02 2.030008e-02 8.306613e-04
<VARIANCE> 39
 2.767355e+01 3.185211e+01 8.584534e+01 6.686198e+01 5.679777e+01 5.346434e+01 5.000685e+01 4.415427e+01 3.567872e+01 3.740143e+01 4.665408e+01 2.828285e+01 5.442286e-02 6.529502e-01 1.181895e+00 1.580845e+00 2.089414e+00 2.356357e+00 2.576055e+00 2.671981e+00 2.160695e+00 2.300300e+00 2.538446e+00 2.309948e+00 1.911669e+00 1.000000e-02 1.071479e-01 2.023886e-01 2.275465e-01 3.109764e-01 3.627339e-01 4.215111e-01 4.117444e-01 3.763622e-01 4.156340e-01 4.469898e-01 3.910782e-01 3.620646e-01 1.000000e-02
<GCONST> 9.897438e+01
<TRANSP> 5
 0.000000e+00 1.000000e+00 0.000000e+00 0.000000e+00 0.000000e+00
 0.000000e+00 9.607143e-01 3.928571e-02 0.000000e+00 0.000000e+00
 0.000000e+00 0.000000e+00 9.459016e-01 5.409836e-02 0.000000e+00
 0.000000e+00 0.000000e+00 0.000000e+00 9.330752e-01 6.692478e-02
 0.000000e+00 0.000000e+00 0.000000e+00 0.000000e+00 0.000000e+00
<ENDHMM>
