~o
<STREAMINFO> 1 39
<VECSIZE> 39<NULLD><MFCC_E_D_A><DIAGC>
~h "two"
<BEGINHMM>
<NUMSTATES> 5
<STATE> 2
<MEAN> 39
 -1.400135e+01 -2.022985e+00 7.525635e+00 -2.265432e+00 -2.653453e-01 -4.859330e+00 -6.877015e+00 -2.430484e-01 -3.766728e-01 -8.556014e+00 -3.104213e+00 -5.240880e-02 5.127605e-01 2.590552e-01 -1.781153e-01 8.139987e-01 1.228627e-01 -7.096471e-01 -7.185149e-01 -4.056629e-01 7.121633e-01 -1.020660e-01 2.699550e-01 5.114516e-01 3.899825e-02 2.638528e-02 1.058328e-01 -2.041112e-03 6.181262e-02 5.732790e-02 -5.201371e-02 -5.228991e-02 -2.268930e-02 -1.871633e-02 -4.784251e-02 2.085697e-02 1.322325e-02 1.871193e-02 1.901732e-03
<VARIANCE> 39
 6.640115e+01 1.138505e+01 2.516695e+01 1.033634e+01 2.880629e+01 2.847016e+01 1.409427e+01 4.417678e+01 1.837002e+01 2.985033e+01 2.827444e+01 9.548226e+00 2.312237e-02 8.636791e+00 1.531222e+00 1.554263e+00 1.393582e+00 2.175157e+00 2.039755e+00 1.493602e+00 2.303137e+00 2.084441e+00 3.699512e+00 2.814198e+00 1.090578e+00 1.000000e-02 1.097802e+00 3.258447e-01 2.424689e-01 2.587650e-01 4.285938e-01 3.445711e-01 2.877069e-01 4.198126e-01 4.349507e-01 6.365817e-01 6.038400e-01 2.352851e-01 1.000000e-02
<GCONST> 9.412344e+01
<STATE> 3
<MEAN> 39
 -1.873609e+00 -2.892646e-01 1.457059e+01 2.267173e+00 -4.046824e+00 -1.222732e+01 -1.206871e+01 -3.042306e+00 -3.667094e+00 -2.396747e+00 -2.752455e+00 9.452326e-01 7.139702e-01 3.539891e-02 5.457060e-01 -6.989551e-01 -4.715786e-02 8.823254e-01 5.984126e-01 1.998020e-01 -9.798701e-01 -1.522217e-01 -2.473432e-01 -5.920861e-01 2.660317e-02 -1.280736e-02 -1.560403e-01 -4.396674e-02 -1.532626e-01 -8.175216e-02 1.362755e-01 1.492098e-01 1.597407e-01 4.319773e-02 6.139072e-02 -7.654570e-02 -4.203087e-02 4.713638e-04 -4.253234e-03
<VARIANCE> 39
 1.460558e+00 1.723271e+01 2.071800e+01 7.370062e+00 3.453714e+01 2.106617e+01 1.196945e+01 4.574785e+01 9.709854e+00 1.088679e+01 1.696359e+01 1.124684e+01 1.000000e-02 1.838868e-01 7.080979e-01 9.351774e-01 7.029799e-01 1.453777e+00 1.165711e+00 1.061188e+00 1.324608e+00 1.047663e+00 1.523995e+00 1.002836e+00 8.560122e-01 1.000000e-02 1.070165e-01 1.550081e-01 1.809430e-01 1.241836e-01 2.526475e-01 2.477681e-01 1.757077e-01 2.322247e-01 1.832639e-01 3.691641e-01 2.209132e-01 1.528113e-01 1.000000e-02
<GCONST> 6.770150e+01
<STATE> 4
<MEAN> 39
 -5.785364e+00 -1.721366e+00 3.613818e+00 -1.742680e+00 4.221073e+00 -2.516098e+00 -4.639508e+00 -7.745706e+00 -1.078938e+00 -5.892327e+00 -7.818054e+00 -5.407652e-01 4.107886e-01 -2.286164e-01 -2.314817e-01 -2.183709e-01 -7.913102e-02 3.220218e-02 1.853178e-01 2.190573e-01 5.746803e-02 1.865886e-01 -5.258735e-02 -3.997307e-02 -1.037636e-01 -1.318360e-02 2.468782e-02 3.455966e-02 5.916908e-02 3.862117e-02 -3.213335e-02 -4.211660e-02 -6.345828e-02 -2.164079e-02 -3.263731e-02 1.556899e-02 1.072432e-02 -2.964561e-02 1.440776e-03
<VARIANCE> 39
 5.961345e+00 1.014190e+01 6.069386e+00 7.181960e+00 7.514445e+00 9.945136e+00 1.392071e+01 1.417362e+01 1.603908e+01 1.334408e+01 1.792770e+01 1.140830e+01 1.054056e-02 4.225604e-01 6.974043e-01 7.220913e-01 6.237248e-01 7.293160e-01 9.934429e-01 1.532078e+00 1.481455e+00 1.427092e+00 1.523291e+00 1.748308e+00 1.227713e+00 1.000000e-02 5.883040e-02 1.048563e-01 1.127500e-01 1.094975e-01 1.507608e-01 1.903047e-01 2.928431e-01 2.876469e-01 2.840810e-01 3.118828e-01 3.488878e-01 2.618604e-01 1.000000e-02
<GCONST> 6.577028e+01
<TRANSP> 5
 0.000000e+00 1.000000e+00 0.000000e+00 0.000000e+00 0.000000e+00
 0.000000e+00 9.438202e-01 5.617978e-02 0.000000e+00 0.000000e+00
 0.000000e+00 0.000000e+00 9.324324e-01 6.756756e-02 0.000000e+00
 0.000000e+00 0.000000e+00 0.000000e+00 9.521531e-01 4.784689e-02
 0.000000e+00 0.000000e+00 0.000000e+00 0.000000e+00 0.000000e+00
<ENDHMM>
