~o
<STREAMINFO> 1 39
<VECSIZE> 39<NULLD><MFCC_E_D_A><DIAGC>
~h "two"
<BEGINHMM>
<NUMSTATES> 5
<STATE> 2
<MEAN> 39
 -8.193502e+00 2.407448e+00 4.409573e+00 -1.310992e+00 5.587494e+00 -5.984289e+00 -1.758397e+00 -6.586603e+00 -5.277358e-01 -8.077514e+00 -7.310487e+00 -4.078184e+00 2.670677e-01 -1.156663e-01 1.826961e-02 8.350321e-02 -7.692039e-02 1.175805e-01 1.425784e-01 -6.123673e-02 8.640785e-03 -9.332498e-02 6.666540e-03 3.632937e-02 1.603178e-02 1.484195e-03 -9.581401e-02 1.333913e-02 3.128894e-02 -4.361043e-02 -3.306394e-02 7.935566e-03 2.235519e-03 6.174280e-02 -2.101878e-02 5.247799e-02 6.005694e-02 3.099222e-02 1.647173e-03
<VARIANCE> 39
 6.625226e+00 1.865410e+01 9.017731e+00 1.284762e+01 2.127026e+01 2.162640e+01 1.758048e+01 2.160367e+01 2.415574e+01 1.620412e+01 1.434480e+01 1.188036e+01 1.000000e-02 5.327709e-01 8.962817e-01 9.012445e-01 1.035270e+00 1.218231e+00 1.153833e+00 2.013456e+00 1.834728e+00 1.582280e+00 2.114742e+00 1.404832e+00 1.095519e+00 1.000000e-02 1.370001e-01 1.432412e-01 1.771957e-01 1.853171e-01 2.637216e-01 2.351355e-01 3.858594e-01 3.930012e-01 3.053173e-01 5.057237e-01 3.233860e-01 2.511416e-01 1.000000e-02
<GCONST> 7.669498e+01
<STATE> 3
<MEAN> 39
 -1.769425e+01 4.082814e+00 1.009593e+01 -5.767072e+00 1.351020e+00 -3.527903e+00 1.953226e-01 -1.888258e-01 -1.434708e+00 -1.545388e+00 -3.491538e-01 1.200078e+00 5.296649e-01 -5.171946e-01 6.374329e-01 1.393307e+00 8.874806e-01 -1.278611e+00 9.659234e-02 1.583653e+00 1.387611e+00 3.592280e-01 9.515982e-01 1.302422e+00 1.173317e+00 6.834693e-02 9.086791e-01 3.611939e-02 1.082053e-01 6.986779e-01 7.444140e-02 1.413625e-01 1.170022e-01 -2.383078e-01 5.640694e-02 -4.158762e-01 -3.469973e-01 -2.600994e-01 1.739578e-03
<VARIANCE> 39
 1.597966e+01 1.419759e+01 1.649794e+01 2.166396e+01 2.795320e+01 2.392521e+01 3.402294e+01 2.352421e+01 1.912355e+01 2.418598e+01 1.957657e+01 2.028946e+01 1.844314e-02 7.754173e+00 1.681519e+00 1.651161e+00 6.964575e+00 3.080171e+00 3.383866e+00 3.171595e+00 3.020844e+00 1.751662e+00 4.116032e+00 3.072077e+00 2.465693e+00 1.000000e-02 6.221995e-01 3.925419e-01 2.654230e-01 7.228879e-01 6.707290e-01 7.329308e-01 1.067414e+00 5.727112e-01 3.709982e-01 7.430732e-01 4.153036e-01 6.546174e-01 1.000000e-02
<GCONST> 1.018493e+02
<STATE> 4
<MEAN> 39
 -2.200048e+00 5.762673e+00 1.212115e+01 4.897163e+00 -4.330711e+00 -4.833881e+00 -7.289402e+00 -3.174352e+00 -4.274108e+00 -7.323156e+00 1.761164e-01 -9.320106e-01 7.859331e-01 6.897230e-01 -1.109767e-01 -5.741997e-01 -1.544200e-02 2.542121e-01 -1.160016e-01 -6.813401e-01 -5.039235e-01 -2.331148e-01 -3.521829e-01 -1.756611e-01 -1.698553e-01 -4.968998e-03 -1.694596e-01 -3.982663e-02 -1.265888e-01 -1.486967e-01 7.676291e-02 -6.780492e-02 -3.042988e-02 -3.818626e-02 1.806973e-02 2.467714e-02 -7.636087e-03 5.198941e-02 -5.066047e-03
<VARIANCE> 39
 1.793595e+01 8.614937e+00 3.125803e+01 2.082002e+01 8.997875e+01 2.713994e+01 6.856306e+01 2.820299e+01 4.226731e+01 2.679563e+01 2.128164e+01 1.114799e+01 2.463081e-02 1.798276e+00 7.676448e-01 1.567074e+00 2.051882e+00 5.400333e+00 2.305474e+00 5.011557e+00 2.287567e+00 3.066328e+00 2.223802e+00 1.226944e+00 1.363942e+00 1.000000e-02 1.043431e-01 1.798337e-01 3.222160e-01 4.412892e-01 7.201500e-01 4.604299e-01 8.327034e-01 4.999506e-01 4.513857e-01 3.006867e-01 2.056318e-01 2.889159e-01 1.000000e-02
<GCONST> 9.430970e+01
<TRANSP> 5
 0.000000e+00 1.000000e+00 0.000000e+00 0.000000e+00 0.000000e+00
 0.000000e+00 9.650000e-01 3.500000e-02 0.000000e+00 0.000000e+00
 0.000000e+00 0.000000e+00 8.372093e-01 1.627907e-01 0.000000e+00
 0.000000e+00 0.000000e+00 0.000000e+00 9.465649e-01 5.343511e-02
 0.000000e+00 0.000000e+00 0.000000e+00 0.000000e+00 0.000000e+00
<ENDHMM>
