~o
<STREAMINFO> 1 39
<VECSIZE> 39<NULLD><MFCC_E_D_A><DIAGC>
~h "two"
<BEGINHMM>
<NUMSTATES> 5
<STATE> 2
<MEAN> 39
 -1.595402e+01 -1.416674e+00 -4.819613e-01 -4.898203e+00 -3.154950e+00 -1.951166e+00 2.025401e+00 -3.475640e-01 -2.034387e+00 -4.441615e-01 7.611991e-01 -1.731917e+00 1.792815e-01 1.377617e-01 9.680022e-02 2.500111e-01 3.834242e-02 -3.411815e-01 -3.056819e-01 -2.185577e-03 2.962643e-02 -2.614243e-01 -9.233192e-02 8.135179e-03 -1.565652e-01 3.127725e-02 1.949680e-01 6.538285e-03 1.167594e-01 6.373924e-02 1.117739e-02 -7.753560e-02 -1.202378e-01 1.865429e-02 -2.243620e-02 -7.624509e-02 -5.681203e-02 5.906976e-02 3.225996e-03
<VARIANCE> 39
 1.340094e+01 9.607845e+00 7.163319e+00 4.327334e+01 3.930191e+01 2.683831e+01 1.344525e+01 1.491683e+01 2.356858e+01 1.512279e+01 1.155243e+01 1.524922e+01 1.080942e-01 2.713783e+00 1.413545e+00 1.460688e+00 4.852112e+00 2.724378e+00 2.245221e+00 1.705954e+00 1.687068e+00 2.174507e+00 2.361787e+00 1.366101e+00 1.440425e+00 1.000000e-02 3.568253e-01 2.967473e-01 2.239740e-01 8.851888e-01 4.818950e-01 4.904568e-01 3.832657e-01 3.632463e-01 4.572400e-01 5.450674e-01 2.767242e-01 2.993913e-01 1.000000e-02
<GCONST> 9.147250e+01
<STATE> 3
<MEAN> 39
 1.909344e+00 -6.265514e-01 9.903682e+00 -1.302119e-01 -5.859221e+00 -1.134107e+01 -8.682570e+00 2.212385e+00 -8.080111e+00 -5.171194e+00 -3.220298e+00 -5.818921e-01 7.075559e-01 1.818565e-01 6.670491e-02 -1.785655e-01 1.249929e-01 2.922576e-01 7.656068e-02 -1.971294e-01 -2.012150e-01 4.622449e-02 -1.369371e-02 -8.293207e-02 8.085219e-02 -2.703752e-02 -3.625332e-01 -7.034619e-02 -2.313552e-01 -1.509587e-01 -5.510933e-02 4.040071e-02 1.319109e-01 -8.604995e-02 7.966635e-04 8.762567e-02 6.138636e-02 -5.519600e-02 -8.992952e-03
<VARIANCE> 39
 1.656425e+01 3.182911e+01 2.854993e+01 2.813167e+01 2.811154e+01 3.903420e+01 4.780489e+01 2.764394e+01 1.260337e+01 1.539344e+01 1.231585e+01 1.968872e+01 3.822254e-02 4.540912e+00 2.577663e+00 2.425272e+00 1.801719e+00 1.890881e+00 2.665941e+00 4.407671e+00 2.464810e+00 1.103628e+00 1.052389e+00 1.361341e+00 1.648336e+00 1.000000e-02 2.372519e-01 3.637707e-01 2.039106e-01 4.313783e-01 3.584006e-01 4.476755e-01 4.640405e-01 3.634135e-01 1.811771e-01 2.197203e-01 2.316674e-01 2.191078e-01 1.000000e-02
<GCONST> 9.130554e+01
<STATE> 4
<MEAN> 39
 -1.182197e+01 -3.154303e-01 -9.736282e-01 -1.604554e+00 -2.735208e+00 -5.235281e+00 -2.296047e+00 -4.779657e+00 -3.871053e+00 -2.628396e+00 -1.246718e+00 -1.710626e+00 -1.224384e-02 -3.164822e-01 -9.201068e-02 -1.728990e-01 -1.770988e-01 1.737847e-01 1.584436e-01 1.043360e-01 5.083098e-02 1.926631e-01 1.447559e-01 8.368873e-02 1.788257e-01 -1.088144e-02 1.045836e-01 6.309667e-02 7.174189e-02 3.506606e-02 5.982580e-02 3.693553e-02 1.283875e-02 7.349148e-02 2.417716e-02 1.246675e-02 3.225011e-02 -8.715862e-03 5.221109e-03
<VARIANCE> 39
 4.889703e+00 4.074913e+00 5.296351e+00 8.685575e+00 1.610014e+01 1.824269e+01 1.610721e+01 1.888660e+01 1.980637e+01 1.509796e+01 1.486476e+01 1.346238e+01 1.000000e-02 3.786659e-01 3.804314e-01 6.140885e-01 7.161613e-01 1.011011e+00 1.567554e+00 1.714226e+00 1.388150e+00 1.582492e+00 1.835103e+00 1.502917e+00 1.048832e+00 1.000000e-02 5.891456e-02 7.580581e-02 1.066207e-01 1.414237e-01 2.117677e-01 2.735617e-01 3.443314e-01 3.154851e-01 3.405036e-01 4.210344e-01 3.055200e-01 1.834834e-01 1.000000e-02
<GCONST> 6.767394e+01
<TRANSP> 5
 0.000000e+00 1.000000e+00 0.000000e+00 0.000000e+00 0.000000e+00
 0.000000e+00 9.588235e-01 4.117647e-02 0.000000e+00 0.000000e+00
 0.000000e+00 0.000000e+00 9.469697e-01 5.303030e-02 0.000000e+00
 0.000000e+00 0.000000e+00 0.000000e+00 9.473684e-01 5.263158e-02
 0.000000e+00 0.000000e+00 0.000000e+00 0.000000e+00 0.000000e+00
<ENDHMM>
