~o
<STREAMINFO> 1 39
<VECSIZE> 39<NULLD><MFCC_E_D_A><DIAGC>
~h "two"
<BEGINHMM>
<NUMSTATES> 5
<STATE> 2
<MEAN> 39
 -1.882061e+01 -2.007874e+00 3.044978e+00 -6.646384e+00 -4.476788e+00 -6.572604e+00 -1.618367e+00 -1.585988e+00 -3.475120e+00 -1.019714e+00 3.177519e-01 -1.685080e+00 5.261972e-01 7.226137e-01 -1.193728e-01 7.467937e-01 -7.046163e-02 -1.086572e+00 -7.617463e-01 -7.105290e-01 -3.182671e-01 -6.023093e-01 -7.654065e-02 -1.646760e-01 -1.275716e-01 3.611497e-02 1.815372e-01 -7.959399e-02 -9.220019e-04 5.119169e-02 -2.573517e-02 5.593085e-03 -4.712551e-02 -4.617718e-03 3.360954e-03 -1.410672e-02 -2.648471e-02 9.429865e-04 -5.220983e-03
<VARIANCE> 39
 9.844446e+01 4.088206e+01 7.031725e+01 5.650383e+01 8.473774e+01 6.000245e+01 5.606293e+01 5.137511e+01 4.710204e+01 3.837358e+01 3.771988e+01 2.309294e+01 7.075173e-02 7.622240e+00 3.573272e+00 2.704453e+00 3.370234e+00 3.891681e+00 3.892482e+00 4.491542e+00 3.728144e+00 3.275096e+00 3.265905e+00 2.946852e+00 2.028563e+00 1.000000e-02 1.030574e+00 6.275239e-01 4.708647e-01 6.024876e-01 6.856960e-01 6.796169e-01 7.637281e-01 6.889666e-01 6.072181e-01 5.790927e-01 5.128736e-01 3.862238e-01 1.000000e-02
<GCONST> 1.166175e+02
<STATE> 3
<MEAN> 39
 -3.683482e+00 -2.835191e+00 6.535095e+00 -6.845246e+00 -1.020151e+01 -1.265844e+01 -1.186870e+01 -6.606105e+00 -9.372236e+00 -1.171365e+00 -3.534602e+00 -3.549720e+00 6.851472e-01 2.527388e-01 3.256288e-01 -3.859287e-01 7.092571e-02 4.423834e-01 2.386705e-01 2.944091e-02 -2.103547e-01 8.942074e-02 -8.230983e-03 -4.677480e-02 -3.198317e-02 -9.078423e-03 -3.581250e-02 5.459948e-02 -2.128590e-02 4.691878e-02 5.766821e-02 3.780997e-02 7.756717e-02 -1.612998e-02 3.122892e-02 -3.183264e-02 1.001131e-03 1.963918e-04 -1.794171e-03
<VARIANCE> 39
 4.045135e+01 5.204699e+01 6.926714e+01 1.037399e+02 8.281590e+01 8.918919e+01 6.676616e+01 6.526617e+01 6.270500e+01 6.934969e+01 5.798850e+01 4.501294e+01 1.759925e-02 2.087500e-01 5.368589e-01 6.671916e-01 8.325804e-01 1.035106e+00 1.185930e+00 1.418519e+00 1.570733e+00 1.403584e+00 1.485069e+00 1.402306e+00 1.194912e+00 1.000000e-02 3.124422e-02 7.019195e-02 8.930311e-02 1.214928e-01 1.518308e-01 1.841289e-01 2.075762e-01 2.130588e-01 2.146623e-01 2.261281e-01 2.100503e-01 1.795518e-01 1.000000e-02
<GCONST> 8.432657e+01
<STATE> 4
<MEAN> 39
 -6.619609e+00 -5.031022e-02 -6.227902e-01 -2.258647e+00 -1.312215e+00 -5.064124e+00 -3.294634e+00 -6.289805e+00 -3.673262e+00 -3.784827e+00 -2.262204e+00 -2.602188e+00 2.950397e-01 -6.136719e-01 -2.390957e-01 -2.146471e-01 2.411143e-01 4.318032e-01 4.115345e-01 5.956875e-01 3.875565e-01 3.867362e-01 -6.774101e-02 1.082830e-01 1.636592e-01 -3.062219e-02 -2.306018e-02 -5.434486e-02 2.056903e-02 -2.746245e-02 -3.839086e-02 -1.955717e-02 -2.642867e-02 3.832733e-02 -2.277303e-03 3.828213e-02 2.030618e-02 1.512549e-02 2.292762e-04
<VARIANCE> 39
 4.013103e+01 3.007172e+01 3.677106e+01 4.790619e+01 4.360068e+01 5.130075e+01 5.675512e+01 5.307751e+01 4.404448e+01 4.344711e+01 4.281684e+01 2.914454e+01 6.320494e-02 8.871423e-01 1.299081e+00 1.329444e+00 1.857902e+00 2.084203e+00 2.398432e+00 2.826194e+00 2.396770e+00 2.564296e+00 2.596064e+00 2.165751e+00 1.890762e+00 1.000000e-02 1.230278e-01 1.809387e-01 2.061846e-01 2.969482e-01 3.348224e-01 3.671083e-01 4.313493e-01 4.083225e-01 4.520314e-01 4.354670e-01 3.862751e-01 3.515117e-01 1.000000e-02
<GCONST> 9.850524e+01
<TRANSP> 5
 0.000000e+00 1.000000e+00 0.000000e+00 0.000000e+00 0.000000e+00
 0.000000e+00 9.316029e-01 6.839712e-02 0.000000e+00 0.000000e+00
 0.000000e+00 0.000000e+00 9.507973e-01 4.920267e-02 0.000000e+00
 0.000000e+00 0.000000e+00 0.000000e+00 9.319253e-01 6.807467e-02
 0.000000e+00 0.000000e+00 0.000000e+00 0.000000e+00 0.000000e+00
<ENDHMM>
