~o
<STREAMINFO> 1 39
<VECSIZE> 39<NULLD><MFCC_E_D_A><DIAGC>
~h "two"
<BEGINHMM>
<NUMSTATES> 5
<STATE> 2
<MEAN> 39
 -2.090871e+01 -1.750461e+00 6.694617e+00 -9.630601e+00 -3.103152e+00 -7.012815e+00 1.573170e-01 -1.613292e+00 -5.242664e+00 5.527684e-01 1.022401e+00 -1.393812e+00 5.718098e-01 6.534829e-01 -1.376167e-01 6.508162e-01 -1.827154e-01 -1.225306e+00 -1.034224e+00 -5.415842e-01 -4.501469e-01 -9.520389e-01 -4.974838e-02 -4.437169e-01 -7.762577e-02 2.473511e-02 1.767238e-01 -9.592860e-02 -1.001767e-02 8.925576e-02 -4.845053e-02 -5.016853e-04 -4.859240e-02 2.128168e-02 2.014752e-02 8.704828e-04 -4.631630e-02 2.219972e-02 -6.222331e-03
<VARIANCE> 39
 7.711184e+01 3.547337e+01 5.125597e+01 5.066254e+01 9.540121e+01 5.673719e+01 5.385614e+01 4.975954e+01 5.581215e+01 2.686337e+01 2.863812e+01 1.999369e+01 5.214231e-02 5.429502e+00 3.272128e+00 1.861173e+00 2.429466e+00 3.606863e+00 3.241874e+00 5.057971e+00 3.497784e+00 3.604559e+00 2.639801e+00 2.656871e+00 1.743653e+00 1.000000e-02 6.988963e-01 5.748060e-01 3.240162e-01 4.761564e-01 6.451174e-01 5.804490e-01 8.383417e-01 6.545909e-01 7.075711e-01 5.289904e-01 5.094863e-01 3.325423e-01 1.000000e-02
<GCONST> 1.118250e+02
<STATE> 3
<MEAN> 39
 -8.260744e+00 -4.060637e+00 1.174175e+01 -1.004903e+01 -1.101757e+01 -1.670210e+01 -1.094397e+01 -5.384130e+00 -1.300218e+01 8.386640e-02 -5.786349e+00 -2.193055e+00 6.084875e-01 1.634629e-01 2.444443e-01 -2.539792e-01 1.528199e-01 4.178282e-01 1.175091e-01 -1.437213e-01 -5.226088e-02 1.330428e-01 -7.036036e-02 -1.159323e-01 -3.817273e-02 -7.844880e-03 -2.081344e-02 4.759239e-02 -3.295289e-02 4.490899e-02 5.939766e-02 6.416889e-02 4.351995e-02 -2.519339e-02 2.998287e-02 -4.887548e-02 3.473028e-03 -1.101192e-02 -1.676155e-03
<VARIANCE> 39
 2.810310e+01 3.644320e+01 6.539568e+01 5.957808e+01 7.316154e+01 5.493293e+01 7.242588e+01 4.435027e+01 5.571352e+01 2.948699e+01 3.705085e+01 4.050216e+01 2.485811e-02 1.262153e-01 3.148971e-01 4.325548e-01 5.109656e-01 6.885064e-01 7.829571e-01 9.508945e-01 1.093345e+00 1.029540e+00 1.094403e+00 1.050516e+00 8.778721e-01 1.000000e-02 2.182987e-02 4.806785e-02 5.488938e-02 8.349863e-02 1.213631e-01 1.345984e-01 1.502886e-01 1.657415e-01 1.597266e-01 1.670750e-01 1.521734e-01 1.348510e-01 1.000000e-02
<GCONST> 7.222565e+01
<STATE> 4
<MEAN> 39
 -7.834598e+00 1.512904e-01 4.284224e+00 -3.872617e+00 -9.081891e-01 -7.795805e+00 -6.524355e+00 -5.670774e+00 -7.793420e+00 -2.613628e+00 -5.116914e+00 -3.502905e+00 3.654464e-01 -4.493571e-01 -1.117595e-01 -2.729339e-01 4.021053e-01 8.201166e-01 9.378633e-01 8.783326e-01 3.907694e-01 7.037454e-01 -3.205076e-02 3.850696e-01 1.418075e-01 -2.580790e-02 -3.206540e-02 -6.441160e-02 2.016033e-02 -3.583454e-02 -1.183783e-02 2.284461e-02 6.044080e-02 7.081722e-02 4.347784e-02 8.349165e-02 7.613562e-02 3.683849e-02 -5.867762e-04
<VARIANCE> 39
 4.137771e+01 2.618752e+01 5.388486e+01 4.249091e+01 7.102615e+01 6.599744e+01 7.561092e+01 4.989703e+01 6.480260e+01 3.751585e+01 4.446573e+01 4.125009e+01 5.975601e-02 1.058722e+00 1.301297e+00 1.317562e+00 1.830163e+00 2.440850e+00 2.418645e+00 3.055946e+00 2.767659e+00 2.906278e+00 2.867328e+00 2.668381e+00 2.459605e+00 1.000000e-02 1.462690e-01 1.824095e-01 2.061463e-01 3.258779e-01 3.785963e-01 4.026977e-01 5.046603e-01 4.723096e-01 4.966853e-01 5.127683e-01 4.763130e-01 4.166122e-01 1.000000e-02
<GCONST> 1.028612e+02
<TRANSP> 5
 0.000000e+00 1.000000e+00 0.000000e+00 0.000000e+00 0.000000e+00
 0.000000e+00 9.344406e-01 6.555945e-02 0.000000e+00 0.000000e+00
 0.000000e+00 0.000000e+00 9.503640e-01 4.963600e-02 0.000000e+00
 0.000000e+00 0.000000e+00 0.000000e+00 9.185668e-01 8.143322e-02
 0.000000e+00 0.000000e+00 0.000000e+00 0.000000e+00 0.000000e+00
<ENDHMM>
