~o
<STREAMINFO> 1 39
<VECSIZE> 39<NULLD><MFCC_E_D_A><DIAGC>
~h "zero"
<BEGINHMM>
<NUMSTATES> 5
<STATE> 2
<MEAN> 39
 -1.329883e+01 3.861690e+00 4.977918e+00 -3.577807e+00 6.218473e+00 -6.561489e+00 -4.070509e+00 -4.802233e+00 -1.849439e+00 -6.768129e+00 -5.916291e+00 3.095717e-01 4.688322e-01 2.025626e-01 -4.270890e-02 7.752906e-01 1.106683e-01 -7.030250e-01 -9.159627e-01 -2.048751e-01 6.882432e-01 -1.525969e-01 2.576613e-01 5.676796e-01 1.585339e-01 2.577805e-02 1.560926e-01 -1.600247e-01 9.222492e-02 3.065751e-02 -1.957784e-01 -2.055726e-03 -3.398822e-02 8.727124e-02 -2.953014e-02 6.210085e-02 4.601820e-03 9.067609e-03 1.802334e-03
<VARIANCE> 39
 5.127896e+01 2.961068e+01 2.409299e+01 1.550148e+01 3.645857e+01 4.023205e+01 2.061121e+01 3.085755e+01 1.738503e+01 2.226898e+01 2.479335e+01 1.408508e+01 2.204396e-02 6.885002e+00 3.546241e+00 2.612066e+00 1.667727e+00 5.310658e+00 2.206966e+00 2.295282e+00 2.201920e+00 1.543508e+00 2.851293e+00 1.475419e+00 1.613083e+00 1.000000e-02 7.864822e-01 3.552133e-01 3.155441e-01 3.173191e-01 4.684452e-01 4.077574e-01 4.314797e-01 3.524223e-01 3.022798e-01 5.357753e-01 2.777746e-01 3.424409e-01 1.000000e-02
<GCONST> 9.726980e+01
<STATE> 3
<MEAN> 39
 9.021696e-02 -7.513579e+00 8.804149e+00 -9.088264e-01 -9.579895e+00 -1.666995e+01 -4.595380e+00 6.350374e+00 2.247415e+00 4.136550e+00 -1.804028e+00 -4.294432e+00 7.227653e-01 1.595099e-01 -6.991111e-02 -6.932746e-01 -2.196369e-01 2.326681e-01 4.865815e-01 1.913584e-01 -1.850612e-01 3.210719e-01 2.964329e-01 -2.264472e-01 -4.614729e-01 -9.653172e-03 -1.271590e-01 1.765912e-01 -6.215607e-02 -2.907910e-02 1.828948e-01 7.750254e-02 4.664492e-03 -1.563130e-01 -2.694626e-02 -8.764046e-02 2.953216e-02 8.062597e-02 -2.350718e-03
<VARIANCE> 39
 5.662458e+00 1.639284e+01 5.646317e+01 1.449099e+01 2.093727e+01 2.201278e+01 1.135847e+01 2.044337e+01 2.062742e+01 1.661145e+01 1.784415e+01 4.044357e+01 1.000000e-02 3.903354e-01 1.637327e+00 1.430137e+00 1.600608e+00 1.765810e+00 1.931655e+00 1.372119e+00 1.979509e+00 1.515317e+00 1.304792e+00 1.705270e+00 1.991040e+00 1.000000e-02 1.474158e-01 1.784748e-01 2.577321e-01 2.713764e-01 3.461607e-01 3.469356e-01 3.142691e-01 2.826788e-01 3.113986e-01 2.591229e-01 3.353390e-01 3.311750e-01 1.000000e-02
<GCONST> 8.205614e+01
<STATE> 4
<MEAN> 39
 -4.977070e+00 -7.359878e-01 3.281171e+00 -2.623892e+00 2.134357e+00 -2.550643e+00 -3.072692e+00 -6.254579e+00 -1.069091e+00 -3.999869e+00 -5.428689e+00 -1.397257e+00 4.442119e-01 -3.453158e-01 1.151467e-01 4.000695e-02 2.342501e-01 4.359228e-01 4.336652e-01 1.770833e-02 -4.225953e-01 -1.961413e-01 -6.382650e-01 -2.133790e-01 3.651730e-01 -1.087212e-02 6.391925e-03 -7.869248e-02 -1.283622e-02 2.969297e-02 -2.653202e-02 -3.582151e-02 2.293649e-02 8.249968e-02 4.763467e-02 2.526544e-02 -6.989786e-02 -1.106116e-01 1.958217e-04
<VARIANCE> 39
 1.042094e+01 6.563766e+00 5.723053e+00 8.299965e+00 1.674844e+01 1.572560e+01 1.448646e+01 1.600473e+01 2.103432e+01 3.189487e+01 2.208392e+01 1.331321e+01 1.153691e-02 3.851666e-01 7.064414e-01 4.865339e-01 7.293490e-01 1.034498e+00 1.471936e+00 1.575837e+00 1.608259e+00 1.922072e+00 1.657916e+00 1.887751e+00 1.612123e+00 1.000000e-02 6.074043e-02 1.034147e-01 9.952154e-02 1.381633e-01 2.175132e-01 2.791980e-01 3.182521e-01 2.949110e-01 3.320893e-01 2.621081e-01 3.957784e-01 2.679761e-01 1.000000e-02
<GCONST> 7.137811e+01
<TRANSP> 5
 0.000000e+00 1.000000e+00 0.000000e+00 0.000000e+00 0.000000e+00
 0.000000e+00 9.456522e-01 5.434783e-02 0.000000e+00 0.000000e+00
 0.000000e+00 0.000000e+00 9.547511e-01 4.524887e-02 0.000000e+00
 0.000000e+00 0.000000e+00 0.000000e+00 9.484536e-01 5.154639e-02
 0.000000e+00 0.000000e+00 0.000000e+00 0.000000e+00 0.000000e+00
<ENDHMM>
