~o
<STREAMINFO> 1 39
<VECSIZE> 39<NULLD><MFCC_E_D_A><DIAGC>
~h "zero"
<BEGINHMM>
<NUMSTATES> 5
<STATE> 2
<MEAN> 39
 -1.871415e+01 6.907987e+00 1.590153e-01 2.040015e-01 -4.026494e+00 -8.858729e+00 -6.238227e-01 -5.397998e+00 -3.194331e+00 -4.500938e+00 -1.535702e+00 -2.375697e+00 4.936512e-01 3.258516e-01 -2.641841e-01 6.494716e-01 -3.560160e-01 -8.752925e-01 -4.434575e-01 -3.630903e-01 -1.916161e-01 -3.403920e-01 8.985133e-02 4.160886e-03 -1.241435e-02 3.143590e-02 1.039529e-01 -1.861479e-01 4.576685e-02 -7.398856e-02 -2.487238e-02 6.690330e-02 -4.280791e-02 7.017634e-02 2.941267e-04 5.455795e-02 1.648583e-02 1.281574e-02 -1.913824e-03
<VARIANCE> 39
 7.895250e+01 6.986189e+01 8.136330e+01 6.243937e+01 9.112339e+01 6.412491e+01 5.011151e+01 5.398385e+01 4.688750e+01 3.459020e+01 3.095182e+01 2.649445e+01 5.889619e-02 5.261213e+00 5.168969e+00 4.263046e+00 3.320830e+00 4.626525e+00 4.126418e+00 3.369114e+00 3.048515e+00 2.819101e+00 2.736804e+00 2.116882e+00 1.998797e+00 1.000000e-02 6.213678e-01 5.048734e-01 5.593102e-01 4.378210e-01 7.325561e-01 7.476102e-01 5.796254e-01 5.647967e-01 5.191672e-01 4.760485e-01 3.826016e-01 3.628270e-01 1.000000e-02
<GCONST> 1.145201e+02
<STATE> 3
<MEAN> 39
 -4.585049e-01 -1.034064e+01 1.912997e-01 -7.751181e+00 -1.149380e+01 -1.107241e+01 -9.660778e+00 -1.876373e+00 -4.515256e+00 -7.653873e-01 -2.749033e+00 -5.653031e+00 7.320653e-01 3.336502e-01 -9.434940e-04 -6.255422e-01 -1.254482e-01 3.983874e-01 3.058750e-01 2.700705e-02 1.420878e-02 1.673280e-01 1.108786e-01 -5.448678e-03 -1.589048e-01 -5.626276e-03 -4.783238e-02 1.086871e-01 -2.150768e-02 4.144870e-02 4.577933e-02 4.920898e-03 5.686781e-02 -4.444558e-02 -1.037482e-02 -4.298906e-02 1.734571e-04 1.621684e-02 -1.538425e-03
<VARIANCE> 39
 3.866989e+01 4.846617e+01 1.248974e+02 1.004702e+02 6.536893e+01 8.267240e+01 6.666866e+01 6.960397e+01 7.308743e+01 6.016016e+01 6.793877e+01 5.397720e+01 1.123929e-02 5.191318e-01 1.308010e+00 1.785880e+00 1.897959e+00 1.856852e+00 1.950802e+00 2.411703e+00 2.850282e+00 2.142234e+00 2.006443e+00 1.766873e+00 1.516943e+00 1.000000e-02 5.442443e-02 1.175418e-01 1.852282e-01 2.345351e-01 2.746119e-01 3.137099e-01 3.302891e-01 3.845826e-01 3.248853e-01 3.157698e-01 2.837598e-01 2.413489e-01 1.000000e-02
<GCONST> 9.741628e+01
<STATE> 4
<MEAN> 39
 -5.412427e+00 -1.486315e+00 -3.923759e+00 -6.733355e+00 -1.518681e+00 -3.482476e+00 -1.215823e+00 -5.224284e+00 -2.122868e+00 -2.335441e+00 -2.041405e+00 -3.707392e+00 3.488989e-01 -6.343160e-01 4.989832e-02 2.244888e-01 4.092006e-01 3.547614e-01 2.097352e-01 3.293902e-01 1.769864e-01 6.956566e-02 -2.079382e-01 3.431438e-02 2.519096e-01 -2.720425e-02 -1.944180e-02 -8.140511e-02 4.296648e-03 1.438907e-02 -2.291612e-02 -2.957514e-02 -1.761224e-02 5.014675e-02 4.180742e-02 4.974261e-02 1.869903e-02 -1.474405e-03 -5.955238e-05
<VARIANCE> 39
 5.225940e+01 2.869395e+01 3.458978e+01 7.160619e+01 5.011543e+01 4.131411e+01 4.786611e+01 4.337653e+01 4.476944e+01 4.216906e+01 4.222509e+01 3.255336e+01 7.291840e-02 8.183112e-01 1.102477e+00 1.143413e+00 1.929919e+00 1.846590e+00 1.992387e+00 2.135381e+00 1.967169e+00 2.211231e+00 2.324532e+00 1.936287e+00 1.705921e+00 1.000000e-02 1.134134e-01 1.518526e-01 1.906476e-01 2.732448e-01 3.033098e-01 3.266560e-01 3.447036e-01 3.526449e-01 3.789692e-01 3.984506e-01 3.300374e-01 2.994113e-01 1.000000e-02
<GCONST> 9.563701e+01
<TRANSP> 5
 0.000000e+00 1.000000e+00 0.000000e+00 0.000000e+00 0.000000e+00
 0.000000e+00 9.486127e-01 5.138732e-02 0.000000e+00 0.000000e+00
 0.000000e+00 0.000000e+00 9.643489e-01 3.565115e-02 0.000000e+00
 0.000000e+00 0.000000e+00 0.000000e+00 9.449583e-01 5.504170e-02
 0.000000e+00 0.000000e+00 0.000000e+00 0.000000e+00 0.000000e+00
<ENDHMM>
