~o
<STREAMINFO> 1 39
<VECSIZE> 39<NULLD><MFCC_E_D_A><DIAGC>
~h "zero"
<BEGINHMM>
<NUMSTATES> 5
<STATE> 2
<MEAN> 39
 -2.074999e+01 5.286845e+00 1.069194e+00 -1.744251e+00 -3.247737e+00 -5.616256e+00 -1.183199e+00 -5.769544e+00 -2.610854e+00 -3.804302e+00 -4.416399e-01 -2.872706e+00 4.510603e-01 2.627680e-01 -1.779445e-01 4.905954e-01 -5.867870e-01 -6.866428e-01 -3.366758e-01 -2.698013e-01 -3.741086e-01 -3.481334e-01 1.005123e-01 -1.541399e-01 -6.433336e-02 2.283190e-02 1.147084e-01 -1.534437e-01 7.043717e-02 -1.027966e-01 -5.258735e-02 3.988031e-02 -2.739235e-02 5.821856e-02 -2.166707e-02 6.224649e-02 -4.220411e-02 1.042202e-02 -1.507411e-03
<VARIANCE> 39
 8.912885e+01 5.045192e+01 4.971888e+01 6.705580e+01 6.590598e+01 5.913407e+01 5.270839e+01 5.084362e+01 4.098766e+01 3.414737e+01 3.506823e+01 2.293773e+01 6.378929e-02 4.226320e+00 3.265195e+00 3.230824e+00 3.112810e+00 4.265826e+00 3.634719e+00 3.556940e+00 3.350062e+00 2.945908e+00 2.359138e+00 2.203241e+00 1.685176e+00 1.000000e-02 4.850651e-01 3.689647e-01 3.886385e-01 3.818203e-01 6.693965e-01 6.670468e-01 5.898890e-01 6.184295e-01 5.039536e-01 4.440683e-01 3.733357e-01 3.154534e-01 1.000000e-02
<GCONST> 1.106566e+02
<STATE> 3
<MEAN> 39
 -5.319765e+00 -1.003572e+01 5.601906e+00 -1.132978e+01 -1.232898e+01 -1.405117e+01 -8.484331e+00 -2.786444e+00 -6.266494e+00 -2.499341e+00 -6.592061e+00 -6.787879e+00 6.873054e-01 3.467237e-01 -2.617780e-01 -5.684811e-01 1.453932e-01 3.022945e-01 6.769820e-02 -1.334926e-01 2.839209e-01 1.777669e-01 5.002203e-02 -1.045257e-01 -2.645704e-01 -3.352792e-03 -4.564763e-02 1.023686e-01 -6.269509e-02 5.926966e-02 8.097015e-02 3.094300e-02 3.477470e-02 -6.751027e-02 1.838003e-02 -1.308669e-02 4.236490e-02 3.650711e-03 -1.437757e-03
<VARIANCE> 39
 4.312685e+01 4.759464e+01 9.831583e+01 6.331308e+01 6.035328e+01 4.463759e+01 6.054289e+01 8.897985e+01 4.764801e+01 3.602489e+01 2.545278e+01 2.912873e+01 1.530282e-02 4.887821e-01 1.129792e+00 1.816338e+00 2.165281e+00 1.983431e+00 1.683406e+00 1.937147e+00 2.632505e+00 1.934866e+00 1.847953e+00 1.420416e+00 1.237584e+00 1.000000e-02 6.660576e-02 1.350702e-01 1.987507e-01 2.899307e-01 3.153859e-01 2.925903e-01 3.602678e-01 4.179352e-01 3.335386e-01 2.893282e-01 2.537743e-01 2.115957e-01 1.000000e-02
<GCONST> 9.354246e+01
<STATE> 4
<MEAN> 39
 -5.085035e+00 -3.458404e+00 -1.837607e+00 -1.065555e+01 -2.438649e+00 -4.205789e+00 -5.160344e+00 -5.147535e+00 -6.648567e+00 -2.262986e+00 -4.723191e+00 -5.653962e+00 4.655835e-01 -3.895335e-01 2.826488e-01 2.636861e-01 2.649526e-01 4.648397e-01 4.201375e-01 4.839348e-01 4.673152e-02 4.306015e-02 -1.093651e-01 2.063257e-01 3.804571e-01 -1.664347e-02 -2.828858e-02 -5.415417e-02 1.845155e-02 3.897707e-02 -1.670458e-02 -3.480531e-02 2.080669e-02 9.494814e-02 5.094202e-02 5.952727e-03 2.686575e-02 3.569987e-02 -6.914100e-04
<VARIANCE> 39
 5.555639e+01 3.748198e+01 7.298190e+01 8.933848e+01 8.773351e+01 4.223981e+01 5.712241e+01 7.826733e+01 6.287516e+01 3.908675e+01 3.737832e+01 4.767609e+01 4.257834e-02 7.992998e-01 1.060372e+00 1.219615e+00 1.991527e+00 1.745219e+00 1.911713e+00 1.734678e+00 2.339077e+00 2.744749e+00 2.406046e+00 1.973167e+00 1.599277e+00 1.000000e-02 1.035453e-01 1.319834e-01 1.826426e-01 2.361651e-01 2.587443e-01 2.829901e-01 2.769669e-01 3.453852e-01 4.150780e-01 3.942022e-01 3.181047e-01 2.647697e-01 1.000000e-02
<GCONST> 9.733223e+01
<TRANSP> 5
 0.000000e+00 1.000000e+00 0.000000e+00 0.000000e+00 0.000000e+00
 0.000000e+00 9.517000e-01 4.829996e-02 0.000000e+00 0.000000e+00
 0.000000e+00 0.000000e+00 9.599789e-01 4.002106e-02 0.000000e+00
 0.000000e+00 0.000000e+00 0.000000e+00 9.513600e-01 4.864000e-02
 0.000000e+00 0.000000e+00 0.000000e+00 0.000000e+00 0.000000e+00
<ENDHMM>
