~o
<STREAMINFO> 1 39
<VECSIZE> 39<NULLD><MFCC_E_D_A><DIAGC>
~h "zero"
<BEGINHMM>
<NUMSTATES> 5
<STATE> 2
<MEAN> 39
 -1.391820e+01 1.576358e+00 1.560844e+00 -4.879846e+00 -1.133472e+00 -3.457542e+00 2.035730e+00 2.240207e-01 -4.791657e+00 6.140985e-01 -1.182463e+00 -3.233679e+00 1.777094e-01 3.601333e-01 1.855723e-01 5.069718e-01 -1.081026e-01 -2.809957e-01 -3.256465e-01 -3.938075e-01 9.195758e-02 -3.387015e-01 -2.255500e-01 1.067383e-02 -1.442094e-01 2.905497e-02 6.546517e-02 -1.203272e-01 5.815904e-02 -1.749058e-02 -8.955941e-02 -5.568697e-03 -9.720261e-02 4.875797e-02 -3.226398e-02 -1.503666e-02 4.045488e-03 3.351093e-02 6.150770e-04
<VARIANCE> 39
 2.759693e+01 3.919667e+01 2.683582e+01 1.929208e+01 2.996169e+01 3.082097e+01 2.501171e+01 2.237222e+01 3.707914e+01 1.807790e+01 1.289336e+01 2.084872e+01 9.917380e-02 3.419012e+00 2.610714e+00 1.538598e+00 1.871077e+00 3.106270e+00 2.718410e+00 3.285075e+00 1.690789e+00 2.130033e+00 1.935607e+00 1.453098e+00 1.604687e+00 1.000000e-02 4.289049e-01 3.887877e-01 2.080690e-01 3.589429e-01 5.015283e-01 5.689968e-01 5.350685e-01 3.253442e-01 4.183484e-01 3.925661e-01 2.983254e-01 2.749978e-01 1.000000e-02
<GCONST> 9.631135e+01
<STATE> 3
<MEAN> 39
 7.050631e+00 -4.661257e+00 5.853963e+00 -3.409792e+00 -1.118258e+01 -7.804160e+00 -6.400376e+00 -1.342787e+00 -7.255188e+00 -1.105306e+00 -1.501981e+00 3.653208e+00 7.689270e-01 2.046183e-01 1.466203e-01 -3.959341e-01 1.431302e-01 2.368129e-01 3.876346e-01 5.598407e-01 -1.300002e-01 -3.720398e-02 -4.688218e-02 -2.354723e-02 1.867280e-01 -7.848122e-03 -1.132374e-01 1.118474e-01 -2.899466e-02 7.169581e-02 1.011317e-01 2.845695e-02 1.587382e-01 -2.553827e-02 3.701242e-02 6.738920e-03 -5.829905e-02 -1.266532e-01 -1.517888e-03
<VARIANCE> 39
 1.486682e+01 4.147741e+01 6.409163e+01 2.434930e+01 2.897454e+01 2.710858e+01 3.785174e+01 2.868699e+01 3.032899e+01 2.498747e+01 2.747489e+01 1.724260e+01 1.000000e-02 6.910331e-01 2.348631e+00 1.708538e+00 1.759675e+00 1.762767e+00 1.066070e+00 1.919685e+00 1.759579e+00 1.701978e+00 1.747827e+00 1.620181e+00 1.504856e+00 1.000000e-02 8.103468e-02 2.035118e-01 1.989681e-01 2.413044e-01 2.303048e-01 1.612404e-01 2.578766e-01 2.617245e-01 2.264538e-01 2.699962e-01 2.013141e-01 2.270560e-01 1.000000e-02
<GCONST> 8.449068e+01
<STATE> 4
<MEAN> 39
 -9.683837e+00 5.945207e-01 6.377769e-01 -2.616793e+00 -3.756312e+00 -1.940776e+00 2.227366e+00 -1.223057e+00 -8.419006e+00 -2.839264e+00 -2.711123e+00 -2.327761e+00 1.211637e-01 -5.463624e-01 -2.782649e-01 -8.817988e-02 -2.452014e-02 2.252875e-02 -1.644425e-01 -3.501988e-01 -1.628558e-02 2.194297e-01 1.673993e-01 -9.932810e-03 -6.839637e-02 -1.993791e-02 4.628877e-02 9.319249e-03 -1.210820e-02 -5.359355e-02 -2.043395e-02 -4.889029e-02 -6.462396e-02 -4.418271e-02 -1.309994e-02 3.015887e-02 6.232255e-02 7.296427e-02 7.342395e-04
<VARIANCE> 39
 2.455258e+01 1.174695e+01 1.253306e+01 1.257322e+01 1.338159e+01 2.452496e+01 4.234562e+01 1.673742e+01 1.905723e+01 2.619913e+01 1.807475e+01 1.633040e+01 3.921111e-02 7.717550e-01 8.293989e-01 8.685213e-01 1.126843e+00 1.251109e+00 1.566851e+00 1.917350e+00 1.445462e+00 1.652754e+00 1.857372e+00 1.566941e+00 1.800330e+00 1.000000e-02 5.091208e-02 1.317830e-01 1.598795e-01 2.007781e-01 2.532561e-01 3.287512e-01 3.516197e-01 3.138203e-01 3.807147e-01 3.901621e-01 3.442760e-01 3.454474e-01 1.000000e-02
<GCONST> 8.042450e+01
<TRANSP> 5
 0.000000e+00 1.000000e+00 0.000000e+00 0.000000e+00 0.000000e+00
 0.000000e+00 9.677419e-01 3.225807e-02 0.000000e+00 0.000000e+00
 0.000000e+00 0.000000e+00 9.678899e-01 3.211009e-02 0.000000e+00
 0.000000e+00 0.000000e+00 0.000000e+00 9.671361e-01 3.286384e-02
 0.000000e+00 0.000000e+00 0.000000e+00 0.000000e+00 0.000000e+00
<ENDHMM>
