~o
<STREAMINFO> 1 39
<VECSIZE> 39<NULLD><MFCC_E_D_A><DIAGC>
~h "zero"
<BEGINHMM>
<NUMSTATES> 5
<STATE> 2
<MEAN> 39
 -7.638062e+00 2.429891e+00 4.657355e+00 2.589839e-01 7.001766e+00 -5.148592e+00 -3.829158e+00 -7.109409e+00 -6.042753e-01 -8.789621e+00 -6.961825e+00 -4.740270e+00 2.621228e-01 5.043199e-03 1.590926e-01 -5.336924e-02 2.182865e-01 -9.994857e-02 -6.670833e-03 1.304876e-02 -1.093807e-01 2.212849e-02 3.989234e-02 -6.811401e-02 -4.587634e-02 2.155384e-03 -2.517685e-02 5.886336e-02 -2.522483e-02 2.048425e-02 -2.209118e-02 1.665918e-03 1.079382e-02 2.439762e-03 -1.334031e-02 -4.929258e-02 -2.410726e-02 -2.621708e-02 1.327373e-03
<VARIANCE> 39
 2.385057e+00 5.885413e+00 6.446173e+00 8.314533e+00 1.256886e+01 1.084763e+01 1.492383e+01 1.683697e+01 1.946185e+01 1.508080e+01 1.601065e+01 1.322318e+01 1.000000e-02 2.844058e-01 5.339584e-01 6.097190e-01 6.262446e-01 1.126534e+00 1.167326e+00 1.198684e+00 1.715934e+00 1.741452e+00 1.432445e+00 1.319471e+00 1.418771e+00 1.000000e-02 6.497236e-02 1.206276e-01 1.134886e-01 1.225337e-01 2.187928e-01 2.215392e-01 2.429533e-01 3.378941e-01 3.143554e-01 2.727033e-01 2.658099e-01 2.919375e-01 1.000000e-02
<GCONST> 6.598853e+01
<STATE> 3
<MEAN> 39
 -1.422816e+01 1.512682e+01 4.767190e+00 4.875094e+00 5.763286e+00 -7.991781e+00 -1.794388e+00 -8.895737e+00 -1.473039e+00 -9.509354e+00 -5.874569e+00 -3.076821e+00 5.398028e-01 -3.056918e-01 5.090712e-01 7.903552e-01 -1.777122e-01 -2.444456e-01 -7.203240e-01 -3.511678e-02 3.412691e-01 -4.229719e-01 4.811254e-02 1.560521e-01 3.015805e-01 3.003971e-02 2.748049e-01 -3.062100e-01 2.135134e-01 -1.195766e-01 -2.101338e-01 1.267769e-02 -1.559317e-01 1.011668e-01 -7.146817e-02 1.065145e-02 1.128521e-01 6.767455e-03 5.316480e-04
<VARIANCE> 39
 4.645715e+01 3.236747e+01 2.298361e+01 1.682680e+01 2.173592e+01 2.881127e+01 1.737856e+01 2.492163e+01 3.636960e+01 1.795884e+01 1.282756e+01 1.830655e+01 2.277221e-02 4.111897e+00 3.967413e+00 2.205144e+00 2.005665e+00 2.447152e+00 2.419096e+00 2.560741e+00 2.091608e+00 2.990822e+00 1.663758e+00 1.567988e+00 1.674186e+00 1.000000e-02 4.466629e-01 3.768983e-01 1.542014e-01 3.156839e-01 4.397458e-01 5.423403e-01 4.626943e-01 3.825147e-01 5.873430e-01 2.956775e-01 2.788351e-01 3.638592e-01 1.000000e-02
<GCONST> 9.470645e+01
<STATE> 4
<MEAN> 39
 -1.311915e-01 2.829309e+00 7.948255e+00 8.057861e-01 -2.583187e+00 -1.223874e+01 -1.010758e+01 -5.312471e-01 -6.269514e-01 -6.577921e+00 8.110240e-01 -1.301993e-01 8.176312e-01 9.485992e-01 -6.727006e-01 -7.350380e-01 6.167337e-02 -1.675140e-01 -1.145454e-02 -5.176619e-01 1.995834e-01 5.813445e-01 2.502001e-01 4.434644e-01 5.526150e-02 9.685065e-04 -1.996638e-01 1.744590e-01 -2.379247e-01 1.029177e-02 1.993853e-01 8.644298e-02 1.622804e-01 -1.244813e-01 9.485169e-02 8.382304e-02 -5.275909e-02 5.159191e-02 -2.970201e-03
<VARIANCE> 39
 1.956661e+01 2.451984e+01 8.917481e+01 2.213598e+01 4.063752e+01 6.495227e+01 4.893583e+01 1.899538e+01 3.595922e+01 3.886537e+01 2.015174e+01 1.708077e+01 1.014697e-02 2.005333e+00 2.535471e+00 3.449266e+00 1.752903e+00 4.227370e+00 2.820916e+00 2.838258e+00 2.675412e+00 2.521244e+00 2.196909e+00 2.064496e+00 1.848543e+00 1.000000e-02 1.698886e-01 3.343990e-01 4.281981e-01 3.329503e-01 5.539507e-01 4.150037e-01 2.677263e-01 4.160432e-01 4.292448e-01 3.427130e-01 3.725095e-01 3.208787e-01 1.000000e-02
<GCONST> 9.789516e+01
<TRANSP> 5
 0.000000e+00 1.000000e+00 0.000000e+00 0.000000e+00 0.000000e+00
 0.000000e+00 9.595376e-01 4.046243e-02 0.000000e+00 0.000000e+00
 0.000000e+00 0.000000e+00 9.292929e-01 7.070707e-02 0.000000e+00
 0.000000e+00 0.000000e+00 0.000000e+00 9.375000e-01 6.250000e-02
 0.000000e+00 0.000000e+00 0.000000e+00 0.000000e+00 0.000000e+00
<ENDHMM>
